FANN_FLO_2.1
num_layers=3
learning_rate=0.040000
connection_rate=1.000000
network_type=0
learning_momentum=0.000000
training_algorithm=2
train_error_function=1
train_stop_function=0
cascade_output_change_fraction=0.010000
quickprop_decay=-0.000100
quickprop_mu=1.750000
rprop_increase_factor=1.200000
rprop_decrease_factor=0.500000
rprop_delta_min=0.000000
rprop_delta_max=50.000000
rprop_delta_zero=0.100000
cascade_output_stagnation_epochs=12
cascade_candidate_change_fraction=0.010000
cascade_candidate_stagnation_epochs=12
cascade_max_out_epochs=150
cascade_max_cand_epochs=150
cascade_num_candidate_groups=2
bit_fail_limit=3.49999999999999977796e-01
cascade_candidate_limit=1.00000000000000000000e+03
cascade_weight_multiplier=4.00000000000000022204e-01
cascade_activation_functions_count=10
cascade_activation_functions=3 5 7 8 10 11 14 15 16 17 
cascade_activation_steepnesses_count=4
cascade_activation_steepnesses=2.50000000000000000000e-01 5.00000000000000000000e-01 7.50000000000000000000e-01 1.00000000000000000000e+00 
layer_sizes=28 28 3 
scale_included=0
neurons (num_inputs, activation_function, activation_steepness)=(0, 0, 0.00000000000000000000e+00) (0, 0, 0.00000000000000000000e+00) (0, 0, 0.00000000000000000000e+00) (0, 0, 0.00000000000000000000e+00) (0, 0, 0.00000000000000000000e+00) (0, 0, 0.00000000000000000000e+00) (0, 0, 0.00000000000000000000e+00) (0, 0, 0.00000000000000000000e+00) (0, 0, 0.00000000000000000000e+00) (0, 0, 0.00000000000000000000e+00) (0, 0, 0.00000000000000000000e+00) (0, 0, 0.00000000000000000000e+00) (0, 0, 0.00000000000000000000e+00) (0, 0, 0.00000000000000000000e+00) (0, 0, 0.00000000000000000000e+00) (0, 0, 0.00000000000000000000e+00) (0, 0, 0.00000000000000000000e+00) (0, 0, 0.00000000000000000000e+00) (0, 0, 0.00000000000000000000e+00) (0, 0, 0.00000000000000000000e+00) (0, 0, 0.00000000000000000000e+00) (0, 0, 0.00000000000000000000e+00) (0, 0, 0.00000000000000000000e+00) (0, 0, 0.00000000000000000000e+00) (0, 0, 0.00000000000000000000e+00) (0, 0, 0.00000000000000000000e+00) (0, 0, 0.00000000000000000000e+00) (0, 0, 0.00000000000000000000e+00) (28, 4, 5.00000000000000000000e-01) (28, 4, 5.00000000000000000000e-01) (28, 4, 5.00000000000000000000e-01) (28, 4, 5.00000000000000000000e-01) (28, 4, 5.00000000000000000000e-01) (28, 4, 5.00000000000000000000e-01) (28, 4, 5.00000000000000000000e-01) (28, 4, 5.00000000000000000000e-01) (28, 4, 5.00000000000000000000e-01) (28, 4, 5.00000000000000000000e-01) (28, 4, 5.00000000000000000000e-01) (28, 4, 5.00000000000000000000e-01) (28, 4, 5.00000000000000000000e-01) (28, 4, 5.00000000000000000000e-01) (28, 4, 5.00000000000000000000e-01) (28, 4, 5.00000000000000000000e-01) (28, 4, 5.00000000000000000000e-01) (28, 4, 5.00000000000000000000e-01) (28, 4, 5.00000000000000000000e-01) (28, 4, 5.00000000000000000000e-01) (28, 4, 5.00000000000000000000e-01) (28, 4, 5.00000000000000000000e-01) (28, 4, 5.00000000000000000000e-01) (28, 4, 5.00000000000000000000e-01) (28, 4, 5.00000000000000000000e-01) (28, 4, 5.00000000000000000000e-01) (28, 4, 5.00000000000000000000e-01) (0, 0, 0.00000000000000000000e+00) (28, 6, 5.00000000000000000000e-01) (28, 6, 5.00000000000000000000e-01) (0, 6, 0.00000000000000000000e+00) 
connections (connected_to_neuron, weight)=(0, 1.16780411293848995768e+00) (1, 1.04067055133178199000e+00) (2, 1.79461511596551992476e-01) (3, 2.28510295383750561271e-01) (4, 4.93585005488675843122e-01) (5, 5.00895337312456945256e-01) (6, 3.56907564370750440830e-01) (7, 5.15218348859034835918e-01) (8, 1.28352020441206637891e+00) (9, -1.80472001953942395858e+00) (10, -2.62874440163705136442e+00) (11, 1.26529131209719980511e+00) (12, 1.39544927434983878634e+00) (13, -2.42889878694481398114e+00) (14, -2.41039899274625257775e+00) (15, 1.19814433835105416115e+00) (16, 1.02010239724448381615e+00) (17, -4.48023133717618815552e+00) (18, 1.31491366295295564193e+00) (19, 7.70740890167144754308e-01) (20, 5.56627031824794893389e-01) (21, 1.75997043139728887029e-01) (22, 4.74243563239785281826e-01) (23, 1.39356305496735566329e+00) (24, 3.13012188448520300987e-01) (25, 4.76912169397614715827e-01) (26, 1.09048739426575846956e+00) (27, 1.52372566306025525318e-01) (0, -1.21981524680342609535e-01) (1, -2.02909772131370763626e-01) (2, -2.40816199704550981675e-01) (3, -1.08114873790332716164e-01) (4, -1.66966582738619723214e-01) (5, -2.83728322878303518273e-01) (6, -2.27010617560397170989e-01) (7, -2.16729442485937312535e-01) (8, -1.54344102966249729914e-01) (9, 9.89862806466612399348e-01) (10, 1.22175946010499081318e+00) (11, -7.75220130155151787577e-01) (12, -7.16058790227537489415e-01) (13, 1.04904423927203760414e+00) (14, 4.52780429296927788840e+00) (15, -3.41976741342776724419e-01) (16, -3.99859819741168132090e-01) (17, 9.77986049863993178732e-01) (18, -2.05376528290624332795e-01) (19, -2.90580818974644439212e-01) (20, -2.39758296847571134025e-01) (21, -2.23675461913873135922e-01) (22, -1.61550571663826275648e-01) (23, -3.75406139296287189033e-01) (24, -2.55057440009878788612e-01) (25, -1.94436220174660501225e-01) (26, -3.05667253981326714207e-01) (27, -9.02013474043368512767e-01) (0, 4.58972952993863814175e-01) (1, 8.69550969059898037905e-01) (2, 1.86238389348023170022e-01) (3, -3.11183678256153450903e-01) (4, 6.18359260024789580967e-01) (5, 1.59952842283596541328e+00) (6, 3.05831885480386922449e-01) (7, -2.95234713674402848849e-01) (8, 1.97441041657700905310e-01) (9, -1.00491974036974895945e+00) (10, -6.39751749939822200730e-01) (11, 1.39339670163307260964e+00) (12, 6.58164482974995745934e-01) (13, -8.40282980195436346449e-01) (14, -1.72665951716568372154e-01) (15, 1.17339371598669184316e+00) (16, 7.77883958482560866621e-02) (17, -2.16383797846771752660e+00) (18, 5.32526047258577772681e-01) (19, 4.84367465952683373676e-01) (20, 1.22335519274460013950e-01) (21, 1.43129364780622547748e-01) (22, 6.29194613906803312808e-01) (23, 1.78361455415964975657e+00) (24, 3.51875640534335787368e-01) (25, 2.44464087645865357779e-03) (26, 1.81674823839063914743e-01) (27, -1.04430772224153312067e+00) (0, -1.92091907567894987219e-01) (1, 5.89435176165844509910e-01) (2, 9.42753779387496049225e-01) (3, 3.32568850656579095837e-01) (4, -6.68408237601636812109e-01) (5, -4.73966908572616640871e-01) (6, 9.44938526019343361106e-01) (7, 4.44961858289116829468e+00) (8, -1.90061496300533400161e-01) (9, 5.48809068911544906122e-01) (10, 7.99233296363412448748e-01) (11, -3.36335773840531349066e+00) (12, -4.78055501532821447430e-01) (13, 2.55070161711621734568e+00) (14, 2.10452573324037828240e-01) (15, -2.07474284929824115409e+00) (16, -3.96658151932149649621e-01) (17, 4.98613681145805898165e-01) (18, -9.51340086433252324349e-02) (19, 3.98749321085865970904e-01) (20, 8.52227332693146877318e-01) (21, 7.39212571252961803125e-01) (22, -8.92726713772484359311e-01) (23, -4.46146700856546951641e-01) (24, 6.20528598866120661981e-01) (25, 3.34980461996534151226e+00) (26, -2.49083085445318852535e+00) (27, -1.74468780883682811345e-01) (0, -5.78679563308013733547e-01) (1, 6.40197189493357021739e-01) (2, 2.20250775850356295127e-01) (3, -6.93348497748634551296e-02) (4, -4.57472445668128446794e-01) (5, -2.02055891522190195220e-01) (6, 2.78388411304332938911e+00) (7, -2.72421900633670471814e-02) (8, -1.24302998284209320623e+00) (9, 5.79806272667108379970e-01) (10, -1.01739045952323706179e-01) (11, -8.42640718539883537552e-01) (12, 5.54691258664708919390e-01) (13, 1.26823410263354086069e+00) (14, -1.35164960132512945723e-01) (15, -1.15491054038626317357e+00) (16, 8.73978777879128587713e-01) (17, 8.08775713911894178487e-01) (18, -1.39219659671962064929e-01) (19, -4.12293761520170429224e-02) (20, -8.45022656606072702923e-02) (21, -2.91064844109595877164e-01) (22, -2.12833888268282783729e-01) (23, -1.28901744026917564057e-01) (24, 3.16440957008411283269e+00) (25, -1.16263502093783777092e-01) (26, -1.04122700420249136855e+00) (27, -4.01767536147534354285e-01) (0, -1.82857869244225268446e+00) (1, -6.34877027706410523855e-01) (2, 2.19515715322033400092e-01) (3, 3.02022675612088553621e+00) (4, -1.04028575279966273293e+00) (5, -1.35139233335113395640e+00) (6, 2.77876239346790454565e-01) (7, 3.72116262315468238064e-01) (8, -1.24336331122862575604e+00) (9, -1.51897140677474107306e+00) (10, 1.06450548643875606558e+01) (11, -4.83753785268810299058e-01) (12, -6.50231660267295819011e+00) (13, 3.70682408041761712880e+00) (14, 5.94705520609715154734e+00) (15, -8.85120216951380323067e-01) (16, -5.16953659016705202589e+00) (17, 2.04055464317816337427e+00) (18, -2.34023319586500155864e+00) (19, -1.49003231657665780041e+00) (20, -6.21723528817080331454e-02) (21, 2.11706028535728574269e+00) (22, -1.42602437007622404735e-02) (23, -8.27113764616440150235e-01) (24, -1.23511848422136694126e-01) (25, 3.03034294566267736748e-01) (26, -3.52395536467718817342e-01) (27, -6.74656187867279544257e-01) (0, 1.55899703821785862168e-01) (1, 1.77431863971810682701e-01) (2, 1.15424365867401082508e-01) (3, -3.20014868435981349182e-03) (4, 7.26305372474643773373e-02) (5, 3.31876397961455363306e-02) (6, 1.07875183239997646245e-01) (7, -6.96136280979708366168e-02) (8, 2.16449149309962868282e-01) (9, -4.33490824608939950835e-01) (10, -7.11024789108693044959e-01) (11, 5.98502723415381132632e-01) (12, 1.37403824659361961658e+00) (13, -3.96084234097376475248e-01) (14, -6.80502232404647355857e-01) (15, 4.80363717281999225150e-01) (16, 2.03178534729204163245e-01) (17, -3.26444507763433311442e-01) (18, 5.15448079266190226089e-02) (19, 1.26391784583093115535e-02) (20, 3.33063683172989954961e-02) (21, -1.58303496890163292177e-01) (22, -3.11319592406516972016e-02) (23, 1.78182312607722520559e-01) (24, 8.02030838325046985249e-02) (25, -1.05203756379613544425e-01) (26, 6.69392571702308591952e-02) (27, -1.09796198672107525596e+00) (0, -1.60166810105487278371e+00) (1, -3.06873064230461478630e+00) (2, 2.81203675040110956385e-01) (3, 6.52175685372557767394e-01) (4, -2.36677411162862560978e-01) (5, -2.84037621013115604285e+00) (6, 3.91998383268644501332e-01) (7, 6.96018732247403182356e-01) (8, -1.00754515435353608765e+00) (9, -1.55983962661970942953e+00) (10, 1.03188412315072390868e+01) (11, -1.79408598305818212104e+00) (12, -9.17055485750169552261e+00) (13, 1.20190787086382999682e+00) (14, 8.57334711623362544231e+00) (15, 4.25152635001048562202e+00) (16, -3.35714592875529982408e+00) (17, 2.54473625327837726928e+00) (18, -6.81651167924462675352e-01) (19, -3.26852002244942596576e+00) (20, 5.20165925627792402608e-01) (21, 2.78784493505751607145e+00) (22, -7.45404085305206076661e-01) (23, -8.10775409327663565406e-01) (24, 3.73794102263593885915e-01) (25, 1.01246379058244162508e+00) (26, 1.05278764184868101061e+00) (27, 5.63395111046564700530e-01) (0, 6.32483776252839302590e-02) (1, 2.59649647990517540297e-01) (2, 2.84914278574257051613e-01) (3, 3.16321536557470694984e-01) (4, 2.88375325127676163106e-01) (5, 2.59808598317630201624e-01) (6, 3.77058028296620662001e-01) (7, 3.52104954322043750548e-01) (8, 8.19954227517018657823e-02) (9, -1.14268885364211703060e-01) (10, -1.20111214022858237005e-01) (11, 5.21379745335087241287e-01) (12, 2.54662736611534101794e-01) (13, 3.56232288151020898281e-02) (14, -4.03656280690860708171e-02) (15, 3.68001533461601360031e-01) (16, 1.59009261399916640434e-01) (17, -3.88038663641164738305e-01) (18, -7.90273170006778047370e-02) (19, 2.92269921473767790854e-01) (20, 2.58175505970151653035e-01) (21, 3.01127438967361382716e-01) (22, 2.59529703673036238332e-01) (23, 2.19331362266182855469e-01) (24, 3.75988701308654527100e-01) (25, 2.12601649979734047546e-01) (26, -2.60698754917293891442e-02) (27, -2.40079158847212914552e+00) (0, -2.49970457194675921286e-01) (1, -1.11231413436557888264e-01) (2, 7.09616593749255591961e-02) (3, 2.91880812952918067271e-01) (4, 6.99034699272344309251e-03) (5, -3.81192029968013934571e-01) (6, 2.30947576758109736350e-02) (7, -5.74686217527834580787e-02) (8, -8.27206352182872639567e-02) (9, 6.19813998738884874840e-01) (10, 7.11054635246416988359e-01) (11, -6.59258696991516068842e-01) (12, -6.46445580387291274249e-01) (13, 7.29304861075898536171e-01) (14, 7.87574655579949101103e-01) (15, -6.77428147570960037527e-01) (16, -6.65886576351850001387e-01) (17, 4.78833355302447361002e-01) (18, -2.25548779394893372796e-01) (19, -1.51100903708106609757e-01) (20, -4.51589597390357269657e-02) (21, 1.19302384629152394280e-01) (22, -4.37101448782162560480e-02) (23, -1.27975695783293197394e+00) (24, -1.50114770094852523208e-01) (25, 1.03559334044401096797e-01) (26, -2.16315380190676281869e-01) (27, -6.33102526261156373089e-01) (0, 1.56871033491910472080e+00) (1, 3.29942490878781413688e-01) (2, -7.23809366058682890355e+00) (3, -3.48905881670556450302e+00) (4, 6.41532421117319451298e+00) (5, 5.34827767353195770994e+00) (6, -1.22630328166084123787e+00) (7, -6.98684271391453304290e+00) (8, 2.18437827220899549729e+00) (9, -3.82494782670251692869e-02) (10, 3.60470294511910482882e+00) (11, 1.10036608222524723288e+01) (12, 7.02344873375543521377e+00) (13, -1.28546964706209134732e+01) (14, -4.60883847117267375637e+00) (15, 6.41265149094703712507e+00) (16, 7.19586329607588282009e-01) (17, 7.11262860198871749162e+00) (18, -2.33233572424044810489e+00) (19, 3.90879419991331189532e-01) (20, -7.51377196848711736976e+00) (21, -5.08981199357455338372e-01) (22, 4.92219098211700689660e+00) (23, 7.63318639840401136354e+00) (24, -5.73440320357234956106e+00) (25, -6.70917667136112338966e+00) (26, 4.42117202103177664441e+00) (27, -3.42866275741548098832e-01) (0, -2.30336208807955883371e-01) (1, 5.06127013657866497987e-01) (2, 8.65516555218376781866e-01) (3, 1.44582488811284631813e-01) (4, -1.96353555567964133122e-01) (5, -1.27194930963111491051e-01) (6, 1.03176931687129602722e+00) (7, -7.44653452389529985078e-02) (8, -3.30721873725477788497e-01) (9, 1.52366343690952421586e-01) (10, -1.95303094231009666260e-01) (11, -1.20502494294458317725e+00) (12, 1.46984172520859712741e+00) (13, 1.14042820494663366127e+00) (14, -1.05770682253838829712e-01) (15, -2.62705198858191391054e+00) (16, 1.28158122310820465906e-01) (17, 1.57227965667443736475e-01) (18, -6.46009673336136791555e-01) (19, 5.36823118434591253778e-02) (20, 9.58558642883435396698e-01) (21, -1.33747520910441203279e-01) (22, -2.31515244926860874752e-01) (23, -2.65723502708646752701e-01) (24, 9.03503582820767259243e-01) (25, 2.14900045262968325543e-01) (26, -3.47728369279315052687e-01) (27, -4.98811397622856256273e-01) (0, 2.33991793450550300548e+00) (1, 1.05669187261221519947e+00) (2, 4.65775588369211679396e-01) (3, 1.00417354832810956644e+00) (4, 1.04467450454805521609e+00) (5, 9.51848828192062512699e-01) (6, 8.71235147289680433857e-01) (7, 9.56303593742851787418e-01) (8, 1.05278860947635144463e+00) (9, -5.18937405261645956500e+00) (10, -1.37996698353249236391e+00) (11, 1.27633960087597553290e+00) (12, 9.26073060237162848374e-01) (13, -8.23437766192469489113e+00) (14, -1.87378147921138116239e+00) (15, 1.21503012821747935490e+00) (16, 9.01703041012780870389e-01) (17, -8.31476806799876833054e+00) (18, 1.35858392112839831967e+00) (19, 8.79467418275084900081e-01) (20, 2.76709712746150637841e-01) (21, 9.65685297534885522808e-01) (22, 9.81815678966708071940e-01) (23, 1.00592191333132929820e+00) (24, 9.52916947707349026864e-01) (25, 1.06358278856621080166e+00) (26, 1.72174377953967416843e+00) (27, -6.26901510384170329582e-02) (0, 1.09409686445826950796e-01) (1, 6.90774883427545810521e-02) (2, 4.08811752127861277595e-02) (3, 7.41136039719340944387e-01) (4, 2.55773482076841529587e-01) (5, -3.08903677327035872113e-02) (6, -2.21881141514625110367e-02) (7, 1.02222237531451057291e-01) (8, 2.47316199711100193070e-01) (9, -2.37763913766226880897e-01) (10, 7.86820739895535470332e-01) (11, 2.52393838203918530194e-01) (12, -2.37599547914381403757e+00) (13, -1.50231028289582624335e-01) (14, 7.00042294066932746510e-01) (15, 7.62808641346458399246e-02) (16, -4.81410102446621968042e-01) (17, -1.66135903640455717678e-01) (18, 9.19340920356353022425e-04) (19, -1.15064077791449129173e-01) (20, 7.28397484470596628947e-02) (21, 1.96377238039723356344e+00) (22, 1.76053631255111558973e-01) (23, 6.65689981075044401315e-02) (24, 1.38519415222737168891e-01) (25, 1.38605844182980275647e-01) (26, 3.31677420021685501195e-02) (27, -5.44508268219078606087e-01) (0, -6.84982230590860663444e-02) (1, -6.32131896361344675084e-02) (2, -1.66248419988876128262e-01) (3, 1.11920787850623523751e-01) (4, -4.82421575238293695587e-02) (5, -1.68229041535736201229e-01) (6, -1.10452168817182453525e-02) (7, -5.04345078248512740382e-02) (8, -1.05557796596706415793e-01) (9, 4.93596558779924032834e-01) (10, 4.99887158682167098700e-01) (11, -2.15912006635967310131e-02) (12, -2.19659066854725665285e-01) (13, 1.23139733751776225823e+00) (14, 1.10279535904188730200e+00) (15, -5.75424629227281395072e-02) (16, -1.70660036288677513516e-01) (17, 4.90517936505477480935e-01) (18, -6.28035203967911986878e-02) (19, -5.46966103637011730187e-02) (20, -1.07219092264615178944e-01) (21, 1.35496879600336628258e-01) (22, -1.44602837171277281980e-01) (23, -6.35492627432721612912e-02) (24, -1.47222001567766130892e-01) (25, 3.28919585392839345685e-04) (26, -1.34912983270235875555e-01) (27, -1.04749709919157929505e+00) (0, -2.88942933768465870514e+00) (1, -7.44212245261673260854e-02) (2, 1.11334795948222691209e+01) (3, -6.65978287424192294530e-01) (4, -7.27811288299311076599e-01) (5, -1.20432689895353939313e-01) (6, 4.43361331230695832062e+00) (7, 2.65562455148692189155e+00) (8, -9.11803021560568804915e-01) (9, 8.93306696134814171018e-01) (10, 1.71081456454003899559e+00) (11, -1.43070193943235999257e+01) (12, -3.45003829238302639482e+00) (13, 9.88349411709572223117e+00) (14, -1.83660074773367454348e+00) (15, -6.68935900544524386646e+00) (16, -3.09550494318745661460e+00) (17, 3.26711410353625186787e+00) (18, -3.35756969744789857124e-01) (19, 3.28859448670889176203e-01) (20, 1.13640378182088337411e+01) (21, -2.16789260719606335925e+00) (22, -3.00466733861905854752e+00) (23, 4.53927644330302015874e+00) (24, 3.96725359008357969515e+00) (25, 4.84242109614674509643e-01) (26, -1.78666894669832387876e+00) (27, -1.44695024494545343430e+00) (0, -2.76488931898556222766e-01) (1, -3.15450341303259607084e-01) (2, 1.54896408933481638526e-01) (3, 2.59819338232688723522e+00) (4, -2.03049020383587935923e-01) (5, -5.95458049831240288086e-01) (6, 2.36615011560984994654e-01) (7, 7.65028508186364031296e-01) (8, -1.96529104521218939139e-01) (9, 2.55072551622950553785e-03) (10, 4.06904565371484783221e-01) (11, -5.29096359977783370354e-01) (12, -4.17218625920182528688e+00) (13, 1.73025347883519614589e-01) (14, 3.96003033158942308045e-01) (15, -2.25912526332783858418e-01) (16, -6.34256740313685396515e-01) (17, 2.24252420093604860896e-02) (18, -2.26432404865197361987e-01) (19, -3.85107618465721335266e-01) (20, 1.23485720643135210572e+00) (21, 1.86120434214185892507e+00) (22, -2.14061760756319247045e-01) (23, -8.15339588784099955632e-01) (24, 5.32890552525532745776e-01) (25, -9.78575507187083304395e-02) (26, -2.77341038070742229582e-01) (27, 1.17178096883738223910e-02) (0, -1.48892723805485627242e-01) (1, -2.05003960863531564662e-01) (2, -1.04915481753412115351e-01) (3, -2.47533060888141476230e-01) (4, 4.04592303029799760239e-01) (5, 3.87971617561470583091e-02) (6, -2.45755267754034528727e-01) (7, -3.64719596475094165466e-01) (8, -1.19354553672866403602e-01) (9, -3.26330796788652788276e-01) (10, -1.93547504346365584205e-01) (11, 1.38653919593107510799e+00) (12, -3.21669100030921861766e-02) (13, -3.48869198148531067805e-01) (14, 1.37081528181745793127e-01) (15, 1.18131755508837432700e+00) (16, 2.64879321848497772951e-01) (17, -2.12654941595937896359e-01) (18, 1.28415079040681660849e-02) (19, -2.66179110319624934178e-01) (20, -1.13459100013465666312e-01) (21, -1.73606532009981273657e-01) (22, 2.37912697490465702144e-01) (23, -6.05505327925008121626e-02) (24, -3.54130588946552193885e-01) (25, -1.20384302225637340733e-01) (26, -4.16188621987053780638e-02) (27, -3.33884877348881892178e-01) (0, -1.24913064002159165944e-01) (1, 2.35813718079311285258e-01) (2, 2.15218111404438111611e-01) (3, 2.29405787851807541067e-01) (4, 2.65661082032369655348e-01) (5, 2.29485718941289357220e-01) (6, 2.56025369771286648302e-01) (7, 1.58443433077640860596e-01) (8, 9.03647285659336593766e-03) (9, -6.74949376688505076061e-02) (10, -1.26581095292915418726e-01) (11, 4.61234065863002362651e-01) (12, 4.72127647118195603593e-01) (13, -1.54789566031142439284e-01) (14, -1.42839996233044802532e-01) (15, 6.14222132646378371490e-01) (16, 1.03043020915134980742e-01) (17, -3.93677565423325048766e-01) (18, -5.38719671411036493680e-02) (19, 2.58953082290533376231e-01) (20, 1.46900666238485883008e-01) (21, 2.77091823380679114219e-01) (22, 2.19187468071153523930e-01) (23, 3.21000803088700048527e-01) (24, 1.74828702272909336513e-01) (25, -2.00696123276839916150e-01) (26, -1.78287437524525138599e-01) (27, -4.05394242346407551736e+00) (0, -3.77508136168155927770e-01) (1, -4.19038308353848032439e-01) (2, -3.34630137274293693039e-01) (3, 8.55377020238208274350e-02) (4, 3.06117928846959090616e-02) (5, 2.15664596820485054973e-01) (6, 1.09852219105143061872e-01) (7, -3.86648553168430220150e-01) (8, -3.52013411524201513814e-01) (9, 2.69435676590380368545e-01) (10, 3.17285180027428004301e-01) (11, -2.81115537360248357590e-01) (12, -3.65083147802125029813e-01) (13, 3.45738168645135846013e-01) (14, 4.13047342017156260408e-01) (15, -1.95790907762052796004e-01) (16, -2.38310078295634553136e-01) (17, 2.80977770886558231300e-01) (18, -4.44118953391406001696e-01) (19, -2.55428789852742199606e-01) (20, -3.91461238065883232462e-01) (21, 8.83465710040360063804e-02) (22, 3.34227924537835591190e-02) (23, -1.66447776244411753399e-02) (24, -3.54829341526666897089e-01) (25, -4.18956603677761052484e-01) (26, -4.20523147177655542972e-01) (27, 4.99725582522620115355e+00) (0, 7.52492413442499730181e-01) (1, -7.40905642260180838377e-03) (2, -7.77033003484192241750e-01) (3, -5.73371737256365476831e-01) (4, -3.69136712786300724698e-02) (5, 2.70769648802065387994e-01) (6, -7.31305781257345577373e-01) (7, -9.09905293231998535397e-01) (8, -2.84385611554787455513e-02) (9, 2.19021883734385935938e+00) (10, -6.73438922275519491478e+00) (11, 6.74404757763239626200e+00) (12, 8.98929857102922014178e+00) (13, -2.76405838191298025563e+00) (14, -6.24866078009306846752e+00) (15, 8.10221768494637473168e+00) (16, 8.81441940592674910704e+00) (17, -3.08929895070122517708e+00) (18, 3.79909990526883678541e-01) (19, 7.09599598279436194481e-02) (20, -2.03047174838009381048e+00) (21, -1.42751268734185421394e+00) (22, -4.30084786231220220221e-02) (23, 1.12022230761430197088e-01) (24, -5.76379712438427782573e-01) (25, -7.34995101973887621227e-01) (26, 3.56055558903775326574e-01) (27, -2.44108696953904269478e+00) (0, 2.83963054570279711808e-02) (1, -1.08571212388963334039e-01) (2, 4.08936624841654106088e-01) (3, 3.65539894381345209506e-01) (4, 1.87828192479347760857e-01) (5, 3.15992395557549488050e-01) (6, 4.77505653426748444268e-01) (7, 8.87445271766413523729e-01) (8, -4.56806402040847922552e-02) (9, 5.08894704057731628311e-01) (10, 4.86819050194910230012e-01) (11, -1.33175547958285367400e+00) (12, -2.67723651982147037298e-01) (13, 4.41036818125028373672e-01) (14, 5.58135922896477398858e-01) (15, -2.86219622822527153261e+00) (16, -4.73274699252034858343e-01) (17, 5.83123265194862794303e-01) (18, 5.59788314412463933190e-02) (19, -1.10638273480525489711e-01) (20, 3.72543676343093210779e-01) (21, 4.09140897731430974726e-01) (22, 3.36561794156999438687e-01) (23, 2.74463326765540582830e-01) (24, 5.77503597901885434851e-01) (25, 1.15435990444183800285e+00) (26, 9.63965095458842319287e-02) (27, -7.44923561520450389084e-02) (0, 1.93736942020905605899e-01) (1, -4.64141034201681734750e-01) (2, 7.17242998748210836696e-03) (3, 4.04298637661308746249e-01) (4, 1.86550126272576521913e+00) (5, 8.02838344390370134418e-02) (6, -7.93048061351980360101e-01) (7, -4.97932700160087227115e-02) (8, 1.82120362873156160788e+00) (9, -4.15944100537360195169e-01) (10, 7.67587634028212728587e-01) (11, 1.29589478241799893610e-01) (12, -1.91757653154020490938e-01) (13, 5.39450136446645023280e-02) (14, 4.70457605893456254353e-01) (15, 1.16941779719110919289e-01) (16, -6.66682432488182818986e-01) (17, 5.44497594914315624637e-02) (18, 6.98075651888561021785e-01) (19, -2.03241889655487373290e+00) (20, 2.36856150237187597363e-02) (21, 9.71498776876119740642e-01) (22, 5.29625779633029369897e-01) (23, 8.13393549335622439989e-02) (24, -1.33441334903176267446e+00) (25, 6.10455364309952092094e-02) (26, 5.12636680965149138522e-01) (27, 1.04584702998839748633e-01) (0, 7.87979391966121961444e-02) (1, 4.99651636108787225443e-02) (2, 1.41374915362894676418e-01) (3, 3.56119685316107448259e+00) (4, 2.18193847972561943971e-01) (5, 7.07861492937671421544e-02) (6, 9.74181544039757207898e-02) (7, 1.45131560863260317129e-01) (8, 1.47803418566006372625e-01) (9, -1.81984063478224045163e-01) (10, 3.78931684536588764267e-01) (11, 3.61950728786605613330e-01) (12, -2.65863100318728307059e+00) (13, -1.22594152573993600552e-01) (14, 4.26874085441939110641e-01) (15, 2.11901867903635826584e-01) (16, -5.68403799900885853269e-01) (17, -1.05717595448229742527e-01) (18, 9.89614584631415411531e-02) (19, -3.35819718901860408966e-01) (20, 1.62426357596389098203e-01) (21, 6.83731207272179397627e-01) (22, 2.84483154553516748297e-01) (23, 1.00309810435768628767e-01) (24, -5.74566022015403493617e-02) (25, 1.60323970903764878582e-01) (26, 1.45578386053745789663e-01) (27, -5.35081268672080168081e-01) (0, -1.73009155650941298665e-01) (1, -7.69442494781107932944e-02) (2, 1.56837046146555553205e-01) (3, 1.91740246712726936096e-01) (4, -5.22539479594289923980e-01) (5, 1.17151220101023745279e-01) (6, 9.24570699045300314900e-01) (7, -2.03785621704674152488e-01) (8, -2.84859175777192885626e-01) (9, 1.38931500870042112794e+00) (10, -8.20693927023115277208e-01) (11, 2.08258424582642959200e-01) (12, 7.39936227543871560819e-01) (13, 1.83486175475673474189e-01) (14, -4.14690753029118286399e-01) (15, 1.94341969334412834058e-01) (16, 2.89702553050791400402e-01) (17, -5.31740221167995227858e-02) (18, 3.82006656029142244169e-01) (19, 6.66070910067006138888e-01) (20, 1.92100802126752234766e-01) (21, -3.16184059667316941233e-01) (22, 1.48696719012887303840e-02) (23, 1.64630155758089202767e-01) (24, 3.64322638001760734650e-01) (25, -1.17215125451772594900e-01) (26, -3.53088775132971433024e-01) (27, -2.51088898773500535100e+00) (0, 3.02447253315643094229e-01) (1, 1.76826144716796890277e-01) (2, 1.13567263359980380466e-01) (3, 1.84983628590953047555e-01) (4, 3.65804007281811616181e-01) (5, 2.41728835851422019232e-01) (6, 5.33614945051443315127e-02) (7, -1.23896178664237455874e-02) (8, 2.84180948126543320154e-01) (9, -1.42916908867444614195e+00) (10, -7.26743152936929037722e-01) (11, 9.96661474858706375457e-01) (12, 1.85286720711805880102e-01) (13, -1.35935577261231221868e+00) (14, -7.03612921221957399176e-01) (15, 1.02208012548582249934e+00) (16, 4.80528016122762247075e-01) (17, -2.83485912337366441349e+00) (18, 2.73521246379862081888e-01) (19, 1.11375348744064031625e-01) (20, 1.31375102555413153516e-01) (21, 2.52227146643025590400e-01) (22, 4.17885207181910689478e-01) (23, 2.91202707032520713426e-01) (24, -5.23604787464339235803e-02) (25, 1.78902885144205769929e-01) (26, 2.19832680991614848320e-01) (27, -3.57137625862664120913e-01) (0, -8.94426340522277540934e-01) (1, -3.44675638443778575848e+00) (2, 2.04993381012164421762e+00) (3, 4.54821086021797427179e+00) (4, -1.72519297910753460767e-01) (5, -3.53065832548953240089e-01) (6, 1.38939053612572016583e+00) (7, 1.54317114495993923384e+00) (8, -1.35362612147025496157e+00) (9, 1.18398151606572898942e+00) (10, 7.07583354606753189842e+00) (11, -3.07957621103247591865e-01) (12, -5.02389764141111871965e+00) (13, 1.82734416305497204824e+00) (14, 2.63485828615382189355e+00) (15, -1.87613857125849903262e+00) (16, -6.17681289990772253162e+00) (17, 1.93550924411917479873e+00) (18, -4.40599930862564104217e+00) (19, -2.81880751299550535993e-02) (20, 2.01086341736896168086e+00) (21, 5.67625777230642913906e+00) (22, -7.59085119492978882549e-02) (23, -1.80163152052065389519e+00) (24, 1.69899091007207680981e+00) (25, 1.95849489506623908319e+00) (26, 4.36827788975231001700e-01) (27, -1.58711267506799358351e+00) (28, -2.59509724474477954104e-01) (29, 7.28922917399834197072e-02) (30, -7.45828551367675590678e-02) (31, 4.30294711839162014044e-02) (32, -7.73653063022701620310e-02) (33, 1.29797169499799497361e-01) (34, -2.08060710025424144831e-01) (35, 1.58647372314007661931e-01) (36, -2.69542624231006444635e-02) (37, 8.62332610310238972806e-02) (38, -6.81735312803086468403e-02) (39, -4.83930199296158880529e-01) (40, 1.53018387171811598435e-01) (41, 1.16285322473192717641e-01) (42, 6.58803970687958234675e-02) (43, -8.89564693966782109313e-03) (44, 1.76035092053448499749e-01) (45, -4.86932104997662776324e-02) (46, -3.45993379980301316023e-02) (47, 1.16802720609991105005e-02) (48, -1.32246502936344295653e-01) (49, 4.40884362423963685473e-02) (50, 8.81323540845614233907e-02) (51, 1.16865437645205225148e-01) (52, -1.11433905830226664957e-01) (53, -5.36743634529035784642e-02) (54, 2.62797167425623867665e-01) (55, -8.00951451921311924353e-02) (28, 2.18221312384191429290e-01) (29, -2.22305131543989358336e-03) (30, 9.84489049089088130717e-02) (31, -8.87695892940512376601e-02) (32, -1.64287758399314948177e-01) (33, 1.45365205237048510101e-02) (34, 4.24945697448455006473e-02) (35, 1.02853784840988508181e-02) (36, 3.89919594666809782302e-02) (37, -6.28340209490418216687e-02) (38, 1.27514721265422598107e-01) (39, -6.88658026857979832513e-01) (40, 2.02668128308390871339e-01) (41, 7.32874231941777198873e-02) (42, -2.01469522682507749811e-02) (43, -1.04397250487783491146e-01) (44, -2.45569855204819699479e-02) (45, 1.44712817017457889834e-01) (46, 1.55869079257316533321e-02) (47, -1.00972106401657948926e-01) (48, 3.97741484264569275520e-02) (49, -8.03171623947550594735e-02) (50, 1.52244275229360154222e-01) (51, 6.91225181033203184278e-02) (52, -5.89560321416878058143e-02) (53, 1.42889979691487478686e-01) (54, -8.98262993911532977610e-04) (55, 3.83523858433170404536e-03) 
