FANN_FLO_2.1
num_layers=3
learning_rate=0.050000
connection_rate=1.000000
network_type=0
learning_momentum=0.000000
training_algorithm=2
train_error_function=1
train_stop_function=0
cascade_output_change_fraction=0.010000
quickprop_decay=-0.000100
quickprop_mu=1.750000
rprop_increase_factor=1.200000
rprop_decrease_factor=0.500000
rprop_delta_min=0.000000
rprop_delta_max=50.000000
rprop_delta_zero=0.100000
cascade_output_stagnation_epochs=12
cascade_candidate_change_fraction=0.010000
cascade_candidate_stagnation_epochs=12
cascade_max_out_epochs=150
cascade_max_cand_epochs=150
cascade_num_candidate_groups=2
bit_fail_limit=3.49999999999999977796e-01
cascade_candidate_limit=1.00000000000000000000e+03
cascade_weight_multiplier=4.00000000000000022204e-01
cascade_activation_functions_count=10
cascade_activation_functions=3 5 7 8 10 11 14 15 16 17 
cascade_activation_steepnesses_count=4
cascade_activation_steepnesses=2.50000000000000000000e-01 5.00000000000000000000e-01 7.50000000000000000000e-01 1.00000000000000000000e+00 
layer_sizes=28 4 3 
scale_included=0
neurons (num_inputs, activation_function, activation_steepness)=(0, 0, 0.00000000000000000000e+00) (0, 0, 0.00000000000000000000e+00) (0, 0, 0.00000000000000000000e+00) (0, 0, 0.00000000000000000000e+00) (0, 0, 0.00000000000000000000e+00) (0, 0, 0.00000000000000000000e+00) (0, 0, 0.00000000000000000000e+00) (0, 0, 0.00000000000000000000e+00) (0, 0, 0.00000000000000000000e+00) (0, 0, 0.00000000000000000000e+00) (0, 0, 0.00000000000000000000e+00) (0, 0, 0.00000000000000000000e+00) (0, 0, 0.00000000000000000000e+00) (0, 0, 0.00000000000000000000e+00) (0, 0, 0.00000000000000000000e+00) (0, 0, 0.00000000000000000000e+00) (0, 0, 0.00000000000000000000e+00) (0, 0, 0.00000000000000000000e+00) (0, 0, 0.00000000000000000000e+00) (0, 0, 0.00000000000000000000e+00) (0, 0, 0.00000000000000000000e+00) (0, 0, 0.00000000000000000000e+00) (0, 0, 0.00000000000000000000e+00) (0, 0, 0.00000000000000000000e+00) (0, 0, 0.00000000000000000000e+00) (0, 0, 0.00000000000000000000e+00) (0, 0, 0.00000000000000000000e+00) (0, 0, 0.00000000000000000000e+00) (28, 4, 5.00000000000000000000e-01) (28, 4, 5.00000000000000000000e-01) (28, 4, 5.00000000000000000000e-01) (0, 0, 0.00000000000000000000e+00) (4, 6, 5.00000000000000000000e-01) (4, 6, 5.00000000000000000000e-01) (0, 6, 0.00000000000000000000e+00) 
connections (connected_to_neuron, weight)=(0, 4.50275256016604785714e-01) (1, -8.40164095924789688929e-02) (2, 4.38792298446864903472e-01) (3, 1.16164431702788606415e+00) (4, 7.25868898614424051807e-01) (5, -2.75524288725550792201e-01) (6, 1.62403632247670876021e-02) (7, 5.27681345733468587511e-01) (8, 4.20798237272647090990e-01) (9, -1.88064824624388271523e+00) (10, 1.47300596721976928549e+00) (11, 1.64358685194921672057e+00) (12, -3.75296549389439215716e+00) (13, -2.35680202726493304155e+00) (14, 1.31733393816402299947e+00) (15, 1.66311480853450088802e+00) (16, -2.85070196527271857434e+00) (17, -7.40297522570993682400e-01) (18, 5.19157951697649888700e-01) (19, -1.98265994579351040317e-01) (20, 1.97039685044926360380e-01) (21, 1.08569094414971178963e+00) (22, 6.96338336341907337967e-01) (23, -3.06714945886372158945e-01) (24, 1.72856956037545611560e-01) (25, 5.08723261175386798350e-01) (26, 3.50475015903586706312e-01) (27, -7.54798397791752506691e-01) (0, 1.24830736893221438955e+00) (1, 1.30622461752859431172e+00) (2, 6.63793054074991895064e-01) (3, 5.82988496607413475559e-01) (4, 3.39652895764749773733e-01) (5, 1.18601140977116403796e+00) (6, 3.26523126794868168155e-01) (7, -1.25623696895965419884e-01) (8, 5.35610440644850971381e-01) (9, -1.43800054632089957529e+00) (10, -3.04855542904295795381e+00) (11, -6.48799033966965588149e-01) (12, 1.68899932561002041886e+00) (13, -2.50601708368168818453e+00) (14, -2.03392315382875565888e+00) (15, 1.60306451248615922101e-01) (16, 5.08014016134278545422e-01) (17, -2.36138363563403919088e+00) (18, 1.17854989057917225459e+00) (19, 1.20632477858611220078e+00) (20, 7.39603044514930418885e-01) (21, 2.14868645108919870124e-01) (22, 4.44971427007483155691e-01) (23, 9.63939681569661033222e-01) (24, 4.05528749823495182625e-01) (25, -1.94236892083962109368e-01) (26, 5.04022627003764323028e-01) (27, -6.70526003749526422482e-01) (0, 2.48196648318912277409e-01) (1, 4.70620257449482437551e-01) (2, 9.38512785489958090146e-01) (3, 6.62074756421243915128e-01) (4, 2.48494112844789366568e-01) (5, -2.48681092595634867237e-01) (6, 9.97031597003833147674e-01) (7, 5.80655543283028374724e-01) (8, -1.77961201162615739735e-01) (9, -1.40983550874979685075e-01) (10, 8.70294010945584894934e-01) (11, -2.37259900879942842167e+00) (12, -3.37794974187940910682e+00) (13, 3.80321089241885479382e+00) (14, -3.76975884281664841424e-01) (15, -2.29000266645999195347e+00) (16, -2.27222264949417152025e+00) (17, 8.84840809098833114277e-01) (18, 6.44794910850197272589e-02) (19, 4.69440590954703307336e-01) (20, 7.22697524260092927229e-01) (21, 7.03962111720926708713e-01) (22, 2.95875320856663348579e-02) (23, -1.35570187277836873285e-01) (24, 8.31230004258429300279e-01) (25, 5.91676500455241893839e-01) (26, -3.36127820881902183991e-01) (27, -3.31897447968312053757e-01) (28, 1.16111627327842148460e+00) (29, -1.01338519288099138116e+00) (30, 4.66133581791541684591e-01) (31, -2.15216418503225648262e-01) (28, 6.15227065274282503005e-01) (29, 4.05749228790161564628e-01) (30, -9.69361737601365236472e-01) (31, 6.05706201712960315420e-02) 
