FANN_FLO_2.1
num_layers=3
learning_rate=0.050000
connection_rate=1.000000
network_type=0
learning_momentum=0.000000
training_algorithm=2
train_error_function=1
train_stop_function=0
cascade_output_change_fraction=0.010000
quickprop_decay=-0.000100
quickprop_mu=1.750000
rprop_increase_factor=1.200000
rprop_decrease_factor=0.500000
rprop_delta_min=0.000000
rprop_delta_max=50.000000
rprop_delta_zero=0.100000
cascade_output_stagnation_epochs=12
cascade_candidate_change_fraction=0.010000
cascade_candidate_stagnation_epochs=12
cascade_max_out_epochs=150
cascade_max_cand_epochs=150
cascade_num_candidate_groups=2
bit_fail_limit=3.49999999999999977796e-01
cascade_candidate_limit=1.00000000000000000000e+03
cascade_weight_multiplier=4.00000000000000022204e-01
cascade_activation_functions_count=10
cascade_activation_functions=3 5 7 8 10 11 14 15 16 17 
cascade_activation_steepnesses_count=4
cascade_activation_steepnesses=2.50000000000000000000e-01 5.00000000000000000000e-01 7.50000000000000000000e-01 1.00000000000000000000e+00 
layer_sizes=28 28 3 
scale_included=0
neurons (num_inputs, activation_function, activation_steepness)=(0, 0, 0.00000000000000000000e+00) (0, 0, 0.00000000000000000000e+00) (0, 0, 0.00000000000000000000e+00) (0, 0, 0.00000000000000000000e+00) (0, 0, 0.00000000000000000000e+00) (0, 0, 0.00000000000000000000e+00) (0, 0, 0.00000000000000000000e+00) (0, 0, 0.00000000000000000000e+00) (0, 0, 0.00000000000000000000e+00) (0, 0, 0.00000000000000000000e+00) (0, 0, 0.00000000000000000000e+00) (0, 0, 0.00000000000000000000e+00) (0, 0, 0.00000000000000000000e+00) (0, 0, 0.00000000000000000000e+00) (0, 0, 0.00000000000000000000e+00) (0, 0, 0.00000000000000000000e+00) (0, 0, 0.00000000000000000000e+00) (0, 0, 0.00000000000000000000e+00) (0, 0, 0.00000000000000000000e+00) (0, 0, 0.00000000000000000000e+00) (0, 0, 0.00000000000000000000e+00) (0, 0, 0.00000000000000000000e+00) (0, 0, 0.00000000000000000000e+00) (0, 0, 0.00000000000000000000e+00) (0, 0, 0.00000000000000000000e+00) (0, 0, 0.00000000000000000000e+00) (0, 0, 0.00000000000000000000e+00) (0, 0, 0.00000000000000000000e+00) (28, 4, 5.00000000000000000000e-01) (28, 4, 5.00000000000000000000e-01) (28, 4, 5.00000000000000000000e-01) (28, 4, 5.00000000000000000000e-01) (28, 4, 5.00000000000000000000e-01) (28, 4, 5.00000000000000000000e-01) (28, 4, 5.00000000000000000000e-01) (28, 4, 5.00000000000000000000e-01) (28, 4, 5.00000000000000000000e-01) (28, 4, 5.00000000000000000000e-01) (28, 4, 5.00000000000000000000e-01) (28, 4, 5.00000000000000000000e-01) (28, 4, 5.00000000000000000000e-01) (28, 4, 5.00000000000000000000e-01) (28, 4, 5.00000000000000000000e-01) (28, 4, 5.00000000000000000000e-01) (28, 4, 5.00000000000000000000e-01) (28, 4, 5.00000000000000000000e-01) (28, 4, 5.00000000000000000000e-01) (28, 4, 5.00000000000000000000e-01) (28, 4, 5.00000000000000000000e-01) (28, 4, 5.00000000000000000000e-01) (28, 4, 5.00000000000000000000e-01) (28, 4, 5.00000000000000000000e-01) (28, 4, 5.00000000000000000000e-01) (28, 4, 5.00000000000000000000e-01) (28, 4, 5.00000000000000000000e-01) (0, 0, 0.00000000000000000000e+00) (28, 6, 5.00000000000000000000e-01) (28, 6, 5.00000000000000000000e-01) (0, 6, 0.00000000000000000000e+00) 
connections (connected_to_neuron, weight)=(0, -3.80598471817281192031e+00) (1, -1.17854111955534257561e+00) (2, -1.12138138073677353646e+01) (3, -6.80879435665394172617e+00) (4, -3.80554939557051152832e+00) (5, 2.61094400295983275484e+00) (6, 2.58646396855763516243e+00) (7, 3.07714370270321424528e+00) (8, -3.23484885237405217495e+00) (9, -9.27215195602913233586e+00) (10, -2.69319223870617783234e+01) (11, -3.15401183142094474476e+01) (12, 3.50886002334864510743e+00) (13, -4.80202695370870191738e+00) (14, -2.87760782510466093242e+01) (15, -4.46278861597061027311e+00) (16, -3.31890933626058481920e-01) (17, 1.20141459950069001694e-01) (18, -4.12288757822543860954e+00) (19, 1.29560562952032110040e+00) (20, -1.01090049960871422030e+01) (21, -6.17586924290368433077e+00) (22, -1.63316630992704259207e+00) (23, -1.49258754279663757858e-01) (24, 1.23745428890972863911e+00) (25, 1.82234386275506166086e+00) (26, -1.11477823795144459496e+00) (27, -2.90023767958800293698e+00) (0, -2.52099457557253314732e+00) (1, 3.81873194910099611477e+00) (2, -2.50331618357643481687e+00) (3, -4.62848342442283211540e+00) (4, -8.91737409873864628196e+00) (5, -5.43479993991000398523e+00) (6, -5.73069529197849547586e+00) (7, -1.51572285344958723741e+00) (8, -3.99025893632167028002e+00) (9, 4.57915343992748802293e+00) (10, -1.42821133777230127038e+01) (11, -1.26066681329458890604e-01) (12, 2.26886318546832077558e+00) (13, -1.03836399522558977537e+01) (14, -1.75118543779182935793e+01) (15, -1.00378526833485466341e+01) (16, 5.02973982452395995679e-02) (17, -5.00526614146369919212e+00) (18, 2.73161073506411122835e+00) (19, 7.30032467027208742394e+00) (20, -5.32903540489729321550e-01) (21, -5.78793103108125261969e+00) (22, -3.38686841477596622951e+00) (23, -3.98583325497161444773e+00) (24, -2.45610927933760558872e+00) (25, -7.97024155200566841728e+00) (26, 7.40132636459599813072e-01) (27, 1.98958326034357924073e+00) (0, 6.85136830669150653783e-01) (1, -9.28825158599968614404e-01) (2, -1.20169648692832220505e+00) (3, 2.72827485794967170007e-02) (4, 3.48494251324739046094e-01) (5, 1.19164196794562116111e+00) (6, -3.09724270963392944722e-02) (7, 3.97632440641924211899e-01) (8, 1.39126073859420662515e-01) (9, -2.20603595551369036087e+00) (10, -8.10235934891179399031e-01) (11, 4.35213183420283389324e+00) (12, 4.31126884852094605094e-01) (13, -7.59804941806092060119e+00) (14, -4.36603944763118478889e-01) (15, 5.67937671277223454780e+00) (16, 1.46860731348712825195e+00) (17, -2.25362590408311719292e-01) (18, 1.64470229588385130626e+00) (19, -1.91672040897001239035e-01) (20, 2.06355616047762469023e+00) (21, -1.31152281793301905832e-01) (22, -1.10492023016566451310e-02) (23, 9.83871076779403996859e-02) (24, -3.04853468972520469382e-01) (25, -2.79062676229648864989e-01) (26, 1.19371432696633777981e-01) (27, -5.92570046993834198545e-01) (0, 2.01279641862330632707e-01) (1, 6.04261371849153516855e-02) (2, -9.21014715185884180748e-01) (3, 8.68597421743308784059e-01) (4, 1.36668602563346386347e+00) (5, -4.36442000448233446974e-01) (6, -6.90456129131048923497e-01) (7, 5.92421806692993424548e+00) (8, 2.52505389544146696679e+00) (9, -4.27352334445701753651e-01) (10, -7.81584301380131241110e-01) (11, 1.86452801451954508494e+00) (12, -1.00839270989433149595e+00) (13, -1.82997278311599376188e+00) (14, 4.25961775327518166190e-01) (15, 2.79858900980607705478e+00) (16, -7.09436824470242921592e+00) (17, -3.12883465411438432824e+00) (18, 5.71477638724185554864e-01) (19, 4.19501410224800308502e-01) (20, -1.83638864361836384731e+00) (21, -3.58456604248892085618e-01) (22, 1.41609244552473434453e+00) (23, 8.00538065073320703746e-01) (24, -2.31037064055557239683e+00) (25, 1.30287016148326550979e-01) (26, 1.59741091227387044249e+00) (27, 2.89119421980987056919e-01) (0, -1.26554396158887461077e+00) (1, -2.71828839208593064924e+00) (2, -2.36762987315883133288e-01) (3, -2.50082178194053816878e-01) (4, -3.71225624007698373763e-01) (5, -1.20189035635072061226e+00) (6, -5.73398615253141397119e-01) (7, 1.05948289092362912811e+00) (8, -1.26983991327222778267e+00) (9, 2.04778046340459152219e-01) (10, -3.44071042983265229509e+00) (11, -5.71809445451004094707e-01) (12, 1.17527129844537014947e+00) (13, -1.67843395255756006046e-01) (14, -3.33746689927842510315e+00) (15, -2.23223485141421623679e-01) (16, 5.35666209362769762947e-01) (17, -1.26625977708362524865e+00) (18, -1.32675432415847871503e+00) (19, 1.70335729903261601237e+00) (20, -4.94208991254285912031e-01) (21, -2.86779019259808132247e+00) (22, -9.54003172571686181014e-02) (23, -3.67498941782334193062e-02) (24, -4.43763931657789767460e-01) (25, -1.93501385925045710223e+00) (26, -7.14512154311457425848e-02) (27, -2.84086374383617323858e+00) (0, -1.67782502833226132566e+00) (1, 1.21175637372582245543e-01) (2, -3.51733170357323154942e-01) (3, 1.10737110770983582242e-01) (4, -1.30419794020039586657e-01) (5, 1.25538908240938107408e-01) (6, -1.41452793924006559045e+00) (7, -2.62950916705542203644e+00) (8, 4.72271824599698408775e-01) (9, -4.07148052373518254399e-01) (10, -1.04515177806336168054e+00) (11, -5.70098190551288208638e+00) (12, -1.58509663872830852682e+00) (13, 1.46238219585932360811e-01) (14, 4.11973103225945047612e-01) (15, -3.54863213762833940024e+00) (16, 9.58863498543645609296e-01) (17, -2.36075373761571533082e-01) (18, -1.17088043960242127461e+00) (19, -1.18976913239352155571e+00) (20, -6.92746393352070333194e-01) (21, 1.49883758653431264918e+00) (22, -3.93293320761854248158e-01) (23, -2.01410703954128633697e+00) (24, -4.62257221859721489921e+00) (25, 8.42082178979244533323e-01) (26, -4.83444073582246836018e-01) (27, -4.31030304746784764802e+00) (0, -2.23951834922538992600e+01) (1, 3.83889168963232396692e+00) (2, -2.19810134200957882911e+01) (3, -4.11486231579449501794e+00) (4, -9.99246307229398134098e+00) (5, -2.02649970907519128005e+00) (6, -3.72389844630946209580e-01) (7, -6.09285581993183944505e-01) (8, 8.30660481144020246269e-01) (9, -2.22212263577430171324e+01) (10, -1.60978135313385131155e+01) (11, -1.32854247467897721435e+02) (12, -2.42382230702131229449e+00) (13, -5.40502835322916723726e+01) (14, -4.11677746576945082779e+01) (15, -1.11625841195658725979e+01) (16, -1.87863074690487752427e+00) (17, 4.11040520083460703127e-01) (18, -1.56219817058484657935e+01) (19, 5.67890607169718109049e+00) (20, -2.78189234707858581430e+01) (21, -8.81666060054487488173e+00) (22, -3.53615459003080045974e+00) (23, -1.95778566195221670476e+00) (24, -1.19057502959557992561e+00) (25, -4.38171512200377666346e+00) (26, -5.03479633041656615688e+00) (27, 1.88334019402339798432e+01) (0, 6.11964788750501351156e-02) (1, -2.23730488246300662780e+00) (2, -4.73374558101080733508e+00) (3, 9.21101288239679294456e-01) (4, -1.06802132897088455366e+01) (5, -7.21497698097587125687e+00) (6, -7.34878737810703608346e+00) (7, -5.31408763970280073607e+00) (8, -2.26700983697726669852e-02) (9, -4.66340845982837048922e+00) (10, 6.05053194773866653833e+00) (11, 6.23314937415803335674e-02) (12, -2.10355707487864940219e+01) (13, -8.23195151692484650141e+00) (14, -1.58914767355267390059e+01) (15, 2.44149640887349672624e+00) (16, -1.30298985093527868173e+01) (17, -2.53133719131359358201e+00) (18, 6.69181307555373638962e+00) (19, -3.38490581990019823166e+00) (20, 5.90477861429400174842e+00) (21, -3.67122493306511143984e-01) (22, -5.52736335926804400742e+00) (23, -7.28258411501009916833e+00) (24, -5.07089001391612015368e+00) (25, -3.22567570133923275932e+00) (26, -2.97493943640379177040e+00) (27, 3.79131014107990349515e+00) (0, -8.69786683059822096631e-01) (1, -3.61807964317623798056e-01) (2, -4.37761769880521012244e-01) (3, -1.10081444324133956303e-01) (4, -1.32380144278752309717e+00) (5, 7.52054141955890043114e-01) (6, -9.75467313640243083306e-02) (7, 1.06949753810306025237e+00) (8, -6.74856682324897483305e-02) (9, -2.05343929522935075838e+00) (10, 2.26542458057299489482e+00) (11, -7.22899115758261601172e+00) (12, -6.75917053443939597202e-01) (13, 1.72233770599814983715e-01) (14, 6.66256059925871557681e-01) (15, -4.58168712063984528982e+00) (16, 1.44944296056912502735e+00) (17, -1.81447456164262921341e+00) (18, -1.08750301210170707833e+00) (19, 1.43631973312104732621e+00) (20, -6.91889751958326582049e-01) (21, -9.51745194161755292406e-01) (22, -2.11695193886839883035e+00) (23, 4.27155972493128865963e-01) (24, -1.01512296378782354567e-01) (25, -1.04623270386672628796e+00) (26, -6.87590967637471961460e-01) (27, -3.38110885288689289041e+00) (0, 8.68336185776097391198e-01) (1, -1.53196519339189585196e+00) (2, -6.13653061921877074347e-01) (3, 3.27775309955756277702e+00) (4, 1.84730585895074495006e+00) (5, -8.55694565348008362449e-01) (6, -1.64510976673585473939e+00) (7, 3.38665541112634027598e-01) (8, 8.19813734243828129422e+00) (9, -6.23184049464034051091e-01) (10, 8.43285850126486935530e-01) (11, -4.83478511437777758175e-01) (12, -2.10542727114935512844e+00) (13, 8.73166500075761464750e-01) (14, 1.11663782390968147062e+00) (15, 7.55671845824441357209e-01) (16, -3.47320392759509344316e+00) (17, -2.84864044455890308427e+00) (18, -5.76602304499722051467e-01) (19, -3.54206987064230927054e-01) (20, 1.26668093769883216559e+00) (21, -3.64366918873344047825e-01) (22, -9.09843824048521043757e-01) (23, -2.34846397130755418781e-01) (24, 1.33335799994732906448e+00) (25, 6.71397328458649522709e-01) (26, -2.35801299055709545627e+00) (27, -3.88110567585655874545e-01) (0, -4.63660419947026269938e+00) (1, -5.75573378375222155512e-01) (2, -5.08761178226596610941e-01) (3, -1.64115212382922326384e+00) (4, -2.40066259937341808239e+00) (5, 1.91138994829578989787e+00) (6, -4.75261338794537691044e-01) (7, -8.64355771027594310674e-01) (8, -6.71781265728207677146e-02) (9, -1.82547978440869429484e+00) (10, -1.76591434904830535402e+00) (11, 8.05024949871598116680e-01) (12, -1.25381358305078616233e+00) (13, -1.27826314823278242017e+00) (14, -1.15330530155396404624e+00) (15, 1.25457730553763702197e+00) (16, 8.96734232512385820435e-01) (17, -4.83788773904208468934e+00) (18, 1.31223883031520016651e+00) (19, -3.42720206374885982825e+00) (20, -5.69147720290180791913e-01) (21, 6.65629849941659523793e-01) (22, 1.80388105582084790068e-01) (23, -1.46984779763930228924e+00) (24, -5.11183077264727714351e+00) (25, 5.07152733657464382944e-01) (26, 1.20000836960513046492e+00) (27, -2.72309279386118419097e+00) (0, -7.48598962144911950212e-01) (1, 3.74212705555255320533e+00) (2, -1.04101224911147860475e+00) (3, -4.93795531344009053232e-01) (4, 3.29091930002089971818e-01) (5, 2.47037752344949801397e+00) (6, -1.75676210847963609751e+00) (7, -4.38814686917185892145e-01) (8, -5.50476390786402092203e-01) (9, -1.53397505074899867528e-04) (10, -5.63072710059023240348e+00) (11, -1.30074470513545453754e-01) (12, 2.05677003683987269511e+00) (13, -6.19566303709896959440e-01) (14, -2.34087370884088219469e+00) (15, 5.78980953484188431979e-01) (16, 2.31145039295328524886e+00) (17, -1.64294629174709450048e+00) (18, -2.27453260846605775924e-01) (19, -2.54560421570154771231e+00) (20, -5.53752540640175761055e-01) (21, 2.13997964780197280632e+00) (22, 1.75715548953621986117e-01) (23, -4.05175766439015294651e+00) (24, -1.98100742034525301172e+00) (25, 5.98560573392761696709e-01) (26, -2.22212895585460146197e-01) (27, -7.00544220947541784739e+00) (0, -5.07178705768972104551e+00) (1, 1.51816154020203741837e+00) (2, -6.71119985850420519569e+00) (3, 3.19598091296893471736e+00) (4, -3.33477696351158181542e+00) (5, -7.84605881042337749420e-01) (6, 1.99781878559153613928e+00) (7, -2.27337305715326598587e+00) (8, 1.03194521719744775057e-01) (9, -1.41439555653186683770e+01) (10, 1.37802019309771957012e+01) (11, -3.01180344172791940593e+01) (12, -2.03464487005864995695e+01) (13, -1.50338729716646835044e+00) (14, -1.33384954704190832331e+01) (15, -5.59211172137726642006e+00) (16, -2.11752212531053807254e+00) (17, 2.45861368708075200828e+00) (18, 2.87368368942855756387e+00) (19, -1.22248590257174871709e+01) (20, 5.98495926175597547925e-01) (21, 5.36770681976137353786e+00) (22, -6.01246264032326660498e+00) (23, -5.94603700117791511559e+00) (24, 3.57864003579190326221e+00) (25, 1.27022338450003791088e+00) (26, -4.56954517232558821149e+00) (27, 3.62452907278132707702e+00) (0, -2.18745438545236936534e+00) (1, -3.76489219820787313076e-01) (2, -9.75925309718617572941e-01) (3, 4.32604567172872434000e-01) (4, 1.23495810209112308331e-01) (5, -2.65184325870943515824e+00) (6, -1.02562896269858372378e+00) (7, 4.27016990996412160175e-01) (8, -8.33910823045770133177e-01) (9, -1.84353176528989948224e+00) (10, 7.79362308593795183320e-01) (11, -4.09583942341266604714e-01) (12, -1.96161559910881178048e+00) (13, 2.96333935925887470564e-01) (14, -2.25294348754655127109e+00) (15, -3.25618543877118360452e-02) (16, 2.85766917931223796145e+00) (17, -4.76861664581257407858e-02) (18, -8.77961872755195216200e-01) (19, -1.37946672253134705599e+00) (20, -1.82591611179348051186e-01) (21, 7.86157636720391517215e-01) (22, 2.36368318262659915518e-01) (23, -3.46135762081633169274e+00) (24, -6.89711081266921872783e-04) (25, 2.18454515792228798343e-01) (26, -1.79685865769286756688e+00) (27, -2.48258665584531623693e+00) (0, -3.29985726162510228932e+00) (1, -1.23857945012613335223e+00) (2, -7.22775377169288546497e+00) (3, 1.98585951388356751757e+00) (4, -3.69447222333975200392e-01) (5, -3.11658853141507252715e+00) (6, 2.40393857678912103992e+00) (7, -1.00731831156350426504e+00) (8, 8.78744986468977584693e-01) (9, -1.32126174613611855335e+01) (10, 1.37622271166932619302e+00) (11, -7.18113293822752751794e+00) (12, -2.31712688798813637447e+01) (13, -3.39374923355283142357e+00) (14, -2.01304883775278531388e+00) (15, 2.08935608897702929099e+00) (16, -3.35954105722232476694e+00) (17, -2.14326077097014655592e+00) (18, -2.01905291957001464809e+00) (19, -3.57483804111668979075e+00) (20, -2.32180209313548058248e+00) (21, -1.04738262159100448123e+00) (22, 2.62199155374094272641e-01) (23, -1.61547242546015956677e+00) (24, -6.26035430457149488781e-01) (25, 3.15718473264087728936e+00) (26, -2.57523489029498486858e+00) (27, -8.75800068797459529968e-01) (0, 2.04391442186617222632e+00) (1, 5.49097067157807261495e-01) (2, -3.95035905377069518352e+00) (3, -1.08004579813166112778e+00) (4, 3.64169851428892954459e+00) (5, 2.75575973735127410791e+00) (6, -6.57563249623921430853e-01) (7, -6.37184459870864916553e-01) (8, 4.85709061794370400289e-01) (9, -4.36655295264323561888e-01) (10, -1.20341616867797096546e+00) (11, 2.45940893535241678070e-01) (12, 2.74314943435045455189e+00) (13, -3.06815831166103336614e-01) (14, -3.21956865959350801987e+00) (15, 5.55873574112920668111e-02) (16, 4.06941498953300062613e-01) (17, -1.02162695557840788041e+00) (18, -5.42516593471162100748e-01) (19, 4.15324751720769036467e+00) (20, 2.21030263359569012493e+00) (21, -3.11785628970347827860e+00) (22, -1.35561933591649697028e+00) (23, 1.69312270944304388287e+00) (24, 1.79621937302870304798e+00) (25, -6.02822897037366800532e-01) (26, -1.40592030384611632599e+00) (27, -9.72705540481779262763e-01) (0, -1.13983669720602226461e-01) (1, -2.05228569342862043889e-01) (2, 8.53488680090627033215e-02) (3, -2.57721488462016967702e+00) (4, 1.04731137242046057345e+00) (5, -1.87392990208180204581e-01) (6, -9.83790818007672318579e-01) (7, 6.25496844057295553476e-01) (8, -3.88025929079322651205e-01) (9, -3.93802481074384980175e-01) (10, -7.35110700486763946060e+00) (11, 1.31531889633227239145e+00) (12, 2.89631302082085229088e+00) (13, 8.64161325338001357066e-02) (14, -7.80052551596272536472e+00) (15, 2.23390633692386053610e+00) (16, 1.03077410349398013167e+00) (17, -8.68606200219989355027e-01) (18, 1.46175649143846952960e-01) (19, 1.37691890171286557276e+00) (20, -8.89293217568144278573e-01) (21, -2.13465926221140733787e+00) (22, 1.53457743213476160982e-01) (23, 4.63978283002807467827e-01) (24, 1.72344565680498218452e-01) (25, -3.46686071162505449195e+00) (26, 1.12973114836135657413e+00) (27, -2.73136557028040238837e-01) (0, 1.30718401631176894817e+00) (1, 1.56359897631133004658e+00) (2, -1.14394322559461225630e+00) (3, -6.54039668935354145951e-01) (4, 3.70018557091901412193e+00) (5, 2.07660004812763743232e+00) (6, -3.47532132798699366916e+00) (7, 2.26960571008961664585e-01) (8, 4.68927126546222350356e+00) (9, 1.33214610443451308974e+00) (10, -2.76114016124180849943e+00) (11, -1.15192562335437354015e+00) (12, 1.69903378998775944630e+00) (13, 3.46573404821843789048e-01) (14, -2.71384268521820537501e+00) (15, -3.06148704995810649887e-01) (16, 4.76433618758883348221e-01) (17, -9.89692415099661659816e-01) (18, -4.03177411193911705567e+00) (19, 2.85441501814472164966e+00) (20, 8.47745755862599037478e-01) (21, -1.48285763479714693958e+00) (22, -4.89329101666920174285e-01) (23, 3.31166783818519405713e+00) (24, -2.23272192137061703532e-01) (25, -4.81032184914269689280e-01) (26, -2.00199418429445774592e+00) (27, -4.60390853186959714272e-01) (0, -6.22370938354881886312e-01) (1, -4.89306531220708440522e-01) (2, -3.70382566522914569163e+00) (3, 7.88048149729457692025e-01) (4, -7.83968749062224024016e+00) (5, -8.90528909204941321320e+00) (6, -7.76549330482823219057e+00) (7, -6.60883258834089382106e+00) (8, 5.75258954043056242034e-02) (9, -6.31460454561145922980e+00) (10, 8.37082324646023856474e+00) (11, 1.07455392833505802841e+00) (12, -2.55690802099388037050e+01) (13, -6.98943531849688515223e+00) (14, -9.35111437432260217406e+00) (15, -2.22810061502628276031e+00) (16, -9.27502813417650884276e+00) (17, -2.18808406218498596729e+00) (18, 7.44697253793477820238e+00) (19, -3.47069827590302493192e+00) (20, 4.93208536049281320857e+00) (21, 1.84594232067596597524e+00) (22, -5.14133365376652395895e+00) (23, -8.81452295530551133140e+00) (24, -2.04702252294914099906e+00) (25, -8.10593038830448620047e+00) (26, -4.18278293635808567918e-02) (27, 4.70532886630474045386e-01) (0, -1.00815555402715584243e+00) (1, 1.58617857303461584628e+00) (2, 1.08908772127803921137e+00) (3, -6.60925991602233531275e-01) (4, -4.88908092888911394169e+00) (5, 7.04113809298895776401e-01) (6, 7.40452205216287140388e+00) (7, 2.93464442422314952807e+00) (8, -9.21594965697270507299e-01) (9, 3.91858393312313157963e+00) (10, -2.99622609221331481777e+00) (11, -3.11984348587488380389e+00) (12, -5.41453499824216602510e-02) (13, 2.36643649436231351402e+00) (14, 2.69096506341554464470e+00) (15, -5.19412706716359995340e+00) (16, -1.58893942077998429063e+00) (17, -4.75932842548914047942e-01) (18, -2.46800233640510668920e+00) (19, 1.28059602002700834156e-01) (20, 4.40395722091928476516e+00) (21, -1.96216305247281152732e-03) (22, -4.61562580350132378726e+00) (23, -6.05865362804016038822e-01) (24, 2.34388978135465464447e+00) (25, 6.99465614286607251238e-01) (26, -7.44640852230806893353e-01) (27, -3.39241344321840443410e-01) (0, 2.11722651231848524311e-01) (1, -3.16779584600895791624e+00) (2, -1.95276772826969480246e-01) (3, -1.35506092637702835191e+00) (4, 8.87526871639232384226e-01) (5, 1.77544979570488559162e+00) (6, 1.59093025542095090064e-01) (7, 1.10758104015511935070e-01) (8, -1.41076255296669339501e+00) (9, -1.64323254721751133012e+00) (10, -4.08764483289979008163e+00) (11, -7.83603941319583774394e-01) (12, 7.27480791017708017243e-01) (13, -5.43630752966109564994e+00) (14, -3.45951669342914636118e+00) (15, 7.40833145789625779898e-01) (16, -7.26088090399721886037e-01) (17, -1.52784855059165919355e-01) (18, -4.20668871178196457361e-01) (19, -7.51276115317306314445e-01) (20, -1.31062297003132521844e+00) (21, -1.99066273071339616685e-01) (22, 1.13261921217476566048e-01) (23, 6.52814626036024147487e-03) (24, -7.71640477769308996692e-01) (25, -1.11143193401374629214e-01) (26, -6.89348865222130346986e-01) (27, -2.67988009818285455310e+00) (0, -2.45332574566045069631e-01) (1, -3.14883637004172678431e+00) (2, -1.07355759968335484622e+00) (3, 1.44209247396712081368e+00) (4, 1.03419683648622751093e+00) (5, -2.23882366119222364631e+00) (6, -2.03349078422407680833e+00) (7, 3.02285950333364750175e-01) (8, -2.76594976033533827831e-02) (9, -2.00291029870030268256e+00) (10, -6.30050778480855666608e-01) (11, 8.29942972544540524815e-01) (12, -3.51001195384051989379e+00) (13, -4.41287530371816139052e+00) (14, 1.13197682139251587508e+00) (15, 8.22239024571793986063e-01) (16, -2.68577110653383144268e+00) (17, -2.48468973324611819287e-01) (18, -1.54553124129334018555e+00) (19, -9.42725043146926400262e-01) (20, 9.56554524978368458932e-01) (21, -6.92433271573202890892e-02) (22, -1.38524998192721704449e+00) (23, -5.76129287250266908238e-01) (24, 4.21043332593573405020e-01) (25, -1.87500427687232829044e+00) (26, -1.22411905754868199914e+00) (27, -4.14280801172101575958e+00) (0, -4.56006162733397335529e-01) (1, 2.53859790207314661714e+00) (2, 2.37133055292641864442e-01) (3, -3.35371112957825312506e+00) (4, 2.49975114120115282645e+00) (5, 1.68723580509490167501e+00) (6, 9.52188639456256896709e-02) (7, -2.70781724487014230363e+00) (8, 5.50168244271583173344e-01) (9, -6.40929912119004518978e-01) (10, 3.33189622061893775395e+00) (11, 1.46225493520593841090e+00) (12, -1.69874011607228059262e+00) (13, 1.50168300303145318964e+00) (14, 3.10351714837342784747e+00) (15, 5.62522021929583670996e-01) (16, -2.93242849887687695443e+00) (17, -2.80631798096548590316e-01) (18, 2.60798590167049149091e-01) (19, -2.05506913094111043350e+00) (20, -2.45185188167967221817e-01) (21, 3.20399029334185847517e+00) (22, 5.98985835829581036993e-02) (23, -1.55257276457026760497e+00) (24, -1.30819407329653780714e+00) (25, 1.40663033519042479647e+00) (26, -8.19099297725711106288e-01) (27, -1.02052443058910888851e+01) (0, -2.13795207108489287995e-01) (1, 1.32755579994194627957e+00) (2, 7.04282826620420188135e-01) (3, 1.48005326863808989168e-01) (4, -1.23848447555769980433e+00) (5, -7.57240564434687735140e-02) (6, 3.86802969548658392984e-01) (7, 1.02265179636377823158e-01) (8, -7.81686255836787080575e-01) (9, -3.04217056415789555146e+00) (10, 9.53627554770441920873e-01) (11, -1.49097378915838651992e+00) (12, -4.51347868582896882828e-01) (13, 5.93242322958007939349e+00) (14, 1.86449538869741443525e-01) (15, -8.56691621824748317238e+00) (16, -2.54874667102029772714e-01) (17, 5.37045828350923848404e+00) (18, 1.12192773767880082936e+00) (19, -6.88113105316414119805e-02) (20, 9.41141377072101215084e-01) (21, -7.32188853812412721034e-02) (22, 1.73219249547390008459e+00) (23, 2.11816879849304584571e-01) (24, 9.54707361832407341851e-01) (25, -1.24148637146577048296e-01) (26, -5.39364563968259935756e-01) (27, -4.25819386381288744747e-01) (0, -2.65899317976572824307e+00) (1, -3.60164592244510028962e+00) (2, -9.08821382915209863285e-01) (3, 3.09507434634323441713e+00) (4, -9.10351602084398914272e-01) (5, -1.54045438529628242463e+00) (6, 2.15102094784969288810e+00) (7, 7.78986692118733725643e-01) (8, -8.89618533996120230967e-01) (9, -3.17951631165905501675e+00) (10, 8.94240903249568575006e+00) (11, -3.90710537340708308207e+00) (12, -3.57343455344382965322e+00) (13, -7.72406590653051061679e-01) (14, 2.73451474873109967589e+00) (15, -2.70647233100167694531e+00) (16, -3.07123202394795757897e+00) (17, 1.53322447325140998053e+00) (18, -2.13112668689793149923e+00) (19, 2.52153414381373019992e+00) (20, -2.37879469360585504845e+00) (21, -2.31639765721907275875e+00) (22, -1.48576791702169375142e+00) (23, 4.12081449246844488954e+00) (24, -4.51626804819270422087e-01) (25, -1.48536618436530321041e+00) (26, -2.88313970188344814716e+00) (27, -8.96910604676336120633e+00) (0, 3.26751800217807275573e+00) (1, -9.29575243520712302114e-01) (2, -2.62601808734854547112e+00) (3, 8.61487141057109440112e-01) (4, 5.40740715793659898480e+00) (5, -6.34700881223571877765e-02) (6, -1.34319468300841005082e+00) (7, 6.16932122238316726914e-01) (8, -4.33015450684653357971e-01) (9, -6.97236394787702634668e-02) (10, 2.87050197883750746186e+00) (11, -3.24910986868772011515e-01) (12, -5.62904678516417966705e+00) (13, 2.00849808138897634180e-01) (14, 7.64385443040919043689e-01) (15, -7.97452505866662331169e-02) (16, 1.36176951672376089775e+00) (17, 7.31765737610647670763e-01) (18, -2.82374022850271044760e+00) (19, 1.71715348755799168678e+00) (20, 3.00403602987136819635e+00) (21, -1.50679293096082467240e-01) (22, -8.73535557491077474523e-01) (23, 2.35173088835909060990e+00) (24, 4.01031752602327262736e-01) (25, -6.50392940427420795935e-01) (26, -1.10684680495785681131e+00) (27, -5.79168413373955970336e-01) (0, 1.57906482458263691671e-01) (1, -4.38729266656605665364e-01) (2, -7.26175703938610417332e-01) (3, -1.46553496346908107562e+00) (4, 1.48035701188680451912e-01) (5, 6.65866392866974604603e-02) (6, 1.79388205509137965699e+00) (7, -1.23567516278899036664e+00) (8, 1.27638715970357830010e+00) (9, -2.99710290048152261377e+00) (10, -1.87045879789607960575e-01) (11, 3.73014095541722434657e-01) (12, -1.30743207296524821537e+00) (13, -5.36561869939588031997e+00) (14, -2.31699517791611908635e-01) (15, 3.91212017050323768164e-01) (16, -1.39852032934753012228e+00) (17, -1.82315446844196471510e+00) (18, 1.31067134837360588229e+00) (19, -1.79427108951960323502e+00) (20, -3.44041390241175026876e-01) (21, -1.46727820599596348039e+00) (22, 7.26711459870477555212e-02) (23, -7.15737097702101254804e-01) (24, -2.75417476162196050993e+00) (25, 4.71216241385757905746e-01) (26, -1.02328693734571340990e+00) (27, -3.88906402388584604424e+00) (28, -3.08008569531885323389e-01) (29, -3.85227129962042336153e-01) (30, -1.26922680454361697100e-01) (31, -4.92709706722610218943e-02) (32, -9.37601830486648912810e-01) (33, 1.37980457456045757514e-01) (34, -1.64314964685507353126e-01) (35, 1.79280629192934942706e-01) (36, 9.17778764414991787834e-02) (37, 2.62305005868458729346e-01) (38, 3.44858298152660058822e-01) (39, -1.86242604494521990510e+00) (40, 1.12135887886245830258e-01) (41, 1.40155923590692621516e-01) (42, 3.59161129323634420452e-01) (43, -1.16540894867117980627e-01) (44, 1.83394239691498067701e-01) (45, -3.64323354743484095764e-01) (46, 2.11658492910108575469e-01) (47, 2.58226921153652498597e-02) (48, -1.28710338838244620074e-01) (49, 1.96023278685573343338e-01) (50, 1.69531356814660449928e+00) (51, 3.71397829757421291119e-02) (52, 1.52482152085911382144e+00) (53, 2.99695767848948191325e-01) (54, 9.24487859242761889078e-02) (55, -4.23010841770123657835e-02) (28, -1.42032178076267001643e-01) (29, -9.90531144697668619603e-02) (30, 1.88529734048672931168e-01) (31, 1.71268954919631705147e-01) (32, 1.49015107259704415038e-02) (33, -2.61750326213588957458e-01) (34, -1.04821597504560604097e-01) (35, 5.73076923665575208022e-02) (36, -6.53255945871325294227e-01) (37, -2.28343524793414159868e-01) (38, -3.92559153302965771482e-02) (39, 8.91719868297535800394e-03) (40, 1.28780573648537816078e-01) (41, 1.41453694224382819228e-02) (42, 1.30065273861068586569e-01) (43, 5.18220920438261928309e-02) (44, -1.28997858993703418129e-01) (45, 2.90860457698679852889e-01) (46, 5.30514622720510628517e-02) (47, -1.90622726971574840693e-01) (48, 2.59717567169750251921e-01) (49, 2.66475843341508422668e-01) (50, 1.64968572566231742871e-02) (51, -1.24293562033296681180e-01) (52, 3.05450896046129162509e-02) (53, -1.72230337459821108981e-01) (54, 4.42663868360213541564e-01) (55, 2.46996998595157592205e-02) 
