FANN_FLO_2.1
num_layers=3
learning_rate=0.300000
connection_rate=0.500000
network_type=0
learning_momentum=0.000000
training_algorithm=2
train_error_function=1
train_stop_function=0
cascade_output_change_fraction=0.010000
quickprop_decay=-0.000100
quickprop_mu=1.750000
rprop_increase_factor=1.200000
rprop_decrease_factor=0.500000
rprop_delta_min=0.000000
rprop_delta_max=50.000000
rprop_delta_zero=0.100000
cascade_output_stagnation_epochs=12
cascade_candidate_change_fraction=0.010000
cascade_candidate_stagnation_epochs=12
cascade_max_out_epochs=150
cascade_max_cand_epochs=150
cascade_num_candidate_groups=2
bit_fail_limit=3.49999999999999977796e-01
cascade_candidate_limit=1.00000000000000000000e+03
cascade_weight_multiplier=4.00000000000000022204e-01
cascade_activation_functions_count=10
cascade_activation_functions=3 5 7 8 10 11 14 15 16 17 
cascade_activation_steepnesses_count=4
cascade_activation_steepnesses=2.50000000000000000000e-01 5.00000000000000000000e-01 7.50000000000000000000e-01 1.00000000000000000000e+00 
layer_sizes=17 65 3 
scale_included=0
neurons (num_inputs, activation_function, activation_steepness)=(0, 0, 0.00000000000000000000e+00) (0, 0, 0.00000000000000000000e+00) (0, 0, 0.00000000000000000000e+00) (0, 0, 0.00000000000000000000e+00) (0, 0, 0.00000000000000000000e+00) (0, 0, 0.00000000000000000000e+00) (0, 0, 0.00000000000000000000e+00) (0, 0, 0.00000000000000000000e+00) (0, 0, 0.00000000000000000000e+00) (0, 0, 0.00000000000000000000e+00) (0, 0, 0.00000000000000000000e+00) (0, 0, 0.00000000000000000000e+00) (0, 0, 0.00000000000000000000e+00) (0, 0, 0.00000000000000000000e+00) (0, 0, 0.00000000000000000000e+00) (0, 0, 0.00000000000000000000e+00) (0, 0, 0.00000000000000000000e+00) (9, 13, 5.00000000000000000000e-01) (9, 13, 5.00000000000000000000e-01) (9, 13, 5.00000000000000000000e-01) (9, 13, 5.00000000000000000000e-01) (9, 13, 5.00000000000000000000e-01) (9, 13, 5.00000000000000000000e-01) (9, 13, 5.00000000000000000000e-01) (9, 13, 5.00000000000000000000e-01) (9, 13, 5.00000000000000000000e-01) (9, 13, 5.00000000000000000000e-01) (9, 13, 5.00000000000000000000e-01) (9, 13, 5.00000000000000000000e-01) (9, 13, 5.00000000000000000000e-01) (9, 13, 5.00000000000000000000e-01) (9, 13, 5.00000000000000000000e-01) (9, 13, 5.00000000000000000000e-01) (9, 13, 5.00000000000000000000e-01) (9, 13, 5.00000000000000000000e-01) (9, 13, 5.00000000000000000000e-01) (9, 13, 5.00000000000000000000e-01) (9, 13, 5.00000000000000000000e-01) (9, 13, 5.00000000000000000000e-01) (9, 13, 5.00000000000000000000e-01) (9, 13, 5.00000000000000000000e-01) (9, 13, 5.00000000000000000000e-01) (9, 13, 5.00000000000000000000e-01) (9, 13, 5.00000000000000000000e-01) (9, 13, 5.00000000000000000000e-01) (9, 13, 5.00000000000000000000e-01) (9, 13, 5.00000000000000000000e-01) (9, 13, 5.00000000000000000000e-01) (9, 13, 5.00000000000000000000e-01) (9, 13, 5.00000000000000000000e-01) (9, 13, 5.00000000000000000000e-01) (9, 13, 5.00000000000000000000e-01) (9, 13, 5.00000000000000000000e-01) (9, 13, 5.00000000000000000000e-01) (9, 13, 5.00000000000000000000e-01) (9, 13, 5.00000000000000000000e-01) (9, 13, 5.00000000000000000000e-01) (9, 13, 5.00000000000000000000e-01) (9, 13, 5.00000000000000000000e-01) (9, 13, 5.00000000000000000000e-01) (9, 13, 5.00000000000000000000e-01) (9, 13, 5.00000000000000000000e-01) (9, 13, 5.00000000000000000000e-01) (9, 13, 5.00000000000000000000e-01) (9, 13, 5.00000000000000000000e-01) (9, 13, 5.00000000000000000000e-01) (9, 13, 5.00000000000000000000e-01) (9, 13, 5.00000000000000000000e-01) (9, 13, 5.00000000000000000000e-01) (9, 13, 5.00000000000000000000e-01) (9, 13, 5.00000000000000000000e-01) (9, 13, 5.00000000000000000000e-01) (9, 13, 5.00000000000000000000e-01) (9, 13, 5.00000000000000000000e-01) (9, 13, 5.00000000000000000000e-01) (9, 13, 5.00000000000000000000e-01) (9, 13, 5.00000000000000000000e-01) (9, 13, 5.00000000000000000000e-01) (9, 13, 5.00000000000000000000e-01) (9, 13, 5.00000000000000000000e-01) (9, 13, 5.00000000000000000000e-01) (0, 13, 0.00000000000000000000e+00) (33, 13, 5.00000000000000000000e-01) (33, 13, 5.00000000000000000000e-01) (0, 13, 0.00000000000000000000e+00) 
connections (connected_to_neuron, weight)=(16, -9.24742725223843958782e-02) (15, -1.91406117710409384713e-01) (2, 3.96165620727377154608e-01) (7, 1.19472091570189162257e-01) (11, -7.92227121625364710811e-02) (4, 4.12739624618144673729e-01) (10, 4.56400624477212232821e-02) (9, -2.41295798495561354680e-02) (3, -8.01594026393775693773e-02) (16, 4.10709764197416504761e-01) (12, 6.69257980181936162900e-01) (2, 1.55005775068545459394e-01) (1, 8.88215800835696622784e-01) (8, 6.87159207666370869250e-02) (6, 1.65867524214008021932e-01) (5, 6.78159468492293582287e-01) (0, 8.49426444396330526665e-01) (7, 5.69753975732801065668e-01) (16, 4.17108227394042407887e-01) (9, 6.07774670744569145420e-01) (15, 5.92498053656540957235e-01) (4, 8.71025331705377325875e-01) (11, 3.68733479335903058249e-01) (3, 3.24240642319784944103e-01) (13, 6.35868635387962566341e-01) (14, 5.10474114369918741119e-01) (2, 7.18753270074902417264e-01) (16, 5.74571093413664413241e-01) (2, 1.36820408517308922391e-01) (1, -2.28755884284618848934e-01) (7, 5.35844047372945816998e-02) (5, 5.37413135662184113239e-02) (14, 4.46047097142100279488e-01) (9, 5.27526203535370497022e-01) (4, 1.21183657793998145191e-01) (13, 4.86283672565716862390e-01) (16, -1.39677218692573046344e-01) (6, -3.51679858131721534420e-01) (5, 2.46650545836117812692e-01) (10, -8.10663786530990415624e-02) (2, -1.46663813144829485724e-01) (9, -4.21424223346416031849e-03) (8, 4.99025137225731010848e-02) (13, -1.96156413967442030954e-02) (15, 4.59641520347717214001e-03) (16, 5.21737340226715806679e-01) (14, 4.18593022074081222428e-01) (3, 3.66066171019566510836e-01) (13, 5.93783959230369084992e-01) (6, 2.03829085446813301763e-01) (5, 7.31490776559138522472e-01) (11, 3.72984582480389514902e-01) (9, 3.26309463542868161134e-01) (0, 8.56383304819418600395e-01) (16, 4.09748455848497006304e-01) (8, -2.45394995191354131636e-01) (4, 1.98353935338822506829e-02) (0, 1.51713158381706653133e-01) (13, 3.97765988960241734240e-01) (12, 4.10421066822078628444e-01) (11, 5.65062316933524377838e-01) (1, 2.72625191440000358423e-01) (10, 4.73416283009493399359e-01) (16, 3.89377553842482959645e-01) (7, -1.21045943469208161503e-01) (5, 3.03185907235799245729e-01) (13, 6.67754453034942851986e-01) (2, 8.00305626556454541287e-01) (10, 3.14052845171049810347e-01) (12, 3.73448055644656773389e-01) (11, 3.10206963375209698874e-01) (8, 3.96089126247766099009e-01) (16, -5.39539810747447570738e-02) (8, 5.17079520502137013338e-01) (4, 4.34284394024463227257e-01) (14, -9.20732750934592780734e-02) (13, 1.57599808792456552720e-01) (12, 1.14919501330616791179e-01) (7, 1.75749530568411582721e-01) (3, -3.29284437007789573815e-02) (1, 1.74548958021123828965e-01) (16, 4.07746961209610292443e-01) (2, 2.17341455632634794615e-01) (14, 5.49467347259878780008e-01) (1, -1.12483628506306165828e-01) (13, 4.06085474008817004510e-01) (6, 2.00846424857184208124e-01) (9, 4.91531047962479983315e-01) (5, -6.30104168758287147556e-02) (10, 5.57921399524794359159e-01) (16, 3.92925334058223163503e-01) (7, -1.22740585476559083133e-01) (8, 3.92289851683976731334e-01) (5, 3.64694685718474798097e-01) (3, 3.01045643817053731883e-01) (6, 8.25682158053161141531e-01) (4, 8.07527840524480566842e-01) (13, 5.74968163283413047360e-01) (14, 6.52943088364173696014e-01) (16, 4.74557314894614612477e-01) (13, 6.39324855418747173275e-01) (6, 7.17769274890662889455e-01) (2, 7.81134537622509839139e-01) (1, 5.76754466505290275258e-01) (7, -3.77774798576053574828e-02) (4, 7.70272821574972121894e-01) (14, 6.57971991848518178436e-01) (11, 2.87888995066284181235e-01) (16, 5.23534288968841465817e-01) (13, 2.55752949520325123522e-01) (7, 3.00474136974210270790e-01) (8, -9.56527346160595676183e-02) (14, 4.33152683147106754014e-01) (5, 2.15867761923553419523e-01) (9, 4.54061099165769699315e-01) (4, 4.54300005294648173715e-02) (10, 3.47096032677138011113e-01) (16, 3.57497897825656330006e-01) (12, 4.25326925178195591748e-01) (1, 4.80717432559967905448e-01) (5, 3.29819970807490758791e-01) (7, -1.05177097142141684483e-01) (3, 3.31679994891749208019e-01) (6, 8.43281755626441476004e-01) (11, 4.46107661977409253318e-01) (10, 4.34109966090277354933e-01) (16, -2.13028452518152833228e-01) (1, 1.08426095894542454112e-02) (4, -1.33404490363604865538e-02) (9, -2.64173266068125023320e-01) (5, 1.05881515790473126892e-01) (10, -2.24837005004302536992e-01) (2, -3.44101719914002013301e-02) (8, -1.02414043019210559970e-01) (11, 7.19540030575857667700e-04) (16, 5.41686972942153843746e-01) (12, 5.01079500557449541986e-01) (2, 9.96689199040636519822e-02) (5, 1.86184987826826048307e-01) (6, -9.11618163534694964101e-02) (14, 3.39237306334887134263e-01) (8, -8.52222198035900574409e-02) (0, 2.11114309174543796077e-01) (4, 1.47290636159745427780e-02) (16, -5.60080628564675539471e-02) (2, -2.85998894126083813561e-01) (3, -2.78036494072939517619e-02) (8, 8.75811428825004206766e-02) (10, -8.88752651215095057502e-02) (1, 1.97808468501904505255e-01) (0, 2.69824374677345546480e-01) (12, -2.64287061637157516189e-03) (5, 2.67185295910266074060e-01) (16, -3.40417446413309454645e-01) (3, 2.59286581045443609295e-01) (2, 2.39371012611220790323e-01) (7, 8.06950964587872382472e-02) (4, 2.33913599953827183731e-01) (5, -8.13854430746864358770e-03) (11, 3.21290939131628261460e-01) (9, 2.41336305612417117983e-01) (0, -5.42516451649604908303e-02) (16, -1.12509189221317043583e-01) (6, 4.09369607942881907903e-01) (11, -1.20706837121051707706e-01) (10, 6.51045105420891417891e-02) (7, 1.38536801114371055377e-01) (4, 3.36825666366668274865e-01) (13, 1.50698172072752878403e-01) (2, 3.71336560888128497382e-01) (9, 7.00345383211820604608e-02) (16, -1.92290297868418336158e-01) (2, 6.25194303335624423923e-02) (5, 2.83668901671420226052e-01) (6, 1.76974709425417077446e-02) (12, 8.69336529118734102628e-02) (3, -1.12797432600266464564e-01) (1, 1.39744270031806561150e-01) (11, -1.81430054596890232010e-02) (8, -7.03054753641240842699e-02) (16, -1.92648654589852447172e-01) (6, 3.78784503098311187141e-01) (4, 3.73760930351694331542e-01) (5, -1.76282142292830790176e-01) (13, 4.39119359908628770217e-02) (12, -2.46004986797307922952e-01) (0, -1.88914550887247012501e-01) (14, 3.55728846274948398709e-02) (2, 4.54433412349562693144e-01) (16, 5.68254193160368514803e-01) (4, 1.26105541138648441502e-01) (13, 4.57149130815762694269e-01) (14, 4.66576732392668558358e-01) (2, 1.20677920991368897718e-01) (11, 7.33070974475959036276e-01) (8, 6.25073399092760828566e-01) (5, 1.88376531496153160061e-02) (0, -6.00606749666688644052e-02) (16, 3.05228357098517921742e-01) (14, 6.66100351762344167206e-01) (2, 7.61268696949063183865e-01) (6, 7.89769130230189797537e-01) (1, 5.07392548830748690847e-01) (7, -9.28296932284053688544e-02) (0, 3.50344235325229791389e-01) (8, 3.09629526812436661753e-01) (13, 5.46527687819545859860e-01) (16, -1.73834452191790694853e-01) (9, 1.85172972502374022508e-01) (4, 2.55963838748415328794e-01) (11, 1.82956510046373255207e-01) (7, -1.16871884453030330797e-01) (12, -1.91341976855730067086e-01) (5, -3.26041476839516591868e-02) (8, 3.25292712447388221442e-01) (10, -1.58181710566302341503e-01) (16, -1.71050334135493392607e-01) (1, -2.23043332439802483025e-01) (15, 7.97740649923890099426e-02) (5, -2.05511157404754007949e-01) (11, 1.93363928058992246006e-01) (12, -1.46877597306703550073e-01) (9, 2.51661968650483680587e-01) (14, -3.06492466247939403245e-02) (8, 4.70927348730309114355e-01) (16, 3.94407120428500568288e-01) (13, 6.31093439074104534114e-01) (2, 7.44777164623318554959e-01) (5, 3.69595640382228307619e-01) (6, 8.52482671320678231375e-01) (14, 5.43081952881385610077e-01) (4, 8.85477237790391669137e-01) (7, -8.29259866182025795478e-02) (12, 3.71248204668189640820e-01) (16, 5.42751538887566331582e-01) (13, 4.68118436118548919556e-01) (7, 6.35763858570335127496e-01) (15, 3.90407844838562556600e-01) (5, 7.29140431305194125500e-01) (11, 3.66101415749985614756e-01) (6, 1.29339551545598674398e-01) (1, 7.90201148106661754866e-01) (2, 1.05924456988120072043e-01) (16, -7.35619422525708582805e-02) (15, -1.68518168809948187814e-01) (7, 7.20242834833170336717e-02) (9, -6.49896367266923485895e-02) (14, 8.49821657496459131886e-02) (0, 1.55225230977674960586e-01) (13, -1.61205137568865147779e-02) (6, 3.00543320852103557073e-01) (11, -5.71841331754149306832e-02) (16, -1.06568364474231472294e-01) (13, -1.10483820039186629580e-02) (7, 6.71578250077272814744e-02) (9, -3.36629180982858031146e-02) (3, 2.01017342500801089733e-02) (4, 3.73232194571347875023e-01) (10, 6.48279896938149108321e-02) (14, 5.05495906430251662478e-02) (15, -2.00342109385071021066e-01) (16, 3.48918686941213807007e-01) (2, 6.73746910436391621690e-02) (1, 7.95043801977244335433e-01) (3, 4.51837426214707404970e-01) (4, 2.00814504307664176697e-01) (14, 5.16527003641702453507e-01) (7, 6.09398481561420179986e-01) (10, 7.81962250004574532802e-01) (0, 7.41449612900568433282e-01) (16, -1.30538588437492081296e-01) (2, 2.50309568090276934882e-01) (8, 5.50086289175795051243e-01) (5, 2.08321389173945853424e-01) (1, 6.80401740250186209957e-02) (13, 3.57095172208394956437e-02) (0, 2.06895148978373105697e-01) (10, 1.16177435871297488057e-01) (11, -1.90959806982082314075e-01) (16, 4.24793051425054857262e-01) (3, 6.50063245469665207388e-01) (14, 3.79536971147418078498e-01) (4, 1.28224177061318805881e-01) (12, 7.13445331359452983300e-01) (6, 2.19845077553793705194e-01) (5, 2.79853865995512360310e-02) (1, -7.46857677050862533985e-02) (2, 3.00856980496831571958e-01) (16, -1.02628655331405110873e-01) (3, 6.52181233945821198228e-02) (5, 3.19452754200127697626e-01) (9, -9.75304619805305722524e-02) (8, 1.19374022881133697027e-02) (12, 1.08929074633662761884e-01) (2, -2.03176288158562368125e-01) (15, -2.19669635925170709384e-03) (10, 4.85494720935326848354e-02) (16, -2.05289913389140793454e-01) (1, 2.02511583047826737580e-01) (7, 1.85775151028921836627e-01) (11, -1.99590470138591713489e-01) (6, 3.73339330333056884648e-01) (3, -4.85421933240776024010e-02) (15, -7.17378388672449407437e-02) (9, 6.63592265173643114373e-02) (12, 7.16087696812179735906e-02) (16, 4.21443945135873410113e-01) (2, -4.26245482136503109349e-02) (7, 3.21851737703675755409e-01) (6, 5.67856366089291228483e-02) (4, -6.77493851326140539282e-02) (15, 4.95738744829616384546e-01) (9, 4.99954827898832332433e-01) (10, 3.40212471065962474004e-01) (8, -2.35844960191506719527e-01) (16, -1.22874466750079847088e-01) (11, -3.51098361049116958199e-02) (9, -8.23518920691314673665e-03) (1, 9.35355094847277884762e-02) (6, 3.08022213655295751256e-01) (3, -1.24953131378400791873e-01) (13, 5.61467503708447807087e-02) (10, 9.89270768129173888594e-02) (5, 1.67298552011928031158e-01) (16, 4.82251842401442920583e-01) (13, 6.26854103417938457454e-01) (6, 8.44550947129966256277e-01) (12, 2.91992191632415409863e-01) (3, 3.68915605078802888439e-01) (11, 3.82342747107147107322e-01) (10, 4.90883092215613048293e-01) (9, 6.44941176796586357334e-01) (5, 3.01606805107055120363e-01) (16, 4.42131044682067486651e-01) (5, 3.02192274882079892073e-01) (8, -1.71659594156999023573e-01) (7, 2.57683820928925944038e-01) (0, 1.42940468532568365490e-01) (14, 4.51777421005879031846e-01) (4, -2.33497213266524172859e-02) (12, 4.87628743888405047358e-01) (10, 4.16418134448969523564e-01) (16, 4.86675535223899280446e-01) (2, 7.87704325482426526150e-01) (1, 4.94776480705977350638e-01) (8, 3.78434990424516282115e-01) (12, 3.41820430417682286084e-01) (6, 7.01169686794521074269e-01) (10, 4.30246631434515636183e-01) (14, 5.18880597006847299468e-01) (15, 6.56187740014515963338e-01) (16, 4.48470313928542529958e-01) (1, 6.10827163667918338064e-01) (3, 2.97249289880858358348e-01) (2, 7.90892339512883069119e-01) (12, 2.84985606034423466504e-01) (13, 5.86193446429317588375e-01) (11, 2.64797604337333680746e-01) (5, 4.23848317048011236086e-01) (8, 3.27904854792955002818e-01) (16, -5.12138293716522530197e-02) (9, -3.79868137182344453584e-02) (10, -6.03935384598560318081e-02) (7, 2.96124947771791047213e-01) (15, 5.25533955863841550915e-01) (11, 1.64343265937168143964e-02) (13, -2.46744783263368849813e-01) (12, -1.40030539890329486230e-01) (4, 1.15508729088080935865e-01) (16, 4.84943135049146267779e-01) (13, 2.49943690850710359408e-01) (2, 2.91646121571764276037e-02) (3, 4.78257844513709007295e-01) (7, 2.75853924359673929878e-01) (5, 1.49643641366245278013e-01) (14, 4.73067708381329388168e-01) (6, -1.20347543592124558987e-01) (4, -1.61272694093310387485e-03) (16, 4.31168083928046619313e-01) (8, 2.69332078177335398905e-01) (9, 5.26997185820967994907e-01) (14, 6.51781051110793874237e-01) (15, 7.10482490108929720662e-01) (4, 8.89511429160402045113e-01) (7, -4.46937346164402310444e-02) (6, 7.43988367200137612478e-01) (11, 3.70423010244964490134e-01) (16, -2.03939890275201013425e-01) (15, 1.56178263996562260996e-01) (14, -6.79451096571349472120e-02) (6, 2.97527722324909926765e-01) (7, -7.23627120134550938513e-02) (3, 2.20933857024256351254e-02) (11, 7.10825070830687910650e-02) (0, -3.22312487708230677175e-01) (2, 4.18887295818667515501e-01) (16, 5.50581490959922703610e-01) (14, 2.95165821977768527695e-01) (6, 5.90355033329434050748e-02) (11, 5.92029991427314050689e-01) (3, 4.29375643199736534150e-01) (2, 4.61620823843329319142e-03) (13, 3.50942427768682785327e-01) (8, -1.20804523804444605140e-01) (10, 4.71938981888735453740e-01) (16, -1.04583082768375149052e-01) (3, 3.35713550378038657132e-03) (7, 8.85286978629137438768e-02) (2, 4.18662782950239398261e-01) (6, 2.96129142421069468938e-01) (4, 3.94966428516956014061e-01) (12, 1.90413845441368030642e-02) (15, -9.48047469883539078994e-02) (10, -4.82984297908003665234e-02) (16, 5.53485801782409581051e-01) (15, 4.72055424098691778223e-01) (1, 2.16523459483995345254e-01) (5, 1.92933116509201002531e-01) (8, -1.05672424414414670157e-01) (2, -5.29297032822862376089e-02) (6, 5.78621560982174529264e-02) (13, 2.88690018012499216571e-01) (12, 4.76012141348389095086e-01) (16, 4.21541597083158692261e-01) (9, 4.65734942418505271089e-01) (11, 4.25282800492245594004e-01) (5, 7.38473907729411349621e-01) (1, 8.32586055709925831891e-01) (7, 6.60349209918258406304e-01) (14, 3.79455841179467956437e-01) (15, 2.47954636272850692524e-01) (2, 1.23495690201068028524e-01) (16, -9.52440421750864463224e-02) (0, 2.55356226326629798251e-01) (7, 5.99145536394214084375e-01) (14, -1.81621175686957320172e-01) (8, -4.65846731265442057235e-02) (11, 5.21865364813301271796e-03) (1, 1.45089419296771885565e-02) (12, 1.83009459901397275594e-01) (3, 8.78792728963827124433e-02) (16, -5.00294646702773362912e-02) (6, 1.85455868318372719961e-02) (8, -3.66482386331513018685e-02) (10, -2.87059761702173447950e-02) (1, 1.27153476275172538923e-01) (2, 1.32474581458605744633e-01) (9, 2.31052086537165274338e-01) (11, 5.04147157504725385024e-01) (13, -1.95634701596905297150e-01) (16, -1.47839454981738754880e-01) (1, 2.46076513606031332948e-01) (3, -5.13776309795265159752e-02) (11, -1.81715312841934206745e-01) (12, 4.30928272864844891243e-02) (8, 5.17540957310246296785e-01) (14, -4.63461636942856039512e-02) (5, 1.17864836370429507117e-01) (10, -7.36202486789878512985e-02) (16, 7.88739776021161048680e-02) (5, 3.92282668449347171613e-01) (10, -2.33430264589374880657e-01) (13, -1.28678377464757270898e-01) (3, -6.74409964552960955464e-02) (7, 2.37457828070264526099e-01) (14, -3.34137338863950805745e-01) (8, -1.69919723946957146321e-02) (2, 4.58242154982319710443e-02) (16, 3.07109991959731265521e-01) (5, 3.73586050068620667552e-01) (7, 3.13187601315375985234e-01) (3, 5.26787833131248217633e-01) (2, -1.81727300893259113845e-01) (1, 1.71027909902942532039e-01) (11, 3.39274824139840447401e-01) (10, 5.69006673790198314045e-01) (6, -1.86833896985998865192e-01) (16, 3.77561357698855792897e-01) (10, 3.27887075772837321974e-01) (15, 6.31684285448514071248e-01) (5, 4.20242057225165777101e-01) (9, 6.36757310057313286045e-01) (1, 4.59072203250170562949e-01) (3, 4.54963358770476167248e-01) (13, 5.45076851161068076657e-01) (0, 3.11915377402675775276e-01) (16, 6.13503184120208389270e-04) (0, 2.35853141595226106775e-01) (1, 3.55661267691710913930e-01) (13, 7.21052847646292072170e-01) (6, -1.51602837995708866758e-01) (10, 3.72330718982020122954e-02) (4, -2.35728055198712038720e-01) (9, 6.71043763079310240371e-01) (5, 4.38421890044836615186e-01) (16, -1.14199233958920551291e-01) (3, 5.31471001565996942206e-02) (12, -1.31742934916948301050e-01) (5, -1.95193638097617472305e-01) (11, 9.64482881220682791712e-02) (1, -8.18142989696486605533e-02) (14, -1.34227195731487197738e-01) (6, 4.04288183208288798287e-01) (15, 1.27518592451533574472e-01) (16, 4.80108936212478076833e-01) (5, 3.84778738996444158449e-01) (8, 3.65790535587670884166e-01) (0, 3.88693617904556365517e-01) (13, 6.09312493713443870114e-01) (9, 6.81324015880257927158e-01) (7, 1.51587984259906657231e-02) (3, 3.83826384972201173351e-01) (11, 3.09460538133977780539e-01) (16, 4.82303741708345612427e-01) (13, 4.63026508172935058472e-01) (4, 3.02540820223248796417e-01) (7, 5.90183918489692316278e-01) (6, 2.13769016779878334722e-01) (10, 6.34408280829951043422e-01) (8, -7.35493022000339308208e-02) (14, 3.84941048021890441788e-01) (2, 1.11522271905684464133e-01) (16, 4.31640757117107698448e-01) (0, -4.61999277485368523011e-02) (14, 5.56392617221235896707e-01) (9, 5.04816580556206373487e-01) (12, 7.61924009228296061913e-01) (13, 5.57472487503786195973e-01) (8, 6.14486511494723108839e-01) (10, 5.85365240624533433866e-01) (5, -8.82199741408719734226e-02) (16, 4.85344258937671857446e-01) (10, 5.28936502686129350614e-01) (1, -8.50785527774129135548e-02) (8, 6.94971609558668768081e-01) (3, 5.86376185441350505911e-01) (11, 7.21152280695059766380e-01) (13, 5.03787530178327780384e-01) (5, -1.37042656491745878933e-01) (6, 1.26740890154644764154e-01) (16, -3.10346927216370895020e-02) (3, -2.41829056557681144890e-02) (2, -2.90609387905266247643e-01) (11, -4.14367740163854164637e-02) (5, 3.29779460073140295862e-01) (14, -1.64755959491373976666e-01) (4, -3.00067176122157663887e-01) (13, -1.09224511843426172475e-01) (9, -1.34347934408614116952e-01) (16, -1.16563740628144291676e-03) (4, 2.24998739190810342903e-01) (5, -2.59273587273591732405e-01) (2, 3.15087805779971141806e-01) (12, 1.04075615638967288595e-02) (13, 1.10419047679749193769e-01) (3, 7.40878083681562882301e-02) (1, -9.23903933365564644653e-02) (7, 4.52330057800954046798e-02) (16, -2.66461815407594664051e-02) (11, 9.30595907261320687276e-02) (2, -2.42191853226091935447e-01) (12, 1.23538433838431896405e-01) (15, 2.87726812478554735963e-02) (13, -1.48653014164669472486e-01) (3, 1.38118254739377305240e-01) (4, -3.34466417331187759743e-01) (1, 1.67911926071980494024e-01) (16, 3.89431295785740205773e-01) (15, 5.65526191723014881596e-01) (11, 6.34932116843083704794e-01) (10, 6.22606967738256966705e-01) (9, 5.58119695626072553907e-01) (13, 5.41523208433885683277e-01) (14, 4.96752135153174345650e-01) (3, 6.96035801345443405630e-01) (7, 9.20936510020582688174e-03) (81, 6.51826004478133456954e-03) (19, -1.66377033372956034674e-01) (20, 4.64743214578881347343e-01) (21, 4.25794556074818364433e-01) (24, -1.03237816004849811136e-01) (26, 1.29951411453436665999e-01) (27, -1.57255806596828306976e-01) (28, -1.03797279312009119168e-01) (30, -3.54701298040597301497e-01) (31, 2.37701201430186914720e-01) (33, 6.27024713446551751339e-01) (36, 2.24763485988500794077e-01) (38, 4.43465016752488783158e-01) (39, -3.16105722715137260614e-01) (42, -3.41832781491312742705e-01) (48, 8.32372867344844807880e-02) (49, 4.46024656387597751017e-01) (53, -1.58783208305767170598e-01) (55, -8.31033977236876331141e-02) (56, -9.94931506079396732467e-02) (57, 3.89587088176012036334e-02) (59, -1.02277429086295265637e-01) (65, 3.99635895481428193854e-01) (66, 2.32806860450075446545e-02) (68, 2.40491060597330351400e-02) (70, -1.14121997221572124559e-01) (73, -1.10726713366153584062e-01) (75, 4.25974377993269703868e-01) (76, 4.26117254016575131015e-01) (77, 8.08487226552555338088e-01) (78, -3.93151424325516307690e-02) (79, 5.51534642665406527051e-01) (80, 4.70287118301554285527e-01) (81, -7.04114788868036994840e-02) (17, -1.39517943641755542972e-01) (18, -4.50613946367627249412e-01) (22, -1.49600387150677749393e-01) (23, 1.20228144592753480313e-01) (25, -8.99331462201842929405e-02) (29, 4.48108844227832425755e-01) (32, 4.43308167016357002055e-01) (34, 2.83508055588979901440e-01) (35, -5.43360706563285889015e-02) (37, 3.17220391632436982121e-01) (40, 5.42375317895582576000e-01) (41, 5.01315926316995508216e-01) (43, -1.38842786744221707851e-01) (44, -1.13839965594946579408e-01) (45, -8.60547596890137433956e-02) (46, -4.87268448521023855857e-01) (47, -9.35701423515609143067e-02) (50, -4.33603707450845379801e-02) (51, 7.58357678907309179506e-02) (52, -1.20151639284608757752e-01) (54, 9.89761010461722018361e-02) (58, 3.95409773629277760953e-01) (60, 4.80438213342999798083e-01) (61, 4.43030796539157445402e-01) (62, -1.21922962009458957233e-01) (63, 4.18429743355363426005e-01) (64, -4.73341493745024155526e-01) (67, -5.40043887062773425578e-02) (69, 5.18135289048111055688e-02) (71, 1.84500437669806671703e-01) (72, 3.26998277403495518634e-01) (74, -1.20538632245251728370e-01) 
