FANN_FLO_2.1
num_layers=3
learning_rate=0.250000
connection_rate=1.000000
network_type=0
learning_momentum=0.000000
training_algorithm=2
train_error_function=1
train_stop_function=0
cascade_output_change_fraction=0.010000
quickprop_decay=-0.000100
quickprop_mu=1.750000
rprop_increase_factor=1.200000
rprop_decrease_factor=0.500000
rprop_delta_min=0.000000
rprop_delta_max=50.000000
rprop_delta_zero=0.100000
cascade_output_stagnation_epochs=12
cascade_candidate_change_fraction=0.010000
cascade_candidate_stagnation_epochs=12
cascade_max_out_epochs=150
cascade_max_cand_epochs=150
cascade_num_candidate_groups=2
bit_fail_limit=3.49999999999999977796e-01
cascade_candidate_limit=1.00000000000000000000e+03
cascade_weight_multiplier=4.00000000000000022204e-01
cascade_activation_functions_count=10
cascade_activation_functions=3 5 7 8 10 11 14 15 16 17 
cascade_activation_steepnesses_count=4
cascade_activation_steepnesses=2.50000000000000000000e-01 5.00000000000000000000e-01 7.50000000000000000000e-01 1.00000000000000000000e+00 
layer_sizes=17 33 3 
scale_included=0
neurons (num_inputs, activation_function, activation_steepness)=(0, 0, 0.00000000000000000000e+00) (0, 0, 0.00000000000000000000e+00) (0, 0, 0.00000000000000000000e+00) (0, 0, 0.00000000000000000000e+00) (0, 0, 0.00000000000000000000e+00) (0, 0, 0.00000000000000000000e+00) (0, 0, 0.00000000000000000000e+00) (0, 0, 0.00000000000000000000e+00) (0, 0, 0.00000000000000000000e+00) (0, 0, 0.00000000000000000000e+00) (0, 0, 0.00000000000000000000e+00) (0, 0, 0.00000000000000000000e+00) (0, 0, 0.00000000000000000000e+00) (0, 0, 0.00000000000000000000e+00) (0, 0, 0.00000000000000000000e+00) (0, 0, 0.00000000000000000000e+00) (0, 0, 0.00000000000000000000e+00) (17, 13, 5.00000000000000000000e-01) (17, 13, 5.00000000000000000000e-01) (17, 13, 5.00000000000000000000e-01) (17, 13, 5.00000000000000000000e-01) (17, 13, 5.00000000000000000000e-01) (17, 13, 5.00000000000000000000e-01) (17, 13, 5.00000000000000000000e-01) (17, 13, 5.00000000000000000000e-01) (17, 13, 5.00000000000000000000e-01) (17, 13, 5.00000000000000000000e-01) (17, 13, 5.00000000000000000000e-01) (17, 13, 5.00000000000000000000e-01) (17, 13, 5.00000000000000000000e-01) (17, 13, 5.00000000000000000000e-01) (17, 13, 5.00000000000000000000e-01) (17, 13, 5.00000000000000000000e-01) (17, 13, 5.00000000000000000000e-01) (17, 13, 5.00000000000000000000e-01) (17, 13, 5.00000000000000000000e-01) (17, 13, 5.00000000000000000000e-01) (17, 13, 5.00000000000000000000e-01) (17, 13, 5.00000000000000000000e-01) (17, 13, 5.00000000000000000000e-01) (17, 13, 5.00000000000000000000e-01) (17, 13, 5.00000000000000000000e-01) (17, 13, 5.00000000000000000000e-01) (17, 13, 5.00000000000000000000e-01) (17, 13, 5.00000000000000000000e-01) (17, 13, 5.00000000000000000000e-01) (17, 13, 5.00000000000000000000e-01) (17, 13, 5.00000000000000000000e-01) (17, 13, 5.00000000000000000000e-01) (0, 13, 0.00000000000000000000e+00) (33, 13, 5.00000000000000000000e-01) (33, 13, 5.00000000000000000000e-01) (0, 13, 0.00000000000000000000e+00) 
connections (connected_to_neuron, weight)=(0, 1.93719046985141307715e-01) (1, -1.11971582186640526008e-02) (2, 4.42964760164815229970e-01) (3, 5.87336676597752238571e-01) (4, 4.48524354435595240531e-01) (5, 3.94178091465452896253e-03) (6, 4.34191528867484355381e-01) (7, 1.77778053612830250207e-01) (8, 7.89679537878907877868e-01) (9, 6.55274337610972312795e-01) (10, 5.18139768559394031655e-01) (11, 5.70232403292376566206e-01) (12, 5.56592833617882476460e-01) (13, 3.14372573159311274882e-01) (14, 5.48898708833934101392e-01) (15, 2.77790020392982117681e-01) (16, -1.97062209731045628880e-01) (0, 2.57566327607697265201e-01) (1, 4.19233479941469311392e-02) (2, -2.02863245882973025624e-01) (3, -3.13366861328762236205e-01) (4, -2.79891078667281745229e-01) (5, 1.88271290385769257680e-01) (6, -9.69181122510049120056e-02) (7, 1.72635412254145026445e-01) (8, 1.71904852330079127576e-01) (9, 3.76760039108967326182e-01) (10, -3.63824161933756606846e-01) (11, 4.62418282956816473206e-01) (12, -6.51001305881119818331e-01) (13, 1.37863567632602679325e+00) (14, 3.03788835635273070379e-02) (15, 6.93485170299021236318e-01) (16, 3.90901485136330550940e-01) (0, 1.00163518642354093524e-01) (1, 3.82083611223984279115e-02) (2, 4.78315511223762868109e-01) (3, 2.16423947590702270283e-01) (4, 5.28383813112263789336e-01) (5, 3.30668904807285141123e-02) (6, 3.85369912183203378042e-01) (7, 6.61304524371002511174e-02) (8, 1.19731248086943950493e-01) (9, 4.49380452644524586159e-01) (10, 2.08362094617338011737e-01) (11, 4.11127254165804090213e-01) (12, 4.08469420332271904162e-01) (13, 1.53623237578237925582e-01) (14, 2.48893777241399105637e-01) (15, 2.37756366242415834167e-01) (16, 4.33012265252258832238e-01) (0, 3.18472284462497756685e-01) (1, 3.36358606065060961043e-01) (2, -9.17806018637992021558e-02) (3, 5.76784789654552154659e-01) (4, -1.77366590418072012092e-01) (5, 3.87046489352559197616e-01) (6, -2.21584990715273877360e-01) (7, 4.73172114164296497840e-01) (8, -4.15707400385546654853e-01) (9, 3.47460545924370312054e-01) (10, 2.99308660289989925118e-01) (11, 3.31735902343773148004e-01) (12, 3.81853847318548211831e-01) (13, 6.97254626583970055220e-02) (14, 1.27152135872050403576e-01) (15, 2.38707030273015929911e-01) (16, 3.12183215103197075901e-01) (0, 1.13818556808711307538e-01) (1, 3.71875195002976999259e-01) (2, -1.14069491973058517731e-01) (3, 9.39004928602816674177e-02) (4, -9.43691125036619088418e-02) (5, 3.31042001625827420064e-01) (6, -4.69716095940806210862e-01) (7, 4.56255676186959668872e-01) (8, 5.23518313882202976361e-02) (9, -8.23035240581332788734e-02) (10, 3.71199232048387700589e-02) (11, 1.97468718538496595949e-01) (12, -1.90997338108658071265e-01) (13, 1.84644183202875983296e-02) (14, 1.36067836571316328614e-02) (15, -1.51807516521937080345e-01) (16, 3.71547525595492367234e-01) (0, -5.16153400192577160865e-01) (1, -2.42879455805414062874e-01) (2, 5.77964640025735720830e-02) (3, -9.81129855626768909715e-02) (4, -6.89700512417198152715e-02) (5, -3.06302701311880198887e-01) (6, 1.01932532004782947649e-02) (7, -3.82621174581231904277e-01) (8, -2.34722706801236247198e-01) (9, 5.28112371793505869233e-02) (10, 2.23321270235247143487e-01) (11, 2.26914655025331375715e-02) (12, 5.29565134478079437008e-03) (13, -1.82453921247233391556e-01) (14, -2.67493828126354249441e-01) (15, 3.37943026044835934107e-02) (16, -1.78677730470815310237e-01) (0, -5.91253814647514142067e-01) (1, -1.61723805487745148080e-01) (2, -4.29472469921468522069e-02) (3, -2.29773267688482725479e-02) (4, 1.73117289117931255626e-02) (5, -3.26061104613119157047e-01) (6, 3.18865424804160302319e-02) (7, -1.95439247317495706779e-01) (8, -2.11129936701596354620e-01) (9, 1.63948182176062273729e-01) (10, -8.00657143514689334518e-02) (11, 3.10407649333803228875e-02) (12, -5.57351612167311730173e-02) (13, -1.43823234546889305863e-01) (14, -1.34914426990909802617e-01) (15, -2.55495021202279459782e-01) (16, -2.55650036245503364807e-01) (0, 3.92514471224914562875e-01) (1, 1.27205925048825135848e-02) (2, -2.82716447037157370126e-01) (3, -2.68040479443581114438e-01) (4, -4.02509383430814493554e-01) (5, 1.18043127582141152421e-01) (6, -4.59692371504652919079e-01) (7, -3.38060737689463264299e-01) (8, 9.99961570154417334066e-03) (9, 1.03567640242424041652e-01) (10, 4.04018447729539154079e-02) (11, 6.12999600510485409544e-02) (12, -1.03860866597291920388e-01) (13, 2.09758527150335633005e-01) (14, 3.05180869650094020729e-02) (15, 1.90969718606622068657e-01) (16, 4.24275616814033196267e-01) (0, -3.40405709326315586427e-01) (1, -1.36457701633268924102e-01) (2, 2.66449411603811914251e-01) (3, -1.80724579811919333627e-02) (4, 1.99689798138885821199e-01) (5, -1.14914928336960597832e-01) (6, 2.18534974995555297816e-01) (7, -5.64172360549749021819e-02) (8, 1.47816031753396331938e-01) (9, -1.23984243864493540177e-01) (10, -1.62855836146511834261e-01) (11, -1.01123432696281254084e-01) (12, -3.77484791196724012163e-01) (13, 1.64109083383490311769e-01) (14, 1.56656555796702623429e-01) (15, -1.27534198238565543715e-01) (16, -1.89070335119882360075e-01) (0, 1.39450763362956337010e-01) (1, -9.61607353444446033564e-01) (2, -2.47095861685178858069e-01) (3, -1.03833811891427540974e-01) (4, -2.26669912031057962931e-01) (5, 2.10652987743250502684e-01) (6, -1.97625514676709662654e-01) (7, 1.84231943591996377707e-01) (8, 5.04497688017875936528e-02) (9, 1.64535822925143238038e-01) (10, 7.79976443631300031534e-02) (11, 1.76502302063646088204e-01) (12, -1.68945240675506314076e-01) (13, 6.65376866376648778978e-02) (14, -1.27528520752171220520e-01) (15, 1.50663851102297935425e-01) (16, -1.75689678546529892689e-01) (0, -1.31444322131789304020e-01) (1, 1.52574274664053044503e-01) (2, -5.25980589870893716631e-02) (3, -5.31151357912231225633e-02) (4, -1.04296926161185549153e-01) (5, 3.68990187561119509230e-01) (6, -5.62226780022229422062e-02) (7, 3.60252436065812586818e-01) (8, -8.37414465933637303108e-02) (9, 2.25101399633016424628e-01) (10, 3.20810595000695572554e-02) (11, 9.04203165129110163212e-03) (12, -1.14769967971318248567e-01) (13, -9.06538184374524325104e-02) (14, -2.53512878432102184423e-01) (15, 1.31328534446047695550e-01) (16, -1.39026302438565507735e-01) (0, 3.42730717018646269256e-01) (1, 6.33795186997710757737e-01) (2, 5.46877051835097605093e-01) (3, 7.81320667292705883789e-01) (4, 5.52101138499114685310e-01) (5, 1.07520154741809337295e+00) (6, 5.58887071455074879722e-01) (7, 4.34504162409092342667e-01) (8, 7.55239626617345449766e-01) (9, 2.97652893414833086272e-01) (10, 5.63000288874487830881e-01) (11, 6.70389562468020727692e-01) (12, 5.90132554494972594306e-01) (13, 4.37987329012325066202e-01) (14, 6.34696880852296363429e-01) (15, 3.12834688701114249643e-01) (16, -1.11362304727008101790e-01) (0, -2.55762146363214148970e-01) (1, -2.11176180374615357627e-01) (2, 2.58216562291129936302e-01) (3, 3.52470106585705211799e-01) (4, 1.44313484512119616365e-01) (5, -1.36771240931179760558e-01) (6, 1.89711424205006973231e-01) (7, -1.14276532686883383616e-01) (8, 3.97587792289415153935e-01) (9, -2.12702016114500236377e-01) (10, 1.86911306138982880043e-01) (11, -1.78145889080058850151e-01) (12, 4.14934437050140658698e-01) (13, -3.08585651654709913760e-01) (14, 2.85737858504756525591e-01) (15, -1.27237447132803049854e-01) (16, -3.15235293000855509860e-01) (0, 4.37592511664246230918e-01) (1, 2.93003394158251939672e-01) (2, -1.76013174028095520374e-01) (3, 3.64679910777219007390e-01) (4, -1.85166701849798803758e-01) (5, 4.00651835504957198886e-01) (6, -2.64047835895017402041e-01) (7, 2.87871502366747522572e-01) (8, 5.23952401711878623658e-01) (9, 4.20479700556011415369e-01) (10, 1.17817918850255776153e-01) (11, 5.63861355019396381927e-01) (12, 6.13541490006083933828e-01) (13, 3.46843814803340810826e-01) (14, 2.53364150125873877073e-01) (15, -2.89024457552852498399e-02) (16, 3.32855657881426292288e-01) (0, -1.33389488239968961869e-01) (1, -2.15098716524483341006e-01) (2, -8.27515114617414504483e-02) (3, -7.65006893417030098270e-02) (4, -2.02469003099106897858e-01) (5, -1.56632368693307051644e-02) (6, -2.07997591689102923063e-01) (7, -1.79802552389361464114e-01) (8, 2.00431085472894537913e-01) (9, 1.17484104197179001217e-02) (10, 6.74537679131267109423e-02) (11, 7.11328732816980807696e-02) (12, -7.61029123772331700382e-02) (13, 1.39278404579143949560e-01) (14, 1.35982788307567992181e-01) (15, 8.59703576858806134409e-02) (16, -3.82744507222452026718e-02) (0, -9.48379580362015695005e-02) (1, 3.93826618139967610244e-01) (2, 4.66553887348044982186e-01) (3, 3.51265653036861746905e-01) (4, 4.24014925455775959495e-01) (5, 2.04475827696706906333e-02) (6, 4.48101813445084540266e-01) (7, -1.40142026432591368379e-02) (8, 1.02199282575379440940e-01) (9, 3.33780835809291742677e-01) (10, 2.79796418100963117936e-01) (11, 3.25969881400408167949e-01) (12, 4.47963027201079222461e-01) (13, 1.45953374911625771704e-01) (14, 2.14036666351676424513e-01) (15, 2.56254427449999988564e-01) (16, 5.77883057687975210115e-01) (0, 4.11522994984753254233e-01) (1, 3.64462651766771839057e-01) (2, -9.15354481346378374973e-03) (3, 5.53029088923961076318e-01) (4, -8.56962236463407467379e-02) (5, 3.66440708625593913883e-01) (6, -6.77356299662667110661e-02) (7, 4.43121180894651245374e-01) (8, 1.86958817638858861010e-02) (9, 3.56128588366036447077e-01) (10, 3.55213400289192016146e-01) (11, 4.03972802559794841315e-01) (12, 2.07984450133654186210e-01) (13, 5.35743902708373020971e-01) (14, -2.19364129352461433020e-02) (15, 9.11026977260387949009e-01) (16, 4.48020927999713047818e-01) (0, -1.87978197858216067306e-01) (1, -1.04046027690154141432e+00) (2, -7.04816436036499738282e-02) (3, 4.63801734353077976802e-01) (4, -1.85025887867617422344e-01) (5, -4.33632007346311965090e-01) (6, -2.59659081150544479577e-01) (7, -6.75339453118302263102e-02) (8, 3.92483219333560617859e-01) (9, 3.92995747354778768301e-01) (10, -1.26621821290132163806e-01) (11, 5.33544922029694279608e-01) (12, 4.94010079461568940573e-01) (13, 4.98201581737895915492e-01) (14, 7.51198186534992595753e-02) (15, 3.89316956880788767048e-01) (16, 6.03415114897148163742e-01) (0, -3.13493085602477683516e-01) (1, -2.07340111922477948747e-01) (2, 1.53955071742597093820e-01) (3, 4.03643392722922100813e-01) (4, 2.97529593191890984194e-01) (5, -4.39917833620573558995e-02) (6, 1.70758622381390945399e-01) (7, -1.99976784770675486413e-01) (8, 4.81591832109282858010e-01) (9, -2.18970025657919120654e-01) (10, 2.66891007771994204223e-01) (11, -1.76441355113271775013e-01) (12, 2.35557928836193503086e-01) (13, -2.08652753818740016589e-01) (14, 2.24166410199241911139e-01) (15, -1.08970412099970298536e-01) (16, -2.64448775440373484713e-01) (0, 1.02096342951479859829e-01) (1, -4.68021497968023725278e-01) (2, -1.32787048358739445675e-01) (3, 5.81968488973342412685e-01) (4, -2.62171121204572699082e-01) (5, 6.35422675735348579940e-02) (6, -1.83417774831542035319e-01) (7, 1.22963073312496687373e-01) (8, -3.27730645243334062222e-01) (9, 2.40293110510247265310e-01) (10, 2.23452861270653085901e-01) (11, 3.51100519385774856307e-01) (12, 4.95747363680261288188e-01) (13, -5.40203973169103707219e-02) (14, 2.60213358027131413941e-01) (15, 1.02558689098222646785e-01) (16, -9.94046595213795569634e-02) (0, 3.51240424106930404502e-01) (1, 2.87351821611469271378e-01) (2, -1.87834494586957251316e-01) (3, 4.41334134067673800050e-01) (4, -2.56741686741548291728e-01) (5, 4.08980392519422530917e-01) (6, -2.29398998883744098531e-01) (7, 3.96705213975391990378e-01) (8, -1.45353641132472177766e-01) (9, 4.07015547743053707208e-01) (10, -2.49407134669496793888e-01) (11, 5.36028928843416019312e-01) (12, 5.93331033764863291502e-01) (13, 2.38405874325015892934e-01) (14, -1.43252355393512692538e-01) (15, 1.31160790695351803237e-01) (16, 4.85724385073462883167e-01) (0, 3.65046442702812223846e-01) (1, 5.72498410803306878591e-01) (2, 6.79741353358783051419e-01) (3, 7.23856037881008496093e-01) (4, 7.09041400780522912406e-01) (5, 4.20929541846324528631e-01) (6, 7.56657782360340758210e-01) (7, 3.96372046210552608780e-01) (8, 7.76101684422406790098e-01) (9, 2.70224050333835619231e-01) (10, 6.08618197113852454905e-01) (11, 5.95776421458001026465e-01) (12, 6.50588092827435016119e-01) (13, 2.67701391717365011491e-01) (14, 5.26937636112286944545e-01) (15, 3.59014407970389970437e-01) (16, -1.79926286997007967017e-01) (0, 4.06809684549144512378e-01) (1, 3.81260602224346656364e-01) (2, -2.30776509263936696614e-01) (3, -2.92459420402291447871e-01) (4, -1.76434333736541798521e-01) (5, 3.37335783442417491695e-01) (6, -1.83559270121214895832e-01) (7, 2.61671311369675529956e-01) (8, -1.42858460558473121527e-01) (9, 3.70148052763215329453e-01) (10, 1.41640433930416281827e-02) (11, 4.66235323726304329295e-01) (12, -1.13155380322014206818e-01) (13, 3.76298398374418696655e-01) (14, 1.11195982582791008664e-01) (15, 4.51163762866181539124e-01) (16, 4.48020610204020897083e-01) (0, 4.32430309216296715480e-01) (1, 3.30716684185778098115e-01) (2, -1.43336199667557340209e-01) (3, 3.90340628236765296855e-01) (4, -3.15968109856020529236e-01) (5, 2.68788270456876254855e-01) (6, -2.47501132104376880827e-01) (7, 4.55090453902445679635e-01) (8, -1.05684340675521945552e-01) (9, 4.86401870197500085791e-01) (10, -3.65800096815974444195e-03) (11, 4.68021769966821932218e-01) (12, -1.68752815743797385251e-01) (13, 2.66057605142581921065e-01) (14, -1.97716952416319896590e-01) (15, 4.82155279001505343572e-01) (16, 3.67935867761585877478e-01) (0, 3.75404273509742480996e-01) (1, 3.85795692100548481829e-01) (2, -1.24177057932818996067e-01) (3, -1.33780758593396637002e-01) (4, -1.38143606659273748827e-01) (5, 4.25519524208543664656e-01) (6, -2.10929775894687504545e-01) (7, 4.16543166010362286844e-01) (8, 2.05363009212292835226e-01) (9, -7.36402207078532961004e-02) (10, 1.22271126574277660959e-01) (11, 8.78775052138792110712e-03) (12, 1.81096187874723507649e-01) (13, 9.13440182932752225975e-02) (14, 1.62765791959660288679e-01) (15, 1.14527661643513203882e-01) (16, -1.11255492123804464177e-01) (0, -1.55085470035227185326e-01) (1, -8.34722926427505923508e-02) (2, 2.74835905890643550364e-01) (3, 3.81819370901054111478e-01) (4, 3.20183869933409359643e-01) (5, -2.05194629978332682141e-01) (6, 1.89549392367116542601e-01) (7, -5.43893940432371852944e-02) (8, 4.99426502744036437953e-01) (9, -1.76966217671747055862e-01) (10, 1.70394011773469078452e-01) (11, -5.16767009745754291039e-01) (12, 3.95454111215396530987e-01) (13, -2.93745929825521168155e-01) (14, 4.93852701696300466772e-01) (15, -2.35133075114920620310e-03) (16, -1.51658239999490418448e+00) (0, -7.81888845079865002496e-02) (1, -9.85629578991911864394e-02) (2, 6.94825271876916283897e-02) (3, -2.87518633235089360323e-01) (4, 2.29848724024305159364e-02) (5, -2.67143618336550536796e-01) (6, 1.43918687800568295687e-01) (7, -3.49729889335476107348e-01) (8, 2.11988094086154876816e-01) (9, -6.77703036826376586932e-02) (10, -2.28826143301462614499e-01) (11, -8.98643281699563617471e-02) (12, -4.78581867317918074889e-01) (13, 1.26304747717908866234e-01) (14, -1.75034136977267162916e-01) (15, 8.04462706303436976552e-03) (16, -1.58482265557994439487e-01) (0, 3.06251396018495103402e-01) (1, 3.28844815357111464049e-01) (2, -4.00141433346212826994e-01) (3, -1.42948043912341477002e-01) (4, -3.90372333265827431426e-01) (5, 3.02899614195584032661e-01) (6, -4.31259672349555811532e-01) (7, 3.49644453962223322740e-01) (8, -1.79552218545793562665e-01) (9, 1.21362411739862813276e-01) (10, -7.36612125200838546712e-02) (11, 6.62978175773061062515e-01) (12, -6.24751603076223460675e-01) (13, 8.97417112319606413706e-01) (14, -1.28437744784393431674e-01) (15, 6.79694523003251283022e-01) (16, 3.20203844964612793778e-01) (0, 3.00948767391654214975e-01) (1, 2.93224689952660322323e-01) (2, 3.58429491433168212478e-01) (3, 3.29586238324651281673e-01) (4, 1.66784368534878407742e-01) (5, 2.80524946672956021487e-01) (6, 1.79193220518726104018e-01) (7, 3.12670294232327006245e-01) (8, 1.27587529068640015417e-01) (9, 2.46853553484515431116e-01) (10, 9.81373115054306327520e-02) (11, 4.38251885074439462286e-01) (12, 4.13416190884377698911e-01) (13, 4.80701171153883277665e-01) (14, 7.97806094886740618799e-02) (15, 2.24880555247617935910e-01) (16, 5.14849088173834013027e-01) (0, -6.94586891335012123622e-03) (1, -1.51725917178390234952e-01) (2, 1.49295730909746626747e-01) (3, 3.12289237880446657325e-01) (4, 2.49313631057850593198e-01) (5, -1.06367653678745177626e-01) (6, -3.09709978789585796410e-02) (7, -8.27149150442663405602e-02) (8, 3.82239494286457204275e-01) (9, -2.45418752000655798762e-01) (10, -1.18543967217531451275e-01) (11, 4.71732206804439835324e-01) (12, 3.51551922971558128417e-01) (13, 1.56037955346579743088e-01) (14, 2.62028865102777119844e-01) (15, 2.45493384284035887077e-01) (16, -1.44330347101257194797e-01) (0, -2.11990355470141056404e-01) (1, 1.28429942938851782835e-02) (2, 4.53813049752872121889e-01) (3, 5.98651912040528477732e-01) (4, 3.81146176733446917506e-01) (5, -3.55994830684169746848e-02) (6, 5.55113061837161581025e-01) (7, -5.69813588758813667490e-03) (8, 4.46567583278570434668e-01) (9, 2.84072072831714872443e-01) (10, 4.44218046680325162612e-01) (11, 5.05698028312687508645e-01) (12, 4.46758971331580545527e-01) (13, 3.36897518387674010931e-01) (14, 3.98895991215186151990e-01) (15, 5.61397907861531764162e-01) (16, 4.63551310859731224845e-01) (0, 2.08741270744086632183e-01) (1, 2.61693333125332494582e-01) (2, -1.09181006770468880251e-01) (3, -9.99576964653863496435e-03) (4, -1.36371290870411832064e-01) (5, 3.84204945022039445757e-01) (6, -1.53423871388416621642e-01) (7, 2.62119491410993776803e-01) (8, 9.76279839215362932325e-02) (9, 5.58921712700967826537e-02) (10, 1.24417742759644497919e-01) (11, 1.29577541748497698793e-01) (12, -1.87730392901918452520e-01) (13, 1.71732055446424079770e-02) (14, 3.75590353738274179696e-02) (15, -1.79283260104259267731e-01) (16, 4.20788679074114824186e-01) (17, 8.67544571820614007773e-02) (18, -5.77796921945035978074e-03) (19, -7.50004027534253547849e-01) (20, 1.63004674125972526255e-01) (21, 4.72052283656668791867e-01) (22, 9.47450639826790008691e-01) (23, 9.35855067543057694834e-01) (24, 2.91148821831452540854e-02) (25, 4.20473659182214298813e-01) (26, 2.52970816864455216866e-01) (27, 4.52660721746060090709e-01) (28, -7.09749226593863885570e-02) (29, 3.19550025999904896423e-01) (30, 3.76566219699493220929e-01) (31, 1.10063765041255390287e+00) (32, -3.76066126217365681583e-01) (33, -6.56650023900599566495e-02) (34, 2.10428363429607218071e-01) (35, 3.17296681026664972869e-01) (36, 1.88120125674434063301e-01) (37, 4.02298071863309625318e-01) (38, -6.24709596879815323711e-02) (39, 4.67180756833121102467e-01) (40, 3.97812146236720953763e-01) (41, 9.45144552365596468668e-01) (42, 3.14992307795161519124e-01) (43, -5.09706766818446496692e-02) (44, -1.53175360248502100829e-02) (45, -1.88418563569847347106e-01) (46, -9.92384151511587764283e-02) (47, 1.15334332133395930930e-01) (48, 4.63675893914771208859e-01) (49, 3.91596631855882448825e-01) (17, -2.09482535098654387706e-01) (18, 1.28788777337113580224e-01) (19, 3.80872094122332360833e-01) (20, 1.25469884065708747745e-01) (21, 1.00574868064318145855e-01) (22, 5.51426531146942622286e-01) (23, 5.19211427005484504882e-01) (24, 2.23441974147996574862e-01) (25, 2.11235170540557265495e-01) (26, 3.53538798365811146596e-01) (27, 2.27013154279635476218e-01) (28, -2.02330537137355465083e-01) (29, 1.98348458305010855174e-01) (30, -1.01391857641617427754e-01) (31, 2.03909778578123618287e-01) (32, 4.24567773821789118394e-01) (33, 7.28860128535523121851e-02) (34, 4.50293326059041487675e-01) (35, 2.22031708498865193446e-01) (36, 1.57729494870092828984e-01) (37, -9.89348132265484569992e-02) (38, -2.10723466514046470222e-01) (39, -7.02670144260280349346e-02) (40, -9.67105534554926760116e-03) (41, -3.97358363428192418176e-01) (42, 3.01060918319391745968e-01) (43, 3.67049269620836615680e-01) (44, 1.01681691736683149641e-01) (45, 4.34891679769859318405e-01) (46, 3.31798748030446455370e-01) (47, -9.96928062865305997242e-02) (48, 5.44496146956571433484e-02) (49, -6.33584873944209175933e-02) 
