FANN_FLO_2.1
num_layers=3
learning_rate=0.050000
connection_rate=1.000000
network_type=0
learning_momentum=0.000000
training_algorithm=2
train_error_function=1
train_stop_function=0
cascade_output_change_fraction=0.010000
quickprop_decay=-0.000100
quickprop_mu=1.750000
rprop_increase_factor=1.200000
rprop_decrease_factor=0.500000
rprop_delta_min=0.000000
rprop_delta_max=50.000000
rprop_delta_zero=0.100000
cascade_output_stagnation_epochs=12
cascade_candidate_change_fraction=0.010000
cascade_candidate_stagnation_epochs=12
cascade_max_out_epochs=150
cascade_max_cand_epochs=150
cascade_num_candidate_groups=2
bit_fail_limit=3.49999999999999977796e-01
cascade_candidate_limit=1.00000000000000000000e+03
cascade_weight_multiplier=4.00000000000000022204e-01
cascade_activation_functions_count=10
cascade_activation_functions=3 5 7 8 10 11 14 15 16 17 
cascade_activation_steepnesses_count=4
cascade_activation_steepnesses=2.50000000000000000000e-01 5.00000000000000000000e-01 7.50000000000000000000e-01 1.00000000000000000000e+00 
layer_sizes=28 28 3 
scale_included=0
neurons (num_inputs, activation_function, activation_steepness)=(0, 0, 0.00000000000000000000e+00) (0, 0, 0.00000000000000000000e+00) (0, 0, 0.00000000000000000000e+00) (0, 0, 0.00000000000000000000e+00) (0, 0, 0.00000000000000000000e+00) (0, 0, 0.00000000000000000000e+00) (0, 0, 0.00000000000000000000e+00) (0, 0, 0.00000000000000000000e+00) (0, 0, 0.00000000000000000000e+00) (0, 0, 0.00000000000000000000e+00) (0, 0, 0.00000000000000000000e+00) (0, 0, 0.00000000000000000000e+00) (0, 0, 0.00000000000000000000e+00) (0, 0, 0.00000000000000000000e+00) (0, 0, 0.00000000000000000000e+00) (0, 0, 0.00000000000000000000e+00) (0, 0, 0.00000000000000000000e+00) (0, 0, 0.00000000000000000000e+00) (0, 0, 0.00000000000000000000e+00) (0, 0, 0.00000000000000000000e+00) (0, 0, 0.00000000000000000000e+00) (0, 0, 0.00000000000000000000e+00) (0, 0, 0.00000000000000000000e+00) (0, 0, 0.00000000000000000000e+00) (0, 0, 0.00000000000000000000e+00) (0, 0, 0.00000000000000000000e+00) (0, 0, 0.00000000000000000000e+00) (0, 0, 0.00000000000000000000e+00) (28, 4, 5.00000000000000000000e-01) (28, 4, 5.00000000000000000000e-01) (28, 4, 5.00000000000000000000e-01) (28, 4, 5.00000000000000000000e-01) (28, 4, 5.00000000000000000000e-01) (28, 4, 5.00000000000000000000e-01) (28, 4, 5.00000000000000000000e-01) (28, 4, 5.00000000000000000000e-01) (28, 4, 5.00000000000000000000e-01) (28, 4, 5.00000000000000000000e-01) (28, 4, 5.00000000000000000000e-01) (28, 4, 5.00000000000000000000e-01) (28, 4, 5.00000000000000000000e-01) (28, 4, 5.00000000000000000000e-01) (28, 4, 5.00000000000000000000e-01) (28, 4, 5.00000000000000000000e-01) (28, 4, 5.00000000000000000000e-01) (28, 4, 5.00000000000000000000e-01) (28, 4, 5.00000000000000000000e-01) (28, 4, 5.00000000000000000000e-01) (28, 4, 5.00000000000000000000e-01) (28, 4, 5.00000000000000000000e-01) (28, 4, 5.00000000000000000000e-01) (28, 4, 5.00000000000000000000e-01) (28, 4, 5.00000000000000000000e-01) (28, 4, 5.00000000000000000000e-01) (28, 4, 5.00000000000000000000e-01) (0, 0, 0.00000000000000000000e+00) (28, 14, 5.00000000000000000000e-01) (28, 14, 5.00000000000000000000e-01) (0, 14, 0.00000000000000000000e+00) 
connections (connected_to_neuron, weight)=(0, 3.92812168026517791186e-02) (1, -1.69245054640223019371e-01) (2, -2.17646492664225199576e-02) (3, 3.71834337494173661209e-01) (4, 4.30595449766751486864e-02) (5, -2.84771827721245318621e-01) (6, -1.50758934429885721462e-01) (7, 3.83515038753025061524e-02) (8, -1.11668056508807247984e-01) (9, 3.13822703607351122246e-02) (10, 4.16979878923693259019e-01) (11, -2.01806833877254156173e-02) (12, -6.55010948963430594816e-01) (13, -9.08235485195956100679e-03) (14, 3.62415769092140738206e-01) (15, -6.37847965610847250639e-02) (16, -5.30431242862267504634e-01) (17, -1.88282924392249972900e-01) (18, -6.66523297081990789836e-02) (19, -1.92782363216460084221e-01) (20, -1.42012049017113894944e-01) (21, 2.89334350220261216080e-01) (22, 1.40571781014358965223e-01) (23, -2.30718286010467704683e-01) (24, -2.03172144432085283183e-01) (25, 5.87145602118144885329e-02) (26, -1.92060701930026056505e-02) (27, -1.04616273717779972863e+00) (0, 3.11429990583743654398e-01) (1, 2.80963258129231041593e+00) (2, -2.36742781536340407555e+00) (3, -1.05323190961629387097e+00) (4, 5.48959578897813216258e-01) (5, 1.70400309440983455112e+00) (6, -1.34287543997105474070e+00) (7, -1.98184676103433465855e+00) (8, 1.60718384133058522778e+00) (9, -2.95188799142673019560e+00) (10, -2.05748871842875402649e+00) (11, 7.54283969972525003556e-01) (12, 5.51544679651122571329e+00) (13, -1.67813018932232416169e+00) (14, -1.79307103164799630513e+00) (15, 4.84444038774798135805e-01) (16, 1.71862662658433107410e+00) (17, -1.74461108978139023407e+00) (18, 4.78493121258720566225e-01) (19, 2.98779539447895547966e+00) (20, -2.94152659176248798545e+00) (21, -1.72988985343563617114e+00) (22, 7.26007894979202705876e-01) (23, 1.60734981513353702987e+00) (24, -1.31174470886525029734e+00) (25, -1.95699195649400969899e+00) (26, 2.09283494033104755516e+00) (27, -3.41587534518930480143e-01) (0, -2.16494563540724799244e-01) (1, 4.08248275274579811023e-02) (2, 4.52812371071014185819e-01) (3, -3.94386656644783673009e-01) (4, -1.92721754560662789091e-01) (5, 2.29555646614614278223e-01) (6, 6.22054724692858385104e-01) (7, 1.10028784548555788603e-01) (8, -1.67661267396087859671e-01) (9, 4.60051255668106284791e-01) (10, -4.85574432335498629154e-01) (11, 7.50940295396168022712e-02) (12, 3.37084124430689968666e-01) (13, 1.56642640861377524519e-01) (14, -2.81862379790264094837e+00) (15, 8.74358302109588952922e-02) (16, 6.82386500689510122619e-01) (17, 1.72367660895414487321e+00) (18, -9.64885629498819091809e-02) (19, 3.33140143503849628370e-01) (20, 6.39239044992026217429e-01) (21, -3.98052252891502922338e-01) (22, -1.23650528738690840269e-01) (23, 2.65572114772707978947e-01) (24, 5.98325281909923956114e-01) (25, 4.03168292559026100741e-02) (26, -7.41350208634447144229e-02) (27, -2.24993899189546681106e-01) (0, 2.37839183979469993846e-02) (1, -2.60375542261053638526e-01) (2, -2.58160757940838064828e-02) (3, 4.28827995752118995565e-01) (4, -8.45965249805494812207e-02) (5, -1.50725088852674660167e-01) (6, -1.60114490175770562974e-01) (7, -1.11486155890307709476e-02) (8, 7.36164985719398867747e-02) (9, -5.82120707775085274860e-02) (10, 5.03005290721677655874e-01) (11, -9.23110175002142402390e-02) (12, -1.10350166360831458690e+00) (13, -1.07365638264416057845e-01) (14, 8.00259559941418729956e-01) (15, 3.02025472834292416091e-03) (16, -3.67743578096005607758e-01) (17, -1.72316504380119694950e-01) (18, 6.28990437838508331669e-02) (19, -3.79173560361445449729e-01) (20, -1.14761643401963542299e-01) (21, 3.84454401527665967642e-01) (22, 1.00219899370810411332e-01) (23, -3.00091400664073693072e-01) (24, -2.74577974957076198503e-01) (25, 6.77282005096882799844e-02) (26, -4.94147173217282728586e-02) (27, -7.69588913543477914914e-01) (0, -2.58985466394366543874e-02) (1, -1.59314312140160507791e-01) (2, 8.90963144298171499935e-02) (3, 4.84715769638589921708e-01) (4, -1.98978103443238005243e-02) (5, -2.79560782411094110866e-01) (6, -1.75775444039242868810e-02) (7, 1.90332039568318539535e-01) (8, 4.15879360851985555025e-02) (9, 2.18138056506704425264e-01) (10, 3.27455239941648323931e-01) (11, 2.74616494695562457506e-02) (12, -3.24438787707373943459e-01) (13, 5.37309931188181613693e-02) (14, 3.25269510132435490934e-01) (15, -6.22092579988663407775e-02) (16, -3.58654936487393938283e-01) (17, -7.87659820088610317101e-03) (18, 6.13034196583243026768e-02) (19, -3.21687515960509207158e-01) (20, 2.13087514886880546872e-01) (21, 4.83493084659151139970e-01) (22, -6.03583991611847045511e-02) (23, -4.04208402461786409088e-01) (24, -5.67792568654441123788e-02) (25, 1.31817629335154701264e-01) (26, -7.05824482058629437686e-02) (27, -3.06835350331918499389e-01) (0, -5.39227546604276408715e-01) (1, -2.20273306173411259623e-01) (2, 7.09495896047305452115e-01) (3, 6.34446924031190406801e-01) (4, -2.18828631288111530306e-01) (5, -3.08613370427275823804e-01) (6, 5.94804365663297085476e-01) (7, 5.82622225415257655179e-01) (8, -2.71217416445730552521e-01) (9, 7.01147276829829690925e-01) (10, 6.90528877916717465091e-01) (11, -2.87416891455630651997e-01) (12, -2.37304394644823918314e-01) (13, 7.29108020103215404006e-01) (14, 6.11105754255966693300e-01) (15, -3.61516099673487190103e-01) (16, -1.98823618353897751954e-01) (17, 6.19603203384305190049e-01) (18, -4.53901962788701318630e-01) (19, -1.82950189262420126468e-01) (20, 6.92147742652707287370e-01) (21, 6.08198710429982636327e-01) (22, -3.28964175338688380457e-01) (23, -2.35181983995573828938e-01) (24, 5.67333467082650311220e-01) (25, 6.26339866330029693131e-01) (26, -1.93443287597647534115e-01) (27, -1.35912099524611029722e+00) (0, -4.53934727108924240824e-01) (1, -1.26141430480760846633e-01) (2, 1.71306767387664239666e-02) (3, 1.36732433677422648977e+00) (4, 1.53548674177106214689e-01) (5, -3.20499705440152118929e-02) (6, -1.09470592635035141038e-01) (7, 7.90401756876545902308e-02) (8, -7.55524771532074868041e-01) (9, -3.27111298024972546594e-02) (10, 4.54814752914193376476e-01) (11, -8.47960871471297727986e-02) (12, -4.15713619756861829657e-01) (13, 2.45724258227076747252e-01) (14, 5.42440407444983918595e+00) (15, -2.52197205537871116388e-01) (16, -5.25404191685570065573e+00) (17, -8.81379734501463313334e-02) (18, -6.45290882517829955667e-01) (19, -8.17615302222513273822e-02) (20, -2.30244335852933029382e-03) (21, 3.60719991133097939162e-01) (22, -2.99136164192791570438e-02) (23, -1.39320115930618770861e-01) (24, 1.63930898837238506194e-02) (25, 4.30909962158727913306e-02) (26, -7.18853294084536575959e-01) (27, -3.99189123477048468658e+00) (0, 2.34879424351335901189e-02) (1, 6.72910750434382032292e-02) (2, 3.09916453700632199553e-01) (3, 3.81574594845444037272e-01) (4, 6.96598867065367499674e-02) (5, 1.68185791027922193486e-01) (6, 3.11738305736594223383e-01) (7, 2.81226292510786624046e-01) (8, 6.40829763288326519077e-03) (9, 3.68037910433257398068e-01) (10, 2.36129355785435285364e-01) (11, -5.77860684655947323685e-02) (12, 1.19330917194623881139e-01) (13, 2.25173399819328351468e-01) (14, 4.07020808986892579373e-01) (15, 1.43080233369058090753e-01) (16, -6.61182343815837625378e-02) (17, 3.22397204925313984880e-01) (18, 1.57003654402021436409e-01) (19, 1.36201974645395240682e-01) (20, 3.79883981849750085313e-01) (21, 4.00339988592360696007e-01) (22, 1.87858185197969984603e-01) (23, 2.16676650596041298069e-01) (24, 2.75420271802954697016e-01) (25, 2.82715461333101936159e-01) (26, 1.63890031892170925931e-02) (27, -1.56402320372240022373e+00) (0, 2.88028079058516461863e-01) (1, -2.98446645655085107673e-01) (2, -8.62590885306327992410e-02) (3, 2.88219708223955317639e-01) (4, -2.65546704617769732670e-02) (5, -1.19609660217201888011e-01) (6, -9.19168118751066270944e-02) (7, 5.78315087819568640626e-02) (8, 1.17477413935323696248e-01) (9, -8.93004803726288876042e-02) (10, 1.01486887057439884030e-01) (11, -5.18576649858642005353e-02) (12, -6.63768639404147431371e-01) (13, -1.81689077724714043161e-01) (14, 3.08898501220901955389e-01) (15, -1.44707504892136059292e-03) (16, -3.79448518444869209443e-01) (17, -2.20962729020109105438e-01) (18, 1.33912287344598618377e-01) (19, -1.85172712723791932365e-01) (20, -2.43305452382020226398e-02) (21, 2.75589945932047053478e-01) (22, -3.92252982348354276021e-03) (23, -2.17087856532954925903e-01) (24, -9.72321750116520999718e-02) (25, -1.72414235089787502841e-02) (26, 9.12580451839675593773e-02) (27, -1.12766334354625041847e+00) (0, -1.34107334546115647411e-01) (1, 2.13714232188879860175e-01) (2, 2.01508700568304055523e-01) (3, 2.12715763228481208325e-01) (4, 2.20309960090070255934e-01) (5, 2.90932981630378562077e-01) (6, 2.60410659357138418724e-01) (7, -7.18588220703054586513e-02) (8, -1.50512005358072742389e-01) (9, -1.82634834738076484717e-01) (10, -1.41676176719632507250e-01) (11, 2.69095979276117447387e-01) (12, 3.56461165179103534051e-01) (13, 2.83527995094739970749e-01) (14, 1.14426400142257467252e-01) (15, -1.22199637072668079729e-01) (16, -2.77390172395759124213e-02) (17, -1.23807791724711027670e-01) (18, -2.30521545353698648073e-01) (19, 1.77889087921399291492e-01) (20, 2.53720006950674537016e-01) (21, -2.11957414083447814868e-01) (22, -2.71246802749642856867e-01) (23, 2.00889994262153731563e-01) (24, 2.05962589235110016261e-01) (25, -1.80678707116978087832e-01) (26, -1.18845445912310332393e-01) (27, -3.94889317220424806987e-01) (0, -7.00565622976059843019e-01) (1, -6.53536867308596503001e-01) (2, 1.16720376901128952696e+00) (3, 5.24539862463727413200e-01) (4, -3.52440907666882685678e-01) (5, -2.57383660225155519452e-01) (6, 1.20570155094116771011e+00) (7, 5.57174866307844851576e-01) (8, -8.50376671857170030044e-01) (9, 1.27412653235846629052e+00) (10, 1.23159169541875068710e+00) (11, -3.71950366901948492604e-01) (12, -1.61153828101403634454e-01) (13, 1.27521016677412490914e+00) (14, 5.50947375378155856929e-01) (15, -2.35601295663613985454e-01) (16, -4.94182630494786279129e-01) (17, 1.32021117899808282381e+00) (18, -7.85239236117882266619e-01) (19, -6.34425856718543457191e-01) (20, 1.18271855974937345479e+00) (21, 5.40919688234582252129e-01) (22, -1.75618029246530277243e-01) (23, -3.30372115078013728340e-01) (24, 1.37467390013999302134e+00) (25, 6.20779354610267009029e-01) (26, -8.83441059595874711441e-01) (27, -8.18522956860414319102e-01) (0, 4.71051798007709687788e-01) (1, -3.22655733937815158985e-01) (2, -6.30471252144000127160e-01) (3, -3.51899887758692964113e-01) (4, 5.09505580548507586158e-01) (5, -8.13574953586567173325e-02) (6, -7.88576980161244001089e-01) (7, -3.43391377252454443880e-01) (8, 5.44476532776553834303e-01) (9, -9.01778346972422206740e-01) (10, -3.44949516791304811036e-01) (11, 5.77553560427959244983e-01) (12, -3.59574937051269472033e-01) (13, -4.75452758680893428078e-01) (14, -1.68634396855082940858e-01) (15, 4.53585753035070371464e-01) (16, -1.15378428354923831534e-01) (17, -1.81073352757200112251e+00) (18, 5.83199297775993219517e-01) (19, -4.29795211660158382738e-01) (20, -4.95489265252096744430e-01) (21, -2.75821947988846849498e-01) (22, 5.96526794728526765788e-01) (23, -1.39477986905287593133e-01) (24, -6.88991189642061629961e-01) (25, -2.80766840797776862093e-01) (26, 5.45803406675059998854e-01) (27, -7.25576267254250062422e+00) (0, -2.67229185630248715355e-02) (1, -3.62970275993287072591e-02) (2, 7.25379932622718048840e-01) (3, 5.81751958120148016107e-01) (4, -8.49190879173683244030e-02) (5, -1.71347546920976395723e-01) (6, 5.94795506922967343044e-01) (7, 5.49784154003911229580e-01) (8, -1.01729473488329363873e-01) (9, 7.31451585457331909801e-01) (10, 6.81086801146118414607e-01) (11, -1.58730456226585714408e-01) (12, -7.17753738623369413885e-02) (13, 7.38622525092725523699e-01) (14, 6.17996096277699247246e-01) (15, -1.74018597271346810162e-02) (16, -7.72047996622547832990e-02) (17, 7.12282794303799926539e-01) (18, -1.48948994131774231642e-01) (19, -6.36380916049942291224e-02) (20, 5.74005904380781140084e-01) (21, 5.71797273437728792445e-01) (22, -4.77070569166091404401e-02) (23, -1.95035210722612095680e-01) (24, 6.07084400555092940088e-01) (25, 6.72971843975140648908e-01) (26, -1.83594048140505256006e-01) (27, -1.35993591819047021652e+00) (0, -2.63750453868554723957e-01) (1, -3.22638509987682731150e-01) (2, 1.06784344335635578149e-01) (3, 4.34873113137700106900e-01) (4, 5.66143663179226579868e-03) (5, -3.44775419671995264626e-01) (6, -4.13828960088670552708e-02) (7, 1.18505538742318144996e-01) (8, -2.11115213157781644870e-01) (9, 1.18132876473012182750e-01) (10, 4.13621679636001826630e-01) (11, -7.38583276700808533111e-02) (12, -3.39300196607572657204e-01) (13, 2.59707871229742592867e-01) (14, 4.62418246022117784833e-01) (15, -4.19774653310861500799e-02) (16, -3.42714715563306404622e-01) (17, 2.89054546644914346631e-02) (18, -3.08317797975611096462e-01) (19, -4.23081077383995196595e-01) (20, 7.50629827441670061106e-02) (21, 4.57578184953582933758e-01) (22, -1.06633433630334895081e-01) (23, -3.91131027477940707016e-01) (24, -2.41270549835320285981e-02) (25, 2.46634402613415765204e-01) (26, -2.18850112965189386172e-01) (27, -3.48133061632550977471e-01) (0, 1.83820957156982545122e-01) (1, 2.73363003718743224901e-01) (2, -5.48924701503813103343e-02) (3, -1.00438236319768642302e-01) (4, 2.57588023738647864391e-01) (5, 1.42983349379397939316e-01) (6, -1.95867808817347215100e-02) (7, -4.13160311968099602797e-02) (8, 1.29802799001590030148e-01) (9, -1.37081094532660985319e-01) (10, 4.37520833189078330733e-04) (11, 1.34189515300632278283e-01) (12, 1.08535602592835081492e-01) (13, -4.96286845572746840305e-03) (14, -5.82969846573463696543e-03) (15, 1.04449838271873332585e-01) (16, 2.65855336015092702517e-01) (17, -7.40101577995738307836e-02) (18, 2.03147521103329647962e-01) (19, 2.12871529676499138262e-01) (20, -1.39853775606631730577e-01) (21, -1.27770233914125230790e-01) (22, 1.16829775654578985056e-01) (23, 2.71963167714557363386e-01) (24, -4.02504376158318872420e-03) (25, -9.18730070008338117749e-02) (26, 2.73117775246755345453e-01) (27, -1.27179906843050005705e+00) (0, 9.38148791121613534472e-02) (1, 2.92927921498805886313e-02) (2, -1.03419112376780275575e+00) (3, 1.09078373560289398903e+00) (4, 1.58027127253173071963e+00) (5, -2.88640047752266315495e-02) (6, -1.30203929986485289483e+00) (7, 6.13426686728190451170e-01) (8, 1.14518137485825310939e+00) (9, -2.11513138367063868728e+00) (10, 2.29469923800951525195e+00) (11, 1.81077671997717004615e+00) (12, 7.25992951036042444279e-02) (13, -2.20582393564285972332e+00) (14, 2.14565503291865661284e-01) (15, 1.73204568156531446554e+00) (16, 1.09953766523087262397e-01) (17, -2.66472744329893496129e+00) (18, 2.34788378978444817191e-01) (19, 6.21941891684916758898e-02) (20, -8.03883941982518002156e-01) (21, 5.83407736465146098404e-01) (22, 1.46742532262037506108e+00) (23, 1.50714207230293856243e-01) (24, -1.39245233000507284693e+00) (25, 5.61977695596026616265e-01) (26, 1.25845380337082657363e+00) (27, -2.42303713706076534473e-01) (0, -2.63118743364260387896e-01) (1, -3.30129515404243178978e-01) (2, 3.91361111659435434440e-01) (3, 6.20869364152662917000e-01) (4, -1.04731536498929959922e-02) (5, -3.67804417225321977902e-01) (6, 2.45209247117552903150e-01) (7, 4.42880983145980400284e-01) (8, -3.99332577405797417569e-01) (9, 2.22451331071472968581e-01) (10, 5.36365784267894829540e-01) (11, -1.08137700215576393337e-01) (12, -3.67270338509629590273e-01) (13, 3.97271222522133926613e-01) (14, 7.85943455636938903552e-01) (15, -3.19414212091744019809e-03) (16, -4.74274559955121188803e-01) (17, 1.64083034962804741319e-01) (18, -2.97768322523319917128e-01) (19, -3.21995494457312236847e-01) (20, 3.35827337462333841422e-01) (21, 5.08943309753542294516e-01) (22, -4.22477837314200327379e-02) (23, -2.46929678295205123906e-01) (24, 3.14144745712790607328e-01) (25, 4.91194372143630597627e-01) (26, -2.51336852131711474545e-01) (27, -2.09244326855136775212e-01) (0, -8.80409833440728983867e-01) (1, 2.17420274761307075195e+00) (2, 6.25339878190776632394e-01) (3, -6.70573669894142465608e-01) (4, -3.98156202484801324815e-01) (5, 6.34662802436870565614e-01) (6, 5.66795103656225096600e-01) (7, -2.64640553903334740937e-01) (8, -3.84256655916087985769e-01) (9, 8.14494515830506471410e-01) (10, -1.44005439714693284081e+00) (11, -7.73648297673266482910e-01) (12, 1.09897089391878433062e+00) (13, 4.09973506147952804213e+00) (14, -1.54844471884355616709e+00) (15, -3.16093423233759551749e+00) (16, 7.71656938830782790362e-01) (17, 6.73608922120689124213e-01) (18, -7.03960241052605684153e-01) (19, 9.84341320505253358775e-01) (20, 8.10639605611313984745e-01) (21, -1.22384478476474556352e+00) (22, -8.23238255416130604303e-01) (23, 8.69168144148433241547e-01) (24, 6.04444461141519284730e-01) (25, -3.23896736521325612213e-01) (26, -3.35789768248142828089e-01) (27, -8.79589191758768706997e-01) (0, -3.19888818864530521946e-01) (1, -2.44599522083539383521e-01) (2, 1.13714933567074716336e+00) (3, 1.17161744205610141023e+00) (4, -3.59991180368645635745e-01) (5, -3.29128358657208297533e-01) (6, 1.14699536539766810961e+00) (7, 1.31809202692909788190e+00) (8, -4.76805863108042959908e-01) (9, 3.40997151293775335734e-01) (10, 1.25208621594286961809e+00) (11, -5.07857729220171916218e-01) (12, -3.36798174151881457572e-01) (13, 3.05843225465230750260e+00) (14, 3.33715377982160088521e+00) (15, -4.59683510356079905179e-01) (16, -4.27767722348441126190e-01) (17, 6.36251507853582420893e-01) (18, -6.75041934854338054883e-01) (19, -1.37927897362973422846e-01) (20, 1.21955999963547645493e+00) (21, 1.32728802530424006001e+00) (22, -3.42854459087061191891e-01) (23, -3.60710643751773640808e-01) (24, 1.20097086424409948968e+00) (25, 1.14062344138589710774e+00) (26, -1.04299519089221059964e+00) (27, -1.22303206297555577819e+00) (0, 2.46440824931650620533e-02) (1, 5.09607124776872005834e-02) (2, 5.25492444143295212022e-01) (3, 1.85541589466540113307e+00) (4, 4.66664991568112863529e-02) (5, -3.53812323104152207445e-03) (6, 5.38165800242606073844e-01) (7, 6.70598004319251539407e-01) (8, 2.81301354706134064398e-02) (9, 5.52681294095242248154e-01) (10, 1.01738264303413061818e+00) (11, 1.20640317961969473215e-01) (12, -3.30614222163978788149e-01) (13, 5.31408394282423146571e-01) (14, 5.54897293396898039219e+00) (15, -2.73626229731486966812e-02) (16, -3.04163633966011515142e+00) (17, 5.32688741236337581775e-01) (18, 4.35784510875202209246e-03) (19, 2.08382099982579276076e-02) (20, 6.12522487667492510077e-01) (21, 1.58653962089657429857e+00) (22, 2.61417349279908818593e-02) (23, -2.02893161271633815090e-01) (24, 5.22332671998921083123e-01) (25, 6.76334528588100947211e-01) (26, -2.74714380935843216491e-02) (27, -1.44702430936405201933e+00) (0, 2.04013633183474513144e-01) (1, 2.47001240218116563385e-01) (2, -4.25706226752018634940e-01) (3, -4.77635624982478412814e-01) (4, 5.75729445345520174371e-01) (5, 7.09104729434789526898e-01) (6, -4.49252993344626372352e-01) (7, -4.41961764178557259264e-01) (8, 2.37518884038200095432e-01) (9, -8.09453006171206634889e-01) (10, -4.54001671798589023776e-01) (11, 8.00310377942899386916e-01) (12, 6.10855205958031444169e-01) (13, -4.97898445911305498335e-01) (14, -4.19668017774195600822e-01) (15, 6.68323003178541208413e-01) (16, 6.35121038370071833157e-01) (17, -8.93020544623586487454e-01) (18, 2.71187791552480517154e-01) (19, 3.53643509191390037483e-01) (20, -3.98683913457239968992e-01) (21, -4.28320589616387137344e-01) (22, 6.39690362639545373469e-01) (23, 6.24792975923360693891e-01) (24, -3.63394899631716672417e-01) (25, -3.93580823025984627428e-01) (26, 2.81233208375439192039e-01) (27, -8.66141276326655384921e-01) (0, 5.13217698784561471292e-01) (1, 4.98621111868645994214e-01) (2, -2.46890489556394365778e-01) (3, -2.60452257578994594844e-01) (4, 9.07539555803408726220e-01) (5, 8.29357519742375925986e-01) (6, -4.00294248559079912653e-01) (7, -2.43695308108188846141e-01) (8, 7.87152263839773325138e-01) (9, -8.24550413562354367336e-01) (10, -3.36862315767337661132e-01) (11, 8.44323301041621232521e-01) (12, 8.30983277278796617082e-01) (13, -2.55611379110004255377e-01) (14, -3.87416250758989166858e-01) (15, 8.59562160463550051226e-01) (16, 7.59319437363511595684e-01) (17, -7.77509058336494640606e-01) (18, 5.04042266591377408069e-01) (19, 4.68310826517330858199e-01) (20, -3.60129026348533609614e-01) (21, -2.13839334082939341863e-01) (22, 7.90784763691535053098e-01) (23, 9.45095650567271627907e-01) (24, -2.95545896797892448937e-01) (25, -2.97434783005382341603e-01) (26, 8.20350117554001001530e-01) (27, -2.26151696992385087270e+00) (0, -1.66532602478589963901e+00) (1, -9.02047800523726045485e-02) (2, 1.00724047045799691702e+00) (3, 1.83872843530044538518e+00) (4, -9.45846589231091994243e-01) (5, -6.90499548853216182920e-01) (6, 1.03429332866998668905e+00) (7, 8.97403310950172228289e-01) (8, -1.06274239067813081050e+00) (9, 1.03789635494085308309e+00) (10, 1.22494790639990513981e+00) (11, -1.45355889197409160474e+00) (12, -6.51133227437273198746e-01) (13, 1.12231317845187583693e+00) (14, 8.51270462745688516470e-01) (15, -1.40642549845591235957e+00) (16, -9.56136531885824703103e-01) (17, 1.15563768773140385093e+00) (18, -8.35965385598862242844e-01) (19, -2.30139806819187053843e-01) (20, 9.31834831793035167635e-01) (21, 1.23589517462567410888e+00) (22, -1.15057268454754391129e+00) (23, -7.25634523881230841802e-01) (24, 1.03165926530691143270e+00) (25, 1.01120789986457482179e+00) (26, -1.13395607842363688178e+00) (27, -3.66432530167276560018e-01) (0, 5.06501800633654353234e-01) (1, 7.85200393658516015982e-01) (2, -3.23720064273913810116e-01) (3, -3.90976212866127825762e-01) (4, 1.11573285843146963181e+00) (5, 7.27010828917266649363e-01) (6, -3.37080323273578619236e-01) (7, -3.00098614123313067736e-01) (8, 6.48539617548472446806e-01) (9, -7.59372126696906568633e-01) (10, -4.77062623903149241045e-01) (11, 1.25557760401817386509e+00) (12, 4.98432771462502710591e+00) (13, -4.72870737943599128705e-01) (14, -1.25430131634181507572e+00) (15, 1.08755480668037973757e+00) (16, 1.03686601806230771494e+00) (17, -6.04414581696254948895e-01) (18, 6.56139173252875407272e-01) (19, 7.28528039299067731172e-01) (20, -3.82472477493431328721e-01) (21, -4.98441384343621896047e-01) (22, 1.11275968281916992630e+00) (23, 8.69291262836989209184e-01) (24, -2.92847864525380086054e-01) (25, -4.78870645947557238564e-01) (26, 5.25326362068034735664e-01) (27, -6.93528355517937344921e-01) (0, 6.43444851894754532573e-01) (1, 5.69980592292059995430e-01) (2, 2.02703461360404409153e-02) (3, 6.99208602270726897743e-01) (4, 6.36312582897412104543e-01) (5, 5.46292891687289117186e-01) (6, 6.20527908074189893384e-02) (7, -3.69528701707072748661e-01) (8, 5.34874751266418480000e-01) (9, -7.27205946743012254796e-02) (10, 4.49878225570464029826e-01) (11, 1.85916151506789883996e+00) (12, 5.85562158082887695976e-01) (13, -2.65139775502462438084e+00) (14, 3.81599597061232712059e-02) (15, 3.11445961996125708637e+00) (16, 5.56613436081069057337e-01) (17, -1.81376180978095269403e-01) (18, -3.55459126037802164433e-01) (19, 3.48379436685467780421e-01) (20, -6.08754445353733714130e-02) (21, 1.03866911575109366339e+00) (22, 5.95667976112931985000e-01) (23, 4.49451448646225659722e-01) (24, -4.69664267529683376878e-01) (25, 4.01260951926621922681e-02) (26, 5.02954298415381528820e-01) (27, -8.32793195923642870504e-01) (0, 1.22663615574339926462e-01) (1, 2.64122658307115766585e-02) (2, 4.21077968996611956554e-02) (3, -3.06598335633892771224e-01) (4, -3.81416985120362553308e-02) (5, 6.98318979807131950954e-02) (6, 6.67790777839144672479e-02) (7, 2.30568890898219525099e-02) (8, -2.21793556643678710372e-02) (9, -2.78864829368046851510e-01) (10, -3.24471551081308207110e-01) (11, 6.01595745801592057811e-02) (12, 1.48866606341348378661e-01) (13, 1.17595999776694531275e-02) (14, -2.90874315179544262744e-01) (15, 1.53667531058939071942e-01) (16, 1.33540349159197740958e-01) (17, -3.75314418040468167348e-01) (18, 5.51989564925490852620e-02) (19, -7.69405679484071874930e-03) (20, -9.10954252834993427612e-02) (21, -2.99924985674519306578e-01) (22, 1.36262579885523982259e-01) (23, 1.44204271502041181385e-01) (24, 8.51363959552293575461e-02) (25, -5.80407161580456867900e-02) (26, 1.07110014127538982764e-02) (27, -8.70585718868803981607e-01) (0, 5.59563885590073750720e-01) (1, 4.71581186433919552492e-01) (2, -1.76936750413881044297e-01) (3, -9.91829301134927315831e-02) (4, 5.43392994729528844289e-01) (5, 4.07463459137852368475e-01) (6, -1.52983253686976072849e-01) (7, -8.32709523455033295836e-02) (8, 5.18873557258324846764e-01) (9, -6.13667101430338868262e-01) (10, -1.77224714578805703225e-01) (11, 5.60610706044657347569e-01) (12, 5.79602209811384661009e-01) (13, -2.53423750415598114660e-01) (14, -6.45831355013937874476e-02) (15, 5.69473526009114716651e-01) (16, 5.27182557585366917685e-01) (17, -5.32532785423208809839e-01) (18, 5.03486422794339416598e-01) (19, 5.05258871748956006620e-01) (20, -2.59011450712751667425e-01) (21, -2.28795856252466872638e-01) (22, 5.44389316169271886281e-01) (23, 3.94292909514245781821e-01) (24, -7.44903142081018154741e-02) (25, -1.12633008717905616636e-01) (26, 3.80189973376550360840e-01) (27, -2.24750286629453066567e+00) (28, 1.22822101302274694357e-01) (29, -2.99073793426182843458e-01) (30, -3.72987038025966999299e-02) (31, 1.23114877802845565369e-01) (32, 1.00571556254985511325e-01) (33, 4.75655707056185789172e-02) (34, 2.93817068939491055080e-01) (35, 5.55298357771065800859e-02) (36, 9.06801368870249063781e-02) (37, -4.56526515307166397273e-02) (38, 3.59250043044885281063e-02) (39, -7.46166486258735411896e-02) (40, 3.77377881575004792136e-02) (41, 1.26009169451571201304e-01) (42, -1.30408209330205096532e-02) (43, 1.84889939212751902575e-01) (44, 1.29251220659830384774e-01) (45, -3.07463240691473238542e-01) (46, 2.88817195859278202930e-02) (47, 7.15636572948830373964e-02) (48, -5.41369625450522917731e-02) (49, -1.78289217359012347464e-01) (50, 4.03409753442128260481e-02) (51, -1.69190509731040994446e-01) (52, -2.24579846047524567254e-02) (53, -4.87659435554127149159e-02) (54, -3.09710232214573978615e-02) (55, -3.17117522042096172674e-02) (28, 8.62269321092789392535e-02) (29, 4.46162054348931483294e-02) (30, -7.68803262550647042994e-02) (31, 6.32451259261067322281e-02) (32, 2.73723835872205119302e-02) (33, -7.05498101841546404467e-02) (34, -8.71174572341116074115e-04) (35, -1.20872767435366307992e-02) (36, 6.73007501931222745784e-02) (37, -6.10065979730898960698e-02) (38, -1.08684094501648079167e-01) (39, -6.45200514267414337866e+00) (40, -6.10098745290375277239e-02) (41, 1.00946266765135767018e-02) (42, 8.84595861825649976140e-02) (43, 2.31893300407530172924e-01) (44, -1.09977544105524602941e-02) (45, -2.50402195017176920633e-01) (46, -5.45187531961537005798e-02) (47, -3.40929256629832824754e-02) (48, 1.43642784990759553310e-01) (49, 1.59917392030797383962e-01) (50, -1.86706755511524352675e-01) (51, 3.86113380608709630404e-02) (52, 1.77037133584199285474e-01) (53, 8.63740265309728694199e-02) (54, 5.45851393489545921867e-02) (55, -7.34154501880346643805e-02) 
