FANN_FLO_2.1
num_layers=3
learning_rate=0.250000
connection_rate=1.000000
network_type=0
learning_momentum=0.000000
training_algorithm=2
train_error_function=1
train_stop_function=0
cascade_output_change_fraction=0.010000
quickprop_decay=-0.000100
quickprop_mu=1.750000
rprop_increase_factor=1.200000
rprop_decrease_factor=0.500000
rprop_delta_min=0.000000
rprop_delta_max=50.000000
rprop_delta_zero=0.100000
cascade_output_stagnation_epochs=12
cascade_candidate_change_fraction=0.010000
cascade_candidate_stagnation_epochs=12
cascade_max_out_epochs=150
cascade_max_cand_epochs=150
cascade_num_candidate_groups=2
bit_fail_limit=3.49999999999999977796e-01
cascade_candidate_limit=1.00000000000000000000e+03
cascade_weight_multiplier=4.00000000000000022204e-01
cascade_activation_functions_count=10
cascade_activation_functions=3 5 7 8 10 11 14 15 16 17 
cascade_activation_steepnesses_count=4
cascade_activation_steepnesses=2.50000000000000000000e-01 5.00000000000000000000e-01 7.50000000000000000000e-01 1.00000000000000000000e+00 
layer_sizes=17 33 3 
scale_included=0
neurons (num_inputs, activation_function, activation_steepness)=(0, 0, 0.00000000000000000000e+00) (0, 0, 0.00000000000000000000e+00) (0, 0, 0.00000000000000000000e+00) (0, 0, 0.00000000000000000000e+00) (0, 0, 0.00000000000000000000e+00) (0, 0, 0.00000000000000000000e+00) (0, 0, 0.00000000000000000000e+00) (0, 0, 0.00000000000000000000e+00) (0, 0, 0.00000000000000000000e+00) (0, 0, 0.00000000000000000000e+00) (0, 0, 0.00000000000000000000e+00) (0, 0, 0.00000000000000000000e+00) (0, 0, 0.00000000000000000000e+00) (0, 0, 0.00000000000000000000e+00) (0, 0, 0.00000000000000000000e+00) (0, 0, 0.00000000000000000000e+00) (0, 0, 0.00000000000000000000e+00) (17, 13, 5.00000000000000000000e-01) (17, 13, 5.00000000000000000000e-01) (17, 13, 5.00000000000000000000e-01) (17, 13, 5.00000000000000000000e-01) (17, 13, 5.00000000000000000000e-01) (17, 13, 5.00000000000000000000e-01) (17, 13, 5.00000000000000000000e-01) (17, 13, 5.00000000000000000000e-01) (17, 13, 5.00000000000000000000e-01) (17, 13, 5.00000000000000000000e-01) (17, 13, 5.00000000000000000000e-01) (17, 13, 5.00000000000000000000e-01) (17, 13, 5.00000000000000000000e-01) (17, 13, 5.00000000000000000000e-01) (17, 13, 5.00000000000000000000e-01) (17, 13, 5.00000000000000000000e-01) (17, 13, 5.00000000000000000000e-01) (17, 13, 5.00000000000000000000e-01) (17, 13, 5.00000000000000000000e-01) (17, 13, 5.00000000000000000000e-01) (17, 13, 5.00000000000000000000e-01) (17, 13, 5.00000000000000000000e-01) (17, 13, 5.00000000000000000000e-01) (17, 13, 5.00000000000000000000e-01) (17, 13, 5.00000000000000000000e-01) (17, 13, 5.00000000000000000000e-01) (17, 13, 5.00000000000000000000e-01) (17, 13, 5.00000000000000000000e-01) (17, 13, 5.00000000000000000000e-01) (17, 13, 5.00000000000000000000e-01) (17, 13, 5.00000000000000000000e-01) (17, 13, 5.00000000000000000000e-01) (0, 13, 0.00000000000000000000e+00) (33, 13, 5.00000000000000000000e-01) (33, 13, 5.00000000000000000000e-01) (0, 13, 0.00000000000000000000e+00) 
connections (connected_to_neuron, weight)=(0, 9.76883885438915244848e-01) (1, 4.16450497485520432228e-01) (2, 7.20168182085958341609e-01) (3, 3.84423454248805640532e-01) (4, 7.58454716643953030797e-01) (5, 1.29521281097321749876e-01) (6, 7.68160977791753629695e-01) (7, 4.30292111361392171087e-01) (8, 4.04134161288833781978e-01) (9, -1.68435391954412094773e-02) (10, 2.33764909977534240948e-01) (11, 1.00173755227104963050e-01) (12, 4.79975802828238984343e-01) (13, 3.96780926422052371283e-01) (14, 5.38800302716841095219e-01) (15, 6.24049987186051424715e-01) (16, 1.10090892399884801578e-01) (0, 1.64631150066708809021e-01) (1, -2.15371570328503625369e-02) (2, 1.03486804073124757930e-01) (3, 3.50850269493458155612e-01) (4, -7.04048967311087930954e-02) (5, -1.04324756148825026347e-02) (6, -6.06636649319831217086e-02) (7, 1.26088472960767722375e-01) (8, 1.98556017966565884203e-01) (9, 1.16032468283330622572e-01) (10, 3.53145436166773907249e-01) (11, 3.80990365687584819909e-01) (12, 2.99090449958960613586e-01) (13, -7.69326987931433614598e-01) (14, 2.14874961410354975433e-01) (15, 3.81385390288406289638e-01) (16, 6.76373383167920561032e-02) (0, 4.53548902573382914372e-02) (1, -2.78218459556441588543e-01) (2, 5.76202006655502918520e-02) (3, 1.00375612360849109095e+00) (4, 1.85770221064004315004e-01) (5, -4.36642535937593265216e-02) (6, 1.68526846321182366406e-01) (7, -2.35673941503797661212e-02) (8, 5.71379059474584782841e-01) (9, 6.64144134042788047978e-01) (10, 3.73565798006292915101e-01) (11, 4.58024279882252416396e-01) (12, 8.52818274710217316681e-01) (13, 1.93396089260273990051e-01) (14, 6.63275513548418516052e-01) (15, 1.70235955755361656472e-01) (16, -2.80403987628632500595e-01) (0, 1.35305864249066432059e-01) (1, 7.81604619423498410413e-03) (2, -2.96074026744174920167e-02) (3, 9.87142709255157402293e-02) (4, -1.35908001582431704063e-02) (5, 3.53439608395674578767e-02) (6, 3.31617942531300044506e-02) (7, -4.24378100337718922562e-04) (8, 4.87253862736373000164e-01) (9, 1.74641741621974599941e-01) (10, 1.61800116328115806130e-01) (11, 1.43100219483219909256e-01) (12, 1.49041662598751512014e-01) (13, 1.36967736642759158050e-01) (14, -1.75114609510798213687e-01) (15, 2.18513997144415966778e-01) (16, 1.30570786657751292115e-01) (0, 1.78616879821693913533e-01) (1, 2.87693047542457946975e-01) (2, -7.39553548776085839522e-02) (3, -1.90133898038073734238e-01) (4, 1.85536391652647812689e-02) (5, 1.94166497173514474017e-01) (6, -7.03750230752404198897e-02) (7, 1.63089848334148107556e-01) (8, -1.13807875976811495589e-01) (9, 3.06388660113317886496e-03) (10, -2.17546168290937980139e-01) (11, 7.23113193142216337250e-02) (12, -1.66114766756437548523e-01) (13, -1.34314674219545487910e-01) (14, -2.99180576702388512089e-01) (15, 2.57470867350635887472e-02) (16, 5.28450502235109365046e-01) (0, -1.20457950730708931997e-01) (1, -8.51184707554058173073e-01) (2, -4.61992880721342411010e-02) (3, 1.66427808922262852886e-02) (4, -7.57289937157881176688e-02) (5, -1.81633994465149106734e-01) (6, -8.99037531037580883719e-02) (7, -2.28746125139027034479e-01) (8, 2.86602958249249951950e-02) (9, 2.52585459002376111481e-01) (10, -1.32154777734045769666e-01) (11, 1.05170036055268339981e-01) (12, -4.39211147212131419737e-02) (13, -2.09740069615539509451e-01) (14, -1.44186637550362789506e-01) (15, -2.94534678119072815261e-02) (16, 2.26101402398717427067e-01) (0, -2.16277431023427668677e-01) (1, -2.71036795024416410360e-01) (2, -1.06946047617378046934e-02) (3, 2.24698581781442419114e-01) (4, 1.22462611250740094349e-01) (5, -1.56948046584679479221e-01) (6, 3.41052073763428026387e-02) (7, -1.37314093257739244791e-01) (8, 1.66754192101684989291e-01) (9, 2.15236386387666178699e-01) (10, 1.84247910761565936166e-01) (11, -6.59586835345710581491e-02) (12, -8.40334629748671346761e-02) (13, -3.76683053914418086716e-01) (14, -3.23689570872221638043e-02) (15, -2.12287580987325169568e-01) (16, 7.23724665061422633983e-02) (0, 2.40768078094854898197e-01) (1, 1.72227327908112209931e-01) (2, 1.37025813145717767494e-01) (3, 8.03402412805659160711e-01) (4, 7.11803981495705562210e-02) (5, 1.70387103755842900243e-01) (6, 6.18392550779191044197e-02) (7, 1.40377049715083718207e-01) (8, 1.50272004204821341133e-01) (9, -4.14705054323353361490e-01) (10, 4.17434756370611392828e-01) (11, -7.62435356940303288198e-01) (12, 2.14824749109475576780e-01) (13, -4.16931649717704688740e-01) (14, 2.05793691845138848606e-01) (15, -1.90655411685379361231e-01) (16, 4.58134769656170282026e-01) (0, 5.60371592631883963520e-01) (1, 1.30739180399906662622e+00) (2, 8.18789692068058322372e-02) (3, 1.50574527754597453644e-01) (4, 2.53805191948409725189e-01) (5, 6.63570035638314292825e-01) (6, 1.52480000391002346039e-01) (7, 5.83390623720389189799e-01) (8, 4.71969444646887559269e-01) (9, 3.63656548324116313253e-01) (10, 4.96138490112778829388e-01) (11, 7.33173259104136360031e-02) (12, 3.85755903400209043674e-01) (13, 4.34875193160704553996e-01) (14, 4.68400654513473180263e-01) (15, 2.48820255941626905516e-01) (16, -2.17124054619366679830e-01) (0, 2.43537723964604491123e-01) (1, 4.99336180452445266287e-01) (2, -1.52301366487240324998e-01) (3, -5.75776096003848686378e-02) (4, -2.40425153829870064115e-01) (5, 5.05252863517781980462e-01) (6, -1.51743493237314064359e-01) (7, 6.15321362929987403234e-01) (8, -3.07167790453518330107e-01) (9, -1.88600650915482975778e-01) (10, 3.10048388188383268471e-02) (11, 1.41280713350756103458e-02) (12, -6.43192083730486502402e-02) (13, 1.07720426103190020095e-01) (14, -7.44499439383492916944e-02) (15, 3.06310643870438104042e-01) (16, -9.95467372191271293591e-02) (0, -1.16398983733318667211e-01) (1, -2.81751251463434770894e-01) (2, 1.73321809397754995896e-02) (3, -3.64206277550759460748e-01) (4, 1.15378137283187895412e-01) (5, 1.32728319364246977186e-01) (6, -2.11085643841209223692e-02) (7, -1.99190092231585624827e-01) (8, 9.08702298876918890258e-02) (9, -1.92374729989201243008e-01) (10, 3.69785421070565945012e-01) (11, -2.33248214431710759742e-01) (12, -6.00977887265426516383e-02) (13, -2.76834921982472004220e-01) (14, 8.74988111361169884628e-02) (15, -4.25556194338157445234e-01) (16, 1.37117172093270012212e-01) (0, 3.52789409405144860354e-01) (1, 5.25394331880074116903e-01) (2, -2.29759580311910793782e-01) (3, -2.75918068265355621860e-02) (4, -1.65403961060182735920e-01) (5, 5.01005117855716997077e-01) (6, -1.34497395572797939778e-01) (7, 5.27147745655227817352e-01) (8, -2.56173085105690090391e-01) (9, -2.07135771839052851284e-01) (10, -2.85709819084673688483e-01) (11, -2.29222889252610778632e-01) (12, 6.53354981735103888807e-03) (13, 2.77256481109207142399e-01) (14, 4.21784064038905129324e-02) (15, 3.20793318096941948436e-01) (16, 9.50941491435742802807e-02) (0, 1.44203379635476608422e-01) (1, 2.68122200463738247223e-01) (2, 6.09595551297745855135e-02) (3, -3.83686538350933636909e-01) (4, -5.03339287140295646439e-02) (5, 2.72064874662016453755e-01) (6, 4.01719733283601096452e-02) (7, 2.64574780333960757339e-01) (8, -4.87695451238260926918e-02) (9, -6.58648392682900651884e-02) (10, -1.43901558962067355196e-01) (11, -9.03722466475140179254e-02) (12, -4.43460585270019247428e-01) (13, -1.22956487616952978015e-01) (14, -3.99441382925022236972e-01) (15, 4.45941797211704751835e-02) (16, 4.49025841609819592604e-02) (0, -1.96489377981275137319e-01) (1, 3.29687183664091696539e-03) (2, -1.09583629834451606877e-01) (3, 6.37436420841565043460e-02) (4, -1.99286243486203995534e-01) (5, 2.13963088507614848655e-02) (6, -1.52911289202966538259e-01) (7, 1.47651865356358269477e-01) (8, -8.88939550640904241341e-02) (9, -3.77125631447483133235e-03) (10, -3.55578679663211605355e-01) (11, 1.84069539380610852630e-01) (12, -2.21369830474502822526e-02) (13, 2.12565160201056535527e-01) (14, 6.00726062348531930635e-02) (15, 3.21699293889540882674e-01) (16, 1.55880279399286836295e-01) (0, 4.78983564104180026266e-01) (1, 3.76403022773723894279e-01) (2, -1.20819142875806931348e-01) (3, 2.26956033196504369798e-01) (4, -2.72394060013429806233e-01) (5, 5.92553726413616255186e-01) (6, -1.67897282955782101155e-01) (7, 4.76659780309844738344e-01) (8, 2.69862076627937819140e-01) (9, 3.97922765810532319541e-01) (10, -1.76020128912001416754e-01) (11, 2.47823591194443776375e-01) (12, 1.89721487643878083951e-01) (13, 1.31542555721284759596e-01) (14, 3.09634861520109494482e-01) (15, 2.94668986883887484840e-01) (16, -5.96251343589303761661e-01) (0, -1.84602401083730624162e-03) (1, -4.17155775268877593298e-02) (2, -1.45527676878360653218e-02) (3, 5.55648678965428022281e-02) (4, 4.99578109514991486328e-02) (5, 1.07990000733545851719e-01) (6, -4.99767915544895094393e-02) (7, 1.06764486203790615049e-01) (8, 4.79895243640569568733e-01) (9, 3.26419604293167686659e-01) (10, 3.18170715872985732098e-01) (11, 1.34804932592657356061e-01) (12, -6.63826697356518641291e-02) (13, 7.25322533024958526759e-01) (14, -7.17449413846918820914e-02) (15, 1.13051952536731725729e-01) (16, 1.43615132781685111985e-01) (0, -4.51542241818927297947e-02) (1, -4.35419587419252185345e-01) (2, -3.03215974059628523563e-01) (3, 3.29791490525181751892e-01) (4, -2.04865374651478832080e-01) (5, -3.05428457687213605887e-01) (6, -2.46361748364495258823e-01) (7, -7.96231243330451227136e-02) (8, -7.00559586407952794573e-02) (9, 7.94187061147367534542e-02) (10, 1.45682138962599433407e-01) (11, -2.07063347781338696896e-01) (12, -2.66695284727565651295e-01) (13, -1.83241594913124333788e-01) (14, 7.45561014163939189681e-02) (15, -2.14920702260718216037e-01) (16, 1.41438043397033252901e-01) (0, 1.09916938868660696293e+00) (1, 1.68929363736761750658e+00) (2, 2.51087699079171784711e-02) (3, -3.44343983069274467423e-02) (4, 1.36118904128040424384e-01) (5, 5.35135101764349085940e-01) (6, 1.48824566698512267271e-01) (7, 5.87698609162369711711e-01) (8, 2.36048317314240613252e-01) (9, 4.73219598856951917387e-01) (10, -9.06980158302831407369e-02) (11, 4.97259693488222853652e-01) (12, 2.90644172057394845066e-01) (13, 7.27611119122552718608e-01) (14, 2.37887179631646322742e-01) (15, 5.38981024763100391439e-01) (16, -1.81810578583691262455e-01) (0, 1.80619397178510121549e+00) (1, 7.25148387979392072822e-01) (2, 1.37913206353183437347e-01) (3, 1.89922741718130672073e-01) (4, 5.62929378294903179358e-02) (5, 1.17191515857553207880e+00) (6, 2.55216018989082027435e-01) (7, 1.09511071621588640390e+00) (8, 4.91225634112410325383e-01) (9, 2.90494305553921305929e-01) (10, 4.99666336817848055762e-01) (11, 4.76169541979674232346e-02) (12, 2.95989162631530633440e-01) (13, 3.47109516399426776267e-01) (14, 3.31399505157107976405e-01) (15, 2.52297054476020132796e-01) (16, -1.68950059253269030402e-01) (0, -5.73384535893717208616e-03) (1, 4.22426145740013414542e-01) (2, 1.63523864837405136230e-01) (3, 1.86438409047182618306e-01) (4, 2.67153133543249987625e-01) (5, 4.89543720164665630001e-01) (6, 1.74938236268279007080e-01) (7, 5.61534045205761112030e-01) (8, 7.34980203008824828359e-02) (9, 3.04974269468826997276e-01) (10, -8.59770399983118271958e-02) (11, 3.81812156130076796323e-01) (12, 4.56295858832148737427e-01) (13, 8.51168990782376955195e-01) (14, 3.13716919221800005779e-01) (15, 6.95655320949775335393e-01) (16, 5.14485613143078168719e-01) (0, -5.25157760906066473083e-01) (1, -6.90025314121533339673e-01) (2, 8.59911317248456402718e-02) (3, 1.91774061210286450585e-01) (4, 1.53853314580451677740e-01) (5, -6.84550159289557536013e-01) (6, -1.76426222305186043704e-02) (7, -6.49064824788856964410e-01) (8, 2.08695227121022286454e-01) (9, 3.40187155248492967274e-01) (10, 3.32182507588593467496e-01) (11, 5.29364001312767409879e-02) (12, -6.81914718191046608647e-03) (13, 2.20217959827586851063e-01) (14, -6.21919030902379141312e-02) (15, 6.28962079703605531772e-03) (16, 6.80509363047441667716e-02) (0, 3.65495862097574397698e-01) (1, 1.24264299426207602828e+00) (2, 1.91014299453165392606e-01) (3, 2.06613872121186842312e-01) (4, 6.44561856099627183969e-02) (5, 5.53642333517351703520e-01) (6, 5.87808511265776392762e-02) (7, 4.84394551868974232445e-01) (8, 5.35950181786959523045e-01) (9, 1.50147231696872163198e-01) (10, 3.46114284747184808300e-01) (11, -2.82712150436214143534e-02) (12, 3.15551964471304902116e-01) (13, 5.37610015054092560405e-01) (14, 4.05341297203572370478e-01) (15, 6.64443087783414432224e-01) (16, 1.72754106396986073513e-01) (0, 3.01700003391656090823e-01) (1, 3.37356691423991550405e-01) (2, -1.29184361691578292186e-01) (3, -2.22674678581554486012e-02) (4, -1.82831590262326232343e-01) (5, 4.58239092728874142235e-01) (6, -1.86457094934853545576e-01) (7, 6.35713229494738074621e-01) (8, -1.88194080810631325651e-01) (9, -7.97952589779887255794e-02) (10, 6.80483953898451121578e-02) (11, 1.06589035210130883558e-01) (12, -6.93228320374277562355e-02) (13, 1.88897012552336179825e-01) (14, -1.20201925375555587761e-01) (15, 3.85451418776119714149e-01) (16, -7.84933634054979789685e-02) (0, -5.56894617411304526655e-01) (1, -7.87201687126446669751e-01) (2, 1.09117182206301413516e-01) (3, 3.67655417177176757626e-02) (4, 6.55178025767863408957e-02) (5, -5.82204071115236199141e-01) (6, -7.09515600285080122456e-03) (7, -5.50265174960339664700e-01) (8, 4.81396460311167395663e-01) (9, -1.25170411048561747158e-01) (10, 3.19921217685274095199e-01) (11, 4.91990208220435196185e-02) (12, 3.00115350612339334968e-02) (13, -8.51330615597638562519e-02) (14, -6.44899378178113019677e-02) (15, -5.87990054808872675274e-01) (16, -4.98375858886973777118e-01) (0, 3.74598962014431602352e-01) (1, -9.43353845312890071373e-02) (2, 7.12761208720613659295e-01) (3, 4.17494853154616152313e-01) (4, 7.13777199693132580194e-01) (5, -1.06872113778326421896e-02) (6, 5.17172642357755729670e-01) (7, -8.98460669949349421959e-02) (8, 1.30064735433380929130e-01) (9, 1.83490915328087811353e-01) (10, 1.82963185782054005291e-01) (11, 3.10631307764441200181e-01) (12, 4.88138350288631894802e-01) (13, 6.79558711426406641953e-02) (14, 5.08007423289903670138e-01) (15, 3.01667143170779583627e-01) (16, 3.10501124778202186594e-01) (0, 2.99756014208862331394e-01) (1, 3.30745709905523543881e-01) (2, -1.47144266867586248626e-02) (3, 2.44572751079427136434e-01) (4, 2.18781575923698984321e-02) (5, 2.66091856294056516852e-01) (6, 7.10398486352018243561e-02) (7, 1.95473403389451710899e-01) (8, 8.97530169493602203445e-01) (9, 6.21473025633728914929e-02) (10, 5.47673654137766363625e-01) (11, 5.61441542618523123376e-02) (12, 1.66582192754318014760e-01) (13, 7.17527797937831529618e-02) (14, 3.06722983759259937298e-01) (15, -3.63678853342420463357e-02) (16, 7.80494742841462418870e-02) (0, -1.08797577591800254115e-01) (1, -4.64122111553886065871e-02) (2, -5.80569543525813469564e-01) (3, -3.98399942339959289850e-01) (4, -5.46480462536452660238e-01) (5, 8.70909952018411315233e-02) (6, -4.77122150942919986960e-01) (7, 4.61340069859480436665e-02) (8, -3.17843772155317449979e-01) (9, -1.93435495417075969948e-01) (10, -2.26239672190218732428e-01) (11, -5.83447918376402696605e-02) (12, -1.60954734489566651454e-03) (13, 7.29227625441036253484e-02) (14, -1.69056067005482688059e-02) (15, -2.08335788760001250353e-02) (16, 9.43839613944530281264e-02) (0, -4.12584559942713591241e-02) (1, -8.84694195717751430408e-01) (2, -1.24851743154072117314e-01) (3, 1.79636067322483689024e-01) (4, -2.04119401447319298581e-01) (5, -1.81006805265685799533e-01) (6, -1.93604598216556816892e-01) (7, -4.83618224228647586305e-01) (8, 7.35182733346106120909e-02) (9, 2.33017760034720973483e-02) (10, 6.06763415042923734410e-02) (11, 1.22956551999174115708e-01) (12, -1.71764596925022272611e-02) (13, -1.06927816232132946728e-01) (14, -1.00673410570359014859e-01) (15, -1.52435521449411609529e-01) (16, 2.34079432576078827477e-01) (0, 1.08390156089568456821e+00) (1, 1.24044215605958729753e+00) (2, 7.17144909941847541468e-02) (3, 3.00906285869849521308e-01) (4, -4.84435971143885087814e-03) (5, 1.04538304899159517625e+00) (6, -4.55470715022389324722e-02) (7, 1.19146071696678590435e+00) (8, 4.09519228500138832150e-01) (9, 6.34105724369800949347e-01) (10, 4.53459195168969431133e-01) (11, 5.12616603821011262987e-01) (12, 6.51234772684813556509e-01) (13, 4.33447740825730620795e-01) (14, 6.79032291174971103231e-01) (15, 3.26258833837161310587e-01) (16, 4.26691633404718995148e-01) (0, 1.13492313657664808946e-01) (1, 2.06326861475434109039e-01) (2, -8.55483924939573620039e-02) (3, -2.48257448506643690900e-01) (4, -1.72085112889045543927e-01) (5, 2.77448066356387190723e-01) (6, -1.28648520994992660027e-01) (7, 2.97441750044181330015e-01) (8, -1.11170094774018346495e-01) (9, -1.78428419542872002124e-01) (10, 2.19955434384979442441e-01) (11, 4.57146125983917017699e-01) (12, -2.42133447922830341570e-01) (13, -1.70944291433748341014e-01) (14, -4.81844060410072272393e-01) (15, 1.09050352008634582335e-01) (16, 1.21535605396447934923e-01) (0, 1.75115204940729318750e+00) (1, 7.52762502183907278308e-01) (2, 1.81131272595011383331e-01) (3, 5.20478598418596880015e-02) (4, 1.44962548296534210479e-01) (5, 1.10832580643392830666e+00) (6, 5.52164158035151342308e-02) (7, 6.06073093797149464734e-01) (8, 1.53226544915874451913e-01) (9, 1.71726568104328625175e-01) (10, 1.39977293989827084042e-01) (11, 4.21689429782650060385e-01) (12, 1.14509497686501870994e-01) (13, 9.68193478980347854712e-02) (14, 6.34153320419768018468e-02) (15, 1.44882917997838978064e-01) (16, -1.84276732095772777242e-01) (0, -2.24605168562977741686e-01) (1, -8.28736803215140427348e-02) (2, 1.06966650792539502701e-01) (3, 8.14984207122193327066e-01) (4, 1.73544815489232895356e-01) (5, -1.72238830840174023118e-01) (6, 1.63677423008859512787e-01) (7, -2.27336814527303643363e-01) (8, 2.69133365225571408175e-01) (9, 7.85935612395057825452e-01) (10, 4.53293331808897081991e-01) (11, 5.25822624678820016442e-01) (12, 4.08998472680691838033e-01) (13, -1.86818588855385075975e-01) (14, 2.69713000104332911722e-01) (15, -1.10990974643249376563e-01) (16, -1.55639265794193848436e-01) (17, -3.28837331395367804543e-01) (18, -5.90338957129153425046e-04) (19, 8.38479031183086559453e-02) (20, 5.32394890245573085275e-02) (21, 4.63736564690120575682e-02) (22, 2.65481977968497040443e-01) (23, 3.84715208598498614734e-01) (24, 2.57434504120665277882e-02) (25, 1.55377363087327718949e-02) (26, 6.97674555499569803985e-01) (27, 2.47039174522421856040e-01) (28, 3.66119518327989945661e-01) (29, 4.47575403664862269543e-03) (30, 2.48942775211934863577e-01) (31, 8.69397344505758895572e-01) (32, 5.29424567278997462716e-02) (33, 6.34540824409632109315e-01) (34, -1.65606685639785346231e-02) (35, 3.67984385251128934269e-02) (36, 2.93856951746789052393e-01) (37, 4.26103740690860433027e-01) (38, -6.80452889229396506998e-02) (39, 7.33823061443651947222e-01) (40, 2.78374452368163383120e-01) (41, -2.52981063270009687294e-01) (42, 2.52919063908401575702e-01) (43, 4.97575507430224328598e-01) (44, 8.87988598804070994319e-01) (45, -3.35379808973555321172e-02) (46, 6.49778048684988424055e-02) (47, -4.01313379176712475838e-02) (48, 3.38881372788217116732e-01) (49, 1.01268360728593256881e-01) (17, 3.94302211553389847509e-01) (18, 2.17443145449371273703e-02) (19, 3.74546935326056859572e-02) (20, 1.00895614329416904997e-01) (21, 2.71556358660875518662e-01) (22, 2.54667241103509883748e-02) (23, 4.71471996456401531983e-01) (24, -1.31717729638956088101e-01) (25, -1.67696677358533219326e-01) (26, 3.94080161211504409469e-01) (27, 2.95595980817993209122e-01) (28, 4.32643844841905933496e-01) (29, 8.62997061555407368738e-02) (30, 2.23470507842209120675e-01) (31, 9.69419516438371320355e-01) (32, 1.95767372281036688975e-01) (33, 2.03023153702726721903e-01) (34, 1.19598820054238295929e-02) (35, -2.35336146707799398481e-01) (36, 3.05446075931178784302e-01) (37, 8.15159794201425480509e-01) (38, 1.89352572725731242709e-02) (39, 3.94749214436209971968e-01) (40, 1.03259496203144407467e+00) (41, 5.21155752253272708252e-01) (42, -3.16113072633617098184e-01) (43, 5.35462162440515143658e-01) (44, -2.66070213763980434329e-01) (45, -5.34021877436015812712e-01) (46, 3.35341177360004627506e-01) (47, -1.19445443363572378903e-01) (48, 1.36218399202493650746e-01) (49, 2.92113545002162244835e-01) 
