FANN_FLO_2.1
num_layers=3
learning_rate=0.250000
connection_rate=1.000000
network_type=0
learning_momentum=0.000000
training_algorithm=2
train_error_function=1
train_stop_function=0
cascade_output_change_fraction=0.010000
quickprop_decay=-0.000100
quickprop_mu=1.750000
rprop_increase_factor=1.200000
rprop_decrease_factor=0.500000
rprop_delta_min=0.000000
rprop_delta_max=50.000000
rprop_delta_zero=0.100000
cascade_output_stagnation_epochs=12
cascade_candidate_change_fraction=0.010000
cascade_candidate_stagnation_epochs=12
cascade_max_out_epochs=150
cascade_max_cand_epochs=150
cascade_num_candidate_groups=2
bit_fail_limit=3.49999999999999977796e-01
cascade_candidate_limit=1.00000000000000000000e+03
cascade_weight_multiplier=4.00000000000000022204e-01
cascade_activation_functions_count=10
cascade_activation_functions=3 5 7 8 10 11 14 15 16 17 
cascade_activation_steepnesses_count=4
cascade_activation_steepnesses=2.50000000000000000000e-01 5.00000000000000000000e-01 7.50000000000000000000e-01 1.00000000000000000000e+00 
layer_sizes=17 17 3 
scale_included=0
neurons (num_inputs, activation_function, activation_steepness)=(0, 0, 0.00000000000000000000e+00) (0, 0, 0.00000000000000000000e+00) (0, 0, 0.00000000000000000000e+00) (0, 0, 0.00000000000000000000e+00) (0, 0, 0.00000000000000000000e+00) (0, 0, 0.00000000000000000000e+00) (0, 0, 0.00000000000000000000e+00) (0, 0, 0.00000000000000000000e+00) (0, 0, 0.00000000000000000000e+00) (0, 0, 0.00000000000000000000e+00) (0, 0, 0.00000000000000000000e+00) (0, 0, 0.00000000000000000000e+00) (0, 0, 0.00000000000000000000e+00) (0, 0, 0.00000000000000000000e+00) (0, 0, 0.00000000000000000000e+00) (0, 0, 0.00000000000000000000e+00) (0, 0, 0.00000000000000000000e+00) (17, 13, 5.00000000000000000000e-01) (17, 13, 5.00000000000000000000e-01) (17, 13, 5.00000000000000000000e-01) (17, 13, 5.00000000000000000000e-01) (17, 13, 5.00000000000000000000e-01) (17, 13, 5.00000000000000000000e-01) (17, 13, 5.00000000000000000000e-01) (17, 13, 5.00000000000000000000e-01) (17, 13, 5.00000000000000000000e-01) (17, 13, 5.00000000000000000000e-01) (17, 13, 5.00000000000000000000e-01) (17, 13, 5.00000000000000000000e-01) (17, 13, 5.00000000000000000000e-01) (17, 13, 5.00000000000000000000e-01) (17, 13, 5.00000000000000000000e-01) (17, 13, 5.00000000000000000000e-01) (0, 13, 0.00000000000000000000e+00) (17, 13, 5.00000000000000000000e-01) (17, 13, 5.00000000000000000000e-01) (0, 13, 0.00000000000000000000e+00) 
connections (connected_to_neuron, weight)=(0, 1.66515244489550628959e-01) (1, 4.51215356109316723804e-03) (2, 1.39294187795136192864e-01) (3, 1.50725817195617145527e-01) (4, 2.40434678018129815991e-01) (5, -5.89705743842795157561e-02) (6, -1.30334763152973047602e-03) (7, 2.81677279544580543014e-02) (8, -2.33660801597345008096e-01) (9, 1.11682734721575541159e-01) (10, -1.57170747901151236503e-01) (11, 2.35079867821982202436e-01) (12, 5.19751951705326523112e-02) (13, 3.85667660002378009931e-01) (14, 1.65309470493319926598e-01) (15, 2.37056068077632131619e-01) (16, -1.30353135214800519570e-01) (0, -3.52675321266886054872e-01) (1, -6.36486243082284297579e-01) (2, 4.14761036206699185147e-01) (3, 8.94017034310141817111e-02) (4, 5.06657581913826371434e-01) (5, -4.54580679234858897608e-01) (6, 5.31270722625635238856e-01) (7, -5.76129116697548737669e-01) (8, -1.08897854370610072672e-01) (9, 1.25576171360007315947e-01) (10, -7.01707776647318703933e-02) (11, 2.58624719998533869614e-01) (12, -2.37114533861922348323e-02) (13, 3.40423681280018541884e-01) (14, 8.07836328370486189687e-02) (15, 3.77447960418066441601e-01) (16, -1.00222502612205957573e-01) (0, -1.26951241048921303900e+00) (1, -8.18938187668146189147e-01) (2, -4.80841179640650040472e-02) (3, 2.73627107668861668799e-01) (4, -3.50713896624380849776e-01) (5, 6.07776791979909414287e-01) (6, -1.24589909885310445858e+00) (7, -1.53478566169052366153e-01) (8, 1.47446177876983913757e-01) (9, 2.54250511562364833740e-01) (10, 3.89294631050889239354e-01) (11, 2.45330837818823616070e-02) (12, 1.66346154855783218141e-01) (13, -5.57109056494454302211e-01) (14, 2.06699453849700509611e-01) (15, -3.98937127396079116437e-01) (16, 2.43054064820481474651e-01) (0, 9.39008660452007148933e-01) (1, 1.49729803610981360151e+00) (2, 1.14217416976301319731e-01) (3, -1.06257329708670814061e-01) (4, 8.98145154244212179373e-02) (5, 8.71978207985920072964e-01) (6, 3.01585585089891694555e-01) (7, 9.02569247160341703307e-01) (8, 2.15118803577029837903e-01) (9, 1.05957008328546750664e-01) (10, 2.01981176442875082211e-01) (11, 2.88937759877703870259e-01) (12, 6.34452329511105833637e-02) (13, 3.77744918034132792783e-01) (14, 1.82965512128512974854e-01) (15, 3.09552006245899180570e-01) (16, 5.56495220877419316530e-01) (0, 7.69919637838995751800e-01) (1, 1.05602793720753940221e+00) (2, -2.83821551447664355283e-01) (3, -3.72709499361367380121e-01) (4, -7.78652303024250591612e-01) (5, 1.70372708361050273496e+00) (6, -3.46323796379706949633e-01) (7, 1.37730752687373469989e+00) (8, 6.33104740995335951714e-02) (9, 2.92819311082267497159e-01) (10, 2.20391647175849220153e-01) (11, 6.35196124633049530317e-02) (12, 3.87409812644014694971e-01) (13, 1.79611058890589980752e-01) (14, 5.27757866791164625964e-02) (15, 4.00667720446751307595e-01) (16, 1.79687994360507932723e-02) (0, 3.38486938390753777650e-01) (1, -1.01964198224243823843e-01) (2, 9.13581964740415863879e-01) (3, 5.88142208305673319657e-01) (4, 7.32640385390621262651e-01) (5, 3.82089633194097055835e-02) (6, 7.53322783729937106578e-01) (7, 5.97585733783784281425e-02) (8, 3.76725420727219095784e-01) (9, 1.15131301017341050597e-01) (10, 2.18608712253585246721e-01) (11, 1.62948424440355954523e-01) (12, 6.20598595253067153443e-01) (13, 8.03870312671072340116e-01) (14, 7.53924298735473841226e-01) (15, 9.81384324145564312936e-01) (16, 2.77129829454119624987e-01) (0, -6.07302788562124384875e-01) (1, -3.27821160610737460939e-01) (2, -1.23478106455840550004e-01) (3, 2.31288533868521967163e-01) (4, -6.36183316107727603317e-01) (5, -1.63647551762805432141e-01) (6, -8.56802312133535970418e-01) (7, 9.67747392388951660491e-02) (8, -1.12844341542357812225e-01) (9, 5.17913610724646589212e-01) (10, -3.84346696454741787452e-01) (11, 5.68763426912060165996e-01) (12, -6.13828462196313734411e-02) (13, 6.13081203852645154062e-02) (14, 1.51836913615369661912e-01) (15, -8.79036265937776714607e-03) (16, -2.39403791985759312189e-02) (0, 2.14676645286115200251e-02) (1, 3.92165763341371514938e-02) (2, -3.28968944087779990859e-01) (3, 1.69647076616130307314e-02) (4, -7.26495847664411331657e-01) (5, 2.76639916049995354674e-02) (6, -2.52287097364168433344e-01) (7, 1.46476893165484206571e-01) (8, 1.23194640826590179339e-01) (9, 3.06114431890125326952e-01) (10, 4.04517999609602940669e-01) (11, 4.17405384691559522281e-01) (12, 3.62040760201238653870e-01) (13, -1.33867966613987837698e-01) (14, 1.99776142797337769030e-01) (15, -4.22671986665449986309e-02) (16, -9.63347265022267418288e-02) (0, -8.15797396706859079263e-02) (1, -4.26753905237238051473e-01) (2, 5.02850479824238250082e-01) (3, -2.13631471665694350204e-01) (4, 4.64524061059777004790e-01) (5, -7.41416963619228819304e-01) (6, 3.75779600207500064091e-01) (7, -4.51095707117528887942e-01) (8, -3.90514868676680310111e-02) (9, 3.50739601238069242939e-01) (10, -1.25336683054006418209e-02) (11, 2.06061584316601403843e-01) (12, -8.00539299139019638885e-02) (13, 9.68541261555098259572e-02) (14, 9.63021045671129671817e-02) (15, -5.02766468014926651287e-02) (16, -4.04733636288913262158e-02) (0, 4.33966809917819065778e-02) (1, 2.73286439121335433811e-01) (2, 4.97907662445569498821e-01) (3, 4.49700886435186297785e-01) (4, 4.03324644867247172897e-01) (5, 5.66964864011533786758e-01) (6, 4.78210193881368872404e-01) (7, 4.01165131100400640385e-01) (8, 3.28155120137327060981e-01) (9, 5.63110977080818475571e-01) (10, 2.77966757538245790027e-01) (11, 4.68095838094082450365e-01) (12, 4.20527124057920420608e-01) (13, 6.28415131781368652142e-01) (14, 4.96282874184815814278e-01) (15, 4.71703060200761137288e-01) (16, 1.00746516374074536471e-02) (0, 2.06510957601293093644e-01) (1, 2.83542505609438000302e-01) (2, 5.23733979414943817687e-01) (3, 6.88578990023236636731e-01) (4, 7.70654416771344163983e-01) (5, 1.17266642412679908403e-01) (6, 1.52960038692204713939e+00) (7, 8.74121470890223406514e-02) (8, 4.74873778747681329904e-01) (9, 5.09941413934423160015e-01) (10, 3.82865201781254382851e-01) (11, 3.91488197049915331860e-01) (12, 5.92131992192001743724e-01) (13, 8.35592946201392683392e-01) (14, 6.83463424148011533532e-01) (15, 6.72964690308820223663e-01) (16, 2.77963496850236968516e-01) (0, 2.86118449862511614601e-01) (1, 1.99987784863564083127e-01) (2, 1.57483837444335611488e-01) (3, 2.67114207759020061417e-01) (4, 2.03875288982239416535e-01) (5, 1.63800379609917778900e-01) (6, 3.69488945460662299158e-02) (7, 6.57720705467075283934e-02) (8, -2.56745853710013058335e-02) (9, 4.78477538443448702221e-01) (10, -3.22622817253908969470e-02) (11, 4.69794212007459854874e-01) (12, 3.40478147227817773413e-01) (13, 1.79030676807200167522e-01) (14, 3.88897440659788706796e-01) (15, 3.41816760852421908101e-01) (16, 3.83387180883895117844e-01) (0, 1.96394582569158260288e-01) (1, 4.52095791723877815649e-01) (2, 3.08928086017916880834e-01) (3, -9.79647402542433654027e-01) (4, 1.28998591436426061213e-02) (5, 1.46511390563077759097e+00) (6, 1.39619144882119822215e-01) (7, 7.23556875382531994312e-01) (8, 1.71205074168588944339e+00) (9, 2.12137018370965768632e-01) (10, 1.79551654040938868384e+00) (11, -6.55828742889972941821e-03) (12, 1.36955194618046194321e+00) (13, 7.76876790496728100721e-03) (14, 5.65677144890678107458e-01) (15, -1.48151937949103945646e-01) (16, 4.48838737315638613978e-01) (0, 4.65445356589791608970e-02) (1, -2.57012645978963005788e-01) (2, 7.59804497257799749121e-01) (3, 7.90373528597884567048e-01) (4, 1.09409283016114655673e+00) (5, -4.38878277504556268962e-01) (6, 9.67674549888406065890e-01) (7, -3.22232621424632381668e-01) (8, 6.45321615074100130016e-01) (9, 1.57912572750732227433e-01) (10, 5.04304728577675609458e-01) (11, 2.04930933157922295917e-01) (12, 6.94018361006291217841e-01) (13, 7.13298234312803314250e-02) (14, 7.39084834215470665164e-01) (15, 2.31459897464424552149e-01) (16, 4.71671734694212807515e-01) (0, 1.36531162802743066820e+00) (1, 6.31202475615168623335e-01) (2, 5.04589378722728354454e-01) (3, 1.17621285440771120023e-01) (4, 5.81546447188952320140e-01) (5, 7.62086413952159508201e-02) (6, 4.64618309055988665257e-01) (7, 5.38573863585367407225e-01) (8, 5.55086301870791998248e-01) (9, 2.10482970146812220502e-01) (10, 3.54274996627013671890e-01) (11, 2.09370636288922967738e-01) (12, 1.40784281498462671145e-01) (13, 1.44020495474530396685e+00) (14, 3.79124541088768862718e-01) (15, 4.01609200241274943988e-01) (16, 3.54564604526194510070e-02) (0, 4.20649537630903402885e-01) (1, 8.01782131779482210021e-01) (2, 3.83195405716148934649e-02) (3, 3.19461682389666323800e-01) (4, 5.20534043343057750697e-02) (5, 6.61484408928071587752e-01) (6, 1.05262601100746686078e-01) (7, 1.05984492680660080666e+00) (8, 3.68581658854877314280e-01) (9, 2.55000688610073078522e-01) (10, 2.58440048671477184961e-01) (11, 1.36060653193752462142e-01) (12, 2.61328143822167457966e-01) (13, 4.12771729485122251813e-01) (14, 1.99438429277381312765e-01) (15, 2.93526297676879377452e-01) (16, -1.56847234730249834866e-01) (17, -1.79170640720566348714e-02) (18, 4.38411448024823499625e-02) (19, 2.78430155775817977926e-01) (20, -1.35527962005583479943e-01) (21, 9.87948503342672562644e-02) (22, -3.39367874927269039254e-02) (23, 1.05665478469995433031e+00) (24, 6.03529041645324060283e-01) (25, -5.83600754603541202470e-02) (26, 5.15338788373247667918e-03) (27, -3.23402287755228876054e-02) (28, -3.21700425583258120543e-01) (29, 6.81482798295360153729e-02) (30, -1.26744685673166518347e-01) (31, -2.38230064609503203177e-02) (32, 5.86496357947355217988e-01) (33, 1.73682272014672511862e-01) (17, 4.64526768584373805915e-01) (18, 8.17503401536271989691e-01) (19, 7.71978728601794839115e-02) (20, -1.34696061476778539134e-01) (21, -1.50423443563142023027e-01) (22, 1.53245197685782930108e-02) (23, 6.44168032811558211037e-01) (24, 1.71216382184699755786e-01) (25, 1.28579382381740797703e-01) (26, 1.04743901369061975792e-01) (27, 1.51513550924752969824e-03) (28, 5.15016015346669991937e-02) (29, 4.43775975642953096623e-02) (30, -9.86556214290841976267e-02) (31, 3.46709738453605531561e-02) (32, -1.40542290905100036857e-01) (33, 1.05775905230375166788e-01) 
