FANN_FLO_2.1
num_layers=3
learning_rate=0.020000
connection_rate=0.500000
network_type=0
learning_momentum=0.000000
training_algorithm=2
train_error_function=1
train_stop_function=0
cascade_output_change_fraction=0.010000
quickprop_decay=-0.000100
quickprop_mu=1.750000
rprop_increase_factor=1.200000
rprop_decrease_factor=0.500000
rprop_delta_min=0.000000
rprop_delta_max=50.000000
rprop_delta_zero=0.100000
cascade_output_stagnation_epochs=12
cascade_candidate_change_fraction=0.010000
cascade_candidate_stagnation_epochs=12
cascade_max_out_epochs=150
cascade_max_cand_epochs=150
cascade_num_candidate_groups=2
bit_fail_limit=3.49999999999999977796e-01
cascade_candidate_limit=1.00000000000000000000e+03
cascade_weight_multiplier=4.00000000000000022204e-01
cascade_activation_functions_count=10
cascade_activation_functions=3 5 7 8 10 11 14 15 16 17 
cascade_activation_steepnesses_count=4
cascade_activation_steepnesses=2.50000000000000000000e-01 5.00000000000000000000e-01 7.50000000000000000000e-01 1.00000000000000000000e+00 
layer_sizes=19 19 3 
scale_included=0
neurons (num_inputs, activation_function, activation_steepness)=(0, 0, 0.00000000000000000000e+00) (0, 0, 0.00000000000000000000e+00) (0, 0, 0.00000000000000000000e+00) (0, 0, 0.00000000000000000000e+00) (0, 0, 0.00000000000000000000e+00) (0, 0, 0.00000000000000000000e+00) (0, 0, 0.00000000000000000000e+00) (0, 0, 0.00000000000000000000e+00) (0, 0, 0.00000000000000000000e+00) (0, 0, 0.00000000000000000000e+00) (0, 0, 0.00000000000000000000e+00) (0, 0, 0.00000000000000000000e+00) (0, 0, 0.00000000000000000000e+00) (0, 0, 0.00000000000000000000e+00) (0, 0, 0.00000000000000000000e+00) (0, 0, 0.00000000000000000000e+00) (0, 0, 0.00000000000000000000e+00) (0, 0, 0.00000000000000000000e+00) (0, 0, 0.00000000000000000000e+00) (10, 4, 5.00000000000000000000e-01) (10, 4, 5.00000000000000000000e-01) (10, 4, 5.00000000000000000000e-01) (10, 4, 5.00000000000000000000e-01) (10, 4, 5.00000000000000000000e-01) (10, 4, 5.00000000000000000000e-01) (10, 4, 5.00000000000000000000e-01) (10, 4, 5.00000000000000000000e-01) (10, 4, 5.00000000000000000000e-01) (10, 4, 5.00000000000000000000e-01) (10, 4, 5.00000000000000000000e-01) (10, 4, 5.00000000000000000000e-01) (10, 4, 5.00000000000000000000e-01) (10, 4, 5.00000000000000000000e-01) (10, 4, 5.00000000000000000000e-01) (10, 4, 5.00000000000000000000e-01) (10, 4, 5.00000000000000000000e-01) (10, 4, 5.00000000000000000000e-01) (0, 0, 0.00000000000000000000e+00) (10, 0, 5.00000000000000000000e-01) (10, 0, 5.00000000000000000000e-01) (0, 0, 0.00000000000000000000e+00) 
connections (connected_to_neuron, weight)=(18, -6.53436695079982143852e-01) (3, 1.04600651154379953311e+00) (6, 4.37922076701641072027e-01) (9, 2.29445163110439454002e+00) (8, 2.95268545898398071525e-01) (10, -7.29488219688170236310e-01) (14, 2.16383955966395946646e+00) (2, -2.13152623645603112035e-01) (16, 1.82196591891253878437e+00) (13, 4.94122350189518944052e-02) (18, -3.61816435718493822904e+00) (5, 8.30009177973666911754e-01) (6, -1.72813888508691171353e+00) (1, -1.57361381025773972020e+00) (11, 7.58055385594802039195e-02) (16, 3.93458308472934614741e+00) (4, -5.69939193780469643968e+00) (15, -1.07022197189175627408e+00) (12, 2.08324969926276182264e+00) (8, 1.27126252476710077666e+00) (18, -6.13241383305095699718e-01) (1, 4.53744297748196601106e+00) (7, 4.46293679246078678347e+00) (6, -2.43279224120823311939e-01) (15, 2.32855162876447785436e+01) (9, 2.22429789811240441466e+00) (8, -3.23721686692465571156e+00) (3, 4.77513573759620960080e-02) (17, -9.07955956628361882110e+00) (13, -1.14775634509756532253e+01) (18, -5.71600229454041069976e-02) (12, -1.41004600167666581001e+03) (15, 1.50000000000000000000e+03) (16, 6.81496012971750360521e+02) (1, 5.50390480575503488581e+02) (2, 6.23116358250001556307e-01) (0, -1.91501722779721944789e+02) (6, 1.15520041300729599243e+03) (13, 2.54260897336822715431e+01) (7, -1.07588802357699159984e+03) (18, -2.48492955938264525884e+00) (0, -3.88094167812705670428e+00) (16, -9.84573776683826500100e-03) (6, -1.18396611388065925441e-01) (5, -7.98039818296148562027e-01) (11, -8.26750770941601792474e-02) (14, -2.31524495395052865021e+00) (7, -5.02018863707358486970e-01) (4, -6.06894850274834474213e-01) (9, -2.83933858526930249511e+00) (18, 8.44032934887728569784e-01) (11, -1.75335150618343771356e+00) (14, -1.34491947119324084525e+01) (16, 6.81276264824106370099e+00) (12, 9.15981410598037015802e+00) (13, 1.95146659090811560588e+01) (1, 2.78997364398667979657e+00) (4, -3.52698389148970514739e+00) (6, -2.88763712737588651436e+00) (15, -1.40430269256284940838e+01) (18, -5.92987176061579912556e+00) (8, -4.86596379926567035312e+00) (7, 2.90965283208899805345e-01) (6, -7.61976091826544132957e-01) (15, 2.32571494422206814789e+00) (1, 2.09963776012262304249e+00) (16, -6.11157570743410616387e+00) (5, -1.72459194689055372862e+00) (4, 1.44379976521454911342e+00) (11, -4.52545476250717015887e+00) (18, -2.31004405092633452456e-01) (6, 2.46348831968590364916e-01) (17, -7.59771974649170811489e+00) (0, -1.37450626180213952843e+00) (7, 1.13418323445320878839e+00) (9, -2.69506720202389582486e-01) (14, -1.79428897964386599995e+01) (10, 1.59869715245612914467e-01) (15, 1.62234098487893731999e+01) (16, 1.94140083563590160054e+01) (18, 4.24379700093059697430e-01) (3, 8.74678151215146471031e-01) (4, 1.08480369633395690165e+00) (9, 5.12374601590604661361e-01) (13, 1.53022986455573573039e+00) (5, 6.48403798043788309746e-02) (15, 3.05572846077599402648e+00) (2, 7.49259495985448442656e-02) (12, 4.23725668752296336095e+00) (11, 6.09518985441333094322e-01) (18, -4.26311102602648928084e-01) (5, -1.99442992888319547973e+00) (16, 1.71866238230232717399e+01) (1, -5.77591567557860341431e-01) (10, 5.37559759128955327867e+00) (3, -8.31541561406379869936e+00) (14, -7.03998285829161840610e+00) (11, -7.82231277898524868242e-01) (7, 1.01634137092550052017e+01) (8, -3.89039153805634141392e+00) (18, -4.72429933516153310880e-02) (6, 1.02394897987436880871e-01) (12, 1.79363060186127576401e+00) (10, -2.10120796227692939462e-02) (5, 6.07072543570583225692e-02) (17, -5.34204955229824278717e+01) (2, -6.54245001004410631218e-01) (0, 1.54966567208620398244e-01) (15, 4.69730115893204214217e+01) (7, -4.51828885930208520860e-02) (18, -1.50521185729757855931e+00) (9, 8.52984295418222515650e-01) (13, -1.23958032912696336503e+00) (15, 2.51869863244253666679e+00) (5, -3.50393130034022615149e+00) (3, -7.26611000449675081825e-01) (10, -3.63078222359316571399e+00) (16, -1.01100958266695184484e+00) (1, 8.31862707401556877862e-01) (6, -4.95344680519813618247e-01) (18, -2.64926862654210726333e-01) (7, -8.91127175073249233606e-01) (16, 3.57876975284444487357e+00) (9, -2.58466714074852166316e-01) (5, -2.20910042924762073380e-01) (12, -4.21421572189267479303e+01) (10, -1.82180155188019249346e-01) (3, 1.81314206237609232275e+00) (14, 5.23441194932840539455e-02) (11, -9.52727122624268396578e-01) (18, 1.57122936683613073638e-01) (2, -2.94205423470416782550e-01) (7, 1.05055762920403683580e+00) (12, 3.13689666746031079470e+01) (8, -4.73246238776786343205e-01) (10, -2.95291677246790451594e-01) (4, 1.48651786757413140183e-01) (14, -1.24227766489737212474e+00) (13, -1.66428132534545056842e+01) (1, -2.58828647714723303341e-01) (18, -5.72647626174890400641e-01) (10, 4.02633357402184799412e+00) (15, 4.00103903272309313621e+00) (6, -9.49207703432646265895e-01) (13, -7.64573593262783024471e+00) (2, 1.32792879884559078540e+00) (12, 1.46608457145604842431e+00) (14, -4.24453974148123025500e-01) (8, -6.89941957815403128507e+00) (16, 2.28327184202819077896e+00) (18, -1.95404649239355132639e-01) (17, -4.47938051239415457871e+01) (2, -7.60371999421283306653e-01) (15, 5.07227546496714936097e+01) (1, 3.06626088740633850893e-01) (5, 1.21220515427213140769e-01) (8, 4.08283117888132082718e-02) (9, 7.06560361244037204997e-01) (16, -1.02132115804956424832e+00) (6, -4.46366119964231644612e-01) (18, -3.54559453501582633184e-01) (14, -2.03542638414155030446e+00) (11, 7.36366512545307605464e-01) (12, 2.52541920295243897954e+01) (7, -3.94171643772347302104e+00) (16, -8.53965880493523399331e-01) (10, -1.35527327084940862889e+00) (3, 2.30451536298301062899e+00) (4, 4.87585836152575691216e+00) (9, -4.62639771964615476030e-01) (18, -2.02067205620598017157e-01) (12, -2.33894142709370420619e+01) (10, -4.44943410561184193863e-01) (8, -3.69890577243095330928e+00) (13, -1.88912570858662109963e+00) (11, 7.96270670795225399274e-01) (5, -2.06992668248176053813e-01) (16, 9.14413423955885917849e+00) (9, -2.82072288159113504502e-01) (15, 4.68701086592016302745e+00) (37, -1.03915058143791830259e-01) (19, 2.60997270200320707900e-01) (20, -1.82351784260987237474e+00) (21, 2.21715010358946446045e-01) (22, 1.30232068190726524293e-02) (23, 3.84237348044295712324e-01) (24, 1.81283225606770820315e-01) (25, 1.25481754585638860533e+00) (27, -3.68213864194016582410e-01) (30, 1.98599969635855660988e-01) (37, -6.49819963488829643872e-02) (26, -2.14644987982781559888e-01) (28, 2.77032359667781391543e-01) (29, 2.74750378064756772822e-01) (31, 1.46783659304295294179e-01) (32, 1.35782092998710440801e-01) (33, 1.03097692743175664565e-01) (34, -2.61117427891887465830e-01) (35, -1.22575903664497068424e-01) (36, -1.96606406278204248750e-01) 
