FANN_FLO_2.1
num_layers=3
learning_rate=0.050000
connection_rate=1.000000
network_type=0
learning_momentum=0.000000
training_algorithm=2
train_error_function=1
train_stop_function=0
cascade_output_change_fraction=0.010000
quickprop_decay=-0.000100
quickprop_mu=1.750000
rprop_increase_factor=1.200000
rprop_decrease_factor=0.500000
rprop_delta_min=0.000000
rprop_delta_max=50.000000
rprop_delta_zero=0.100000
cascade_output_stagnation_epochs=12
cascade_candidate_change_fraction=0.010000
cascade_candidate_stagnation_epochs=12
cascade_max_out_epochs=150
cascade_max_cand_epochs=150
cascade_num_candidate_groups=2
bit_fail_limit=3.49999999999999977796e-01
cascade_candidate_limit=1.00000000000000000000e+03
cascade_weight_multiplier=4.00000000000000022204e-01
cascade_activation_functions_count=10
cascade_activation_functions=3 5 7 8 10 11 14 15 16 17 
cascade_activation_steepnesses_count=4
cascade_activation_steepnesses=2.50000000000000000000e-01 5.00000000000000000000e-01 7.50000000000000000000e-01 1.00000000000000000000e+00 
layer_sizes=17 33 3 
scale_included=0
neurons (num_inputs, activation_function, activation_steepness)=(0, 0, 0.00000000000000000000e+00) (0, 0, 0.00000000000000000000e+00) (0, 0, 0.00000000000000000000e+00) (0, 0, 0.00000000000000000000e+00) (0, 0, 0.00000000000000000000e+00) (0, 0, 0.00000000000000000000e+00) (0, 0, 0.00000000000000000000e+00) (0, 0, 0.00000000000000000000e+00) (0, 0, 0.00000000000000000000e+00) (0, 0, 0.00000000000000000000e+00) (0, 0, 0.00000000000000000000e+00) (0, 0, 0.00000000000000000000e+00) (0, 0, 0.00000000000000000000e+00) (0, 0, 0.00000000000000000000e+00) (0, 0, 0.00000000000000000000e+00) (0, 0, 0.00000000000000000000e+00) (0, 0, 0.00000000000000000000e+00) (17, 4, 5.00000000000000000000e-01) (17, 4, 5.00000000000000000000e-01) (17, 4, 5.00000000000000000000e-01) (17, 4, 5.00000000000000000000e-01) (17, 4, 5.00000000000000000000e-01) (17, 4, 5.00000000000000000000e-01) (17, 4, 5.00000000000000000000e-01) (17, 4, 5.00000000000000000000e-01) (17, 4, 5.00000000000000000000e-01) (17, 4, 5.00000000000000000000e-01) (17, 4, 5.00000000000000000000e-01) (17, 4, 5.00000000000000000000e-01) (17, 4, 5.00000000000000000000e-01) (17, 4, 5.00000000000000000000e-01) (17, 4, 5.00000000000000000000e-01) (17, 4, 5.00000000000000000000e-01) (17, 13, 5.00000000000000000000e-01) (17, 13, 5.00000000000000000000e-01) (17, 13, 5.00000000000000000000e-01) (17, 13, 5.00000000000000000000e-01) (17, 13, 5.00000000000000000000e-01) (17, 13, 5.00000000000000000000e-01) (17, 13, 5.00000000000000000000e-01) (17, 13, 5.00000000000000000000e-01) (17, 13, 5.00000000000000000000e-01) (17, 13, 5.00000000000000000000e-01) (17, 13, 5.00000000000000000000e-01) (17, 13, 5.00000000000000000000e-01) (17, 13, 5.00000000000000000000e-01) (17, 13, 5.00000000000000000000e-01) (17, 13, 5.00000000000000000000e-01) (17, 13, 5.00000000000000000000e-01) (0, 0, 0.00000000000000000000e+00) (33, 13, 5.00000000000000000000e-01) (33, 13, 5.00000000000000000000e-01) (0, 13, 0.00000000000000000000e+00) 
connections (connected_to_neuron, weight)=(0, -1.46884429726358378687e+00) (1, 3.03053517996986265803e-01) (2, 2.93171902100837478145e+00) (3, 3.41286865618807944145e-01) (4, 1.88153342855219563035e+00) (5, 3.87571571150369331704e-01) (6, 7.79128583190149104354e-01) (7, 4.64219275013101395633e-01) (8, 5.31520511350106694692e-01) (9, 5.47598628932837949712e-01) (10, 7.01590101622826867178e-01) (11, 5.09461869517071175295e-01) (12, 6.83050803989188382026e-01) (13, 6.75172914092458942292e-01) (14, 2.73200763184298589525e-01) (15, 3.63295528432485359538e-01) (16, 5.72919516054461036569e-02) (0, -3.86465500356508462332e+00) (1, -5.05237324741981352894e-01) (2, 2.25534687632297836668e-01) (3, 6.25398854410972870888e-02) (4, -5.67156217596840733774e-02) (5, 8.97269879361611399915e-01) (6, 5.64882653292539615997e-01) (7, 7.82112070126603220466e-01) (8, 1.61921655031917501033e-02) (9, 1.23283686433661077153e+00) (10, 1.60191176323090017641e-01) (11, 5.09844478292085345750e-01) (12, 1.13772297276860515081e-01) (13, 4.65176820480841857197e-01) (14, 7.34104770624139646440e-02) (15, 5.85205453941796460704e-01) (16, 4.11704347493032363214e-02) (0, -1.38938480225876542784e-01) (1, -1.93921496383375829842e-01) (2, -2.14893324319424594560e-01) (3, 3.79715442083043475119e-01) (4, -4.23697473281411052248e-01) (5, 1.57374310290228414111e-01) (6, -1.67551250980797428181e-01) (7, 6.66697043976631487094e-02) (8, -2.61242030877195594019e-02) (9, 1.74109241897100253116e-01) (10, 2.49741028400030706802e-01) (11, 7.54087771166943032775e-02) (12, -4.40455034252365124070e-02) (13, 8.12533316698346164131e-02) (14, -1.52785459077168894737e-01) (15, -5.85525899183988590702e-02) (16, -2.14903124652099553060e+00) (0, -1.15596583749765513538e+00) (1, 7.82918267714866944473e-01) (2, 9.83181880083574127882e-02) (3, 2.53448482892174753456e-01) (4, 3.51936007655094806879e-01) (5, 7.67993584612907564946e-01) (6, 4.98275053058726380417e-01) (7, 7.57191882746910516211e-01) (8, 5.25517129475978839181e-01) (9, 3.64084367151057131107e-01) (10, 7.78126632196429857125e-01) (11, 3.43947523963244516931e-01) (12, 2.95016101522021179093e-01) (13, -3.02118746941400159733e-02) (14, 1.27619868135023850630e-01) (15, -6.68721996422936698634e-02) (16, -3.55422601515094416236e-01) (0, -1.33382469230615724465e-01) (1, -1.79004679654949233614e-02) (2, 6.95472453323381145651e-01) (3, 1.50386062694007921481e-01) (4, 2.41753242635876185174e-02) (5, -5.72563358702142324863e-02) (6, -1.23711951811989920302e-01) (7, 4.92367381481798940812e-02) (8, -1.73550684134068211595e-01) (9, 1.05074251832712950439e+00) (10, -6.02257015108768056777e-01) (11, -1.63497031690772343104e-01) (12, 2.26459686261333809076e-01) (13, -4.49659360259679452554e-01) (14, 2.87621498292162491861e-01) (15, -7.27588946071606665345e-03) (16, -4.43350904863833772396e+00) (0, -5.45268701689906487573e-01) (1, 2.06261245062003578665e-01) (2, -5.38225190928195082463e-02) (3, 2.18778037753009496624e-01) (4, -7.92874813706155756599e-01) (5, 3.36074213871877136572e-01) (6, -4.78285876678692045694e-01) (7, 2.17552345535847180269e-01) (8, -1.89204262431684533396e-01) (9, 4.41440292823649216292e-01) (10, -3.35576641433783462443e-01) (11, 3.94661154417531023775e-01) (12, 1.02850684811207557234e-01) (13, 1.40228227028200508331e-01) (14, 1.76971411168350939436e-01) (15, 1.82230035389540134805e-01) (16, -1.20461831031435884221e+00) (0, -2.26407207067713400761e+00) (1, -4.98188225027381081933e-01) (2, 3.65400507767192195274e+00) (3, 5.93936374703324942992e-01) (4, 1.16556605920750011585e+00) (5, 1.00480188947040383063e+00) (6, 8.14775480614407798807e-02) (7, 1.42624032289106195126e-02) (8, 5.30974085161339037775e-01) (9, 7.41177380178400957433e-01) (10, 7.00679359550646640997e-01) (11, 1.08272239756752997053e+00) (12, 4.65967843806495585213e-01) (13, 1.16094972655033923381e+00) (14, 4.61919495555751513649e-01) (15, 4.54897514442196837514e-01) (16, 2.88634530503497743759e-01) (0, 2.43271719117723050907e-01) (1, 8.18412106383035742319e-01) (2, 1.90721074263025602846e+00) (3, 7.31936488673230023494e-01) (4, 4.45235087234668913680e+00) (5, -1.60135713510519206437e+00) (6, 4.13362011877274770910e+00) (7, -7.25815216889956649204e-01) (8, -9.18993955785344374121e-01) (9, -6.33588067281989020252e-01) (10, 9.09603697122235321793e-01) (11, -1.60254621897876828318e-02) (12, -2.11231992582047922724e+00) (13, 1.93446839740556408849e+00) (14, 1.01468644780891947832e+00) (15, 3.73182260573350887967e+00) (16, 7.41969206261772207256e-01) (0, 3.57593403693766354046e-01) (1, 1.75240633793405775620e+00) (2, -1.58623422529286561833e+00) (3, 7.67972582325006758452e-01) (4, -3.96731863982136279123e-02) (5, 4.68462972792781040532e-01) (6, 8.48528701520913419820e-01) (7, 8.16552773579857671393e-01) (8, 7.27389208279445087513e-01) (9, 4.44107634779667914682e-01) (10, 7.05849443501079476526e-01) (11, -1.26977910820348843801e-01) (12, 2.30985673181097483919e+00) (13, 4.46390680272964412989e-01) (14, -1.10004505222517479091e+00) (15, -1.60961651647084602601e+00) (16, -8.34705196083764811021e-01) (0, -1.25803399037214269640e-01) (1, 2.35997302783198609211e-01) (2, 2.43484785363830169569e-01) (3, 7.19463859106530666948e-03) (4, -8.39466641825581283420e-01) (5, 7.41288627453522086519e-01) (6, 3.50170857031761109668e-02) (7, 6.16927323863922238978e-01) (8, 3.78454608954143512101e-02) (9, 3.68687916120691572264e-01) (10, -2.46179315718192515128e-01) (11, 2.07153492764117624914e-01) (12, 7.31927485474272304655e-02) (13, 4.71855461472816886670e-02) (14, -3.93484285985178303124e-02) (15, 9.90194317425522330112e-02) (16, -1.10847148601946776658e+00) (0, -7.85459228696967048933e-01) (1, -5.77363481852941271000e-02) (2, 1.65287106432432412406e-01) (3, 2.53293117004735945930e-01) (4, -3.70547920894297000416e-01) (5, 3.16188386781917518675e-01) (6, -4.60348082278145775970e-01) (7, 3.33845287901928855501e-01) (8, -5.69929992871862634018e-02) (9, 5.83882190018360947015e-01) (10, -2.28532279679250882598e-01) (11, 2.02053847547276232977e-01) (12, -1.74658860066959936708e-01) (13, 1.26065090351062447649e-01) (14, -7.43869888345053825729e-02) (15, 1.52211894363213168235e-01) (16, -2.17292814386539445692e+00) (0, -4.31766575776096617201e-01) (1, 5.95341612785202589642e-01) (2, -8.42621415978875853980e-01) (3, -1.27251525390392361547e-01) (4, -6.08945260023009637962e-01) (5, 1.02524631654919984314e+00) (6, -2.47680058206931119624e-01) (7, 8.18016432642360569183e-01) (8, 6.32522652358712744736e-01) (9, 6.19031790043853891170e-01) (10, 5.81960485321169396222e-01) (11, 3.82772146484692765700e-01) (12, 4.70584523749115024582e-01) (13, 1.77050175883132931975e-01) (14, -8.74042826521946536467e-01) (15, -6.95836144115863142190e-01) (16, -1.16375343081604340489e-01) (0, 9.28372064178841632787e-02) (1, 2.62134987394110507974e-01) (2, -2.39127641874082613738e-01) (3, 9.98795575667986296198e-02) (4, -1.20268810486850230568e+00) (5, 7.37577251607463790783e-01) (6, -4.75915938802885796211e-01) (7, 5.62388148108094454436e-01) (8, 1.41869549831705077381e-01) (9, 5.11717336327701888266e-01) (10, -7.61248395796119831092e-02) (11, 4.83410452433328696742e-01) (12, 2.05688785481022810842e-02) (13, 2.18032787659352883525e-01) (14, -4.77775760441241204024e-01) (15, 2.48798329500746956411e-01) (16, -1.82032343609905084003e-01) (0, -5.49562456386752495874e-01) (1, 9.59130051790650917098e-02) (2, -5.99971356084559176436e-02) (3, 2.73970729353907871406e-01) (4, -7.87172858216732440617e-01) (5, 2.08846482822816204017e-01) (6, -5.45243167198807388019e-01) (7, 3.17299691437924580306e-01) (8, -2.34685933684181613490e-01) (9, 6.23890237140989789566e-01) (10, -2.37769112390214504282e-01) (11, 3.63134316919581312533e-01) (12, 2.16478421743350663009e-01) (13, 2.92550335471904975060e-02) (14, 1.58756001885766107051e-01) (15, 1.51753578856076126735e-01) (16, -1.14854540465468324406e+00) (0, -5.56663634556002984155e-01) (1, 1.92612875386271920064e-01) (2, 1.00852354530476650413e-02) (3, -3.97248309439001551224e-02) (4, -7.57323995539202043936e-01) (5, 3.23193562027950909155e-01) (6, -4.52902091255036387540e-01) (7, 4.53335979252881604573e-01) (8, -1.03632735132460594707e-02) (9, 7.46065585222263738530e-01) (10, -4.64158693433819324881e-02) (11, 2.42811677981266238469e-01) (12, 2.02424131050386257868e-01) (13, 1.11227437019198651530e-02) (14, 2.39934594478238866211e-01) (15, 6.51150235764119261761e-02) (16, -1.20041434983743622311e+00) (0, 1.08526580884541881677e-01) (1, -1.23561920906719524549e-01) (2, 1.90021728026726927085e-01) (3, 3.78237090464294989367e-01) (4, 7.69099195286225278956e-02) (5, -8.96841262680456302592e-02) (6, -3.90317434836098375861e-01) (7, -1.14495613926260762089e-02) (8, 1.47995125295160095957e-01) (9, -4.25754905555336182754e-01) (10, 1.74116620509286335050e-01) (11, -2.59507788421247886923e-01) (12, 1.93654467406641828120e-01) (13, -3.65703337479940215893e-01) (14, 2.81880800565161515614e-01) (15, -5.74904550998014518548e-01) (16, -5.90530622942531024933e+00) (0, 7.28913256404861709115e-01) (1, 1.51075310958276376461e+00) (2, 3.53924254985213515567e-01) (3, 5.28023439498944813231e-01) (4, 5.07552616637527598265e-01) (5, 1.08685496359520938903e+00) (6, 4.36783655943326687421e-01) (7, 1.11116984099144255893e+00) (8, 7.03089434691330672500e-01) (9, 8.92635856013272027676e-02) (10, 1.98150082981559583217e+00) (11, 1.78617282975339491946e-01) (12, 9.21196597235802050463e-01) (13, 3.96070380099141361452e-01) (14, 6.07052614519407729432e-01) (15, 4.96253191883242905647e-01) (16, 4.62890509239345993020e-01) (0, 6.90453189651299981122e-01) (1, 1.24491288611995853941e+00) (2, 4.19257064805234613836e-01) (3, 5.09336651182162536422e-01) (4, 1.56611208946936614206e-01) (5, 1.60529112215845137790e+00) (6, 2.71354343860321367554e-01) (7, 1.39228347758884374308e+00) (8, 5.17075441809429880990e-01) (9, 8.32564639856974930687e-01) (10, 5.33737606972519040838e-01) (11, 7.35136980243249693601e-01) (12, 5.24643840818117435099e-01) (13, 6.17847865551041319776e-01) (14, 5.01929536580406621127e-01) (15, 4.84473317567123085148e-01) (16, 2.62007534205745185041e-01) (0, 1.50176588578347675051e-01) (1, 5.13823298453283255904e-02) (2, 4.77419714805776218558e-01) (3, 3.31888764851981710180e-01) (4, 8.63741586365977309647e-01) (5, -1.11624652753891093204e-01) (6, 6.03533987153393680636e-01) (7, -1.14420866847561572555e-01) (8, 3.13450732607248205852e-01) (9, 1.32329421438525468568e-01) (10, 3.72695061228773549811e-01) (11, 2.61242316185458733901e-01) (12, 3.54694738991922053906e-01) (13, 4.09449156947237602466e-01) (14, 3.25851352549481387832e-01) (15, 3.39587904547792973631e-01) (16, 5.37031378833043415710e-01) (0, 7.98200268359494868875e-01) (1, 2.14979602782914835934e-01) (2, 3.45951139975121391146e-01) (3, 2.75260914998652517216e-01) (4, 3.40145770076862863363e-01) (5, 1.15006480983186318290e-01) (6, 5.85506537620229319807e-02) (7, -5.11884489002719603873e-03) (8, 1.52928192069650248364e-01) (9, 4.87322097414019828054e-01) (10, 2.46558492593826089623e-01) (11, 4.57088211664828214520e-01) (12, 4.90148415011971566591e-02) (13, 3.30600471412071106325e-01) (14, 4.49798606250938592943e-01) (15, 4.30049491946617679083e-01) (16, 1.13931364148644964640e-01) (0, -7.36100502970724379637e-01) (1, -4.30115628015092565928e-01) (2, -3.04760289702179554272e-01) (3, 3.13845829300462494937e-02) (4, -3.37499334129621630929e-01) (5, -5.05632882802124927757e-01) (6, -3.88112244017658813977e-01) (7, -4.00494803619583575327e-02) (8, -1.13199157837730560172e-01) (9, 1.78282467257318749665e-01) (10, -5.60330656866418821971e-02) (11, 5.29242163375109431200e-01) (12, -1.11016207768398350586e-01) (13, 1.06530442070781897201e-01) (14, 1.24387942204725931994e-01) (15, -5.16515072720084150726e-03) (16, -9.08779612545853737737e-02) (0, -7.34687508744590322962e-01) (1, -5.74255829131096851015e-01) (2, 2.72582808697313494495e-01) (3, 5.31817113813615183204e-01) (4, -1.53236208523256201008e-01) (5, -6.39529892463487903420e-01) (6, -5.34720832339061868943e-01) (7, -5.53160657837804881076e-01) (8, 2.35190835271330639378e-01) (9, 3.77096243990240775901e-01) (10, 2.20136724225877294936e-01) (11, 3.70937056884456606287e-01) (12, 4.63683100533060832404e-01) (13, 3.90513639389106048672e-01) (14, 6.18051807503605554750e-01) (15, 1.08356487102568288527e-01) (16, -4.34423982125127922105e-02) (0, -7.31136225338637424365e-01) (1, -1.04502701404856379597e+00) (2, 2.57202421357001387303e-01) (3, 7.72922795397142647911e-02) (4, 2.25924377694412564788e-01) (5, -6.06678218287475479187e-01) (6, 5.64129320834287281694e-02) (7, -6.49090484904248365972e-01) (8, -1.22022009997677899351e-01) (9, 3.19038325069844919124e-01) (10, -2.14095405662717730433e-01) (11, 2.70098918626384187913e-01) (12, -1.51684662136115644415e-01) (13, 7.18761796454197715578e-02) (14, -4.47560291886886160717e-02) (15, 3.39377376141447376079e-02) (16, -5.01396730129235745910e-02) (0, 2.39795490802721250612e-01) (1, 1.05765826047230379614e-01) (2, 5.55858302179898844386e-01) (3, 4.27304286350080220203e-01) (4, 7.19678540803238231405e-01) (5, -2.43011507935127157864e-01) (6, 6.95839979065849600914e-01) (7, -7.90925307875144228964e-02) (8, 1.53095630465554910504e-01) (9, -1.72837260350962272637e-02) (10, 4.16891022165320868087e-01) (11, 2.97745449405740325588e-01) (12, 2.31921295940964805604e-01) (13, 2.56047589255938734532e-01) (14, 3.55588307904236788914e-01) (15, 4.22814939614378271227e-01) (16, 8.27541949503555640533e-01) (0, -6.57570863991212145594e-02) (1, 3.05293127744531600509e-01) (2, 1.91767409909242819710e-01) (3, -3.74192842574023951108e-02) (4, 3.16598694247919143496e-01) (5, 1.88872345379094697115e-01) (6, 6.85893647967253800024e-02) (7, 1.12355215932463656237e-01) (8, 3.74119802025275727253e-01) (9, 2.47995673506151037557e-01) (10, 6.42266009400814907870e-01) (11, 1.94888556070654112018e-01) (12, -5.53137697695004898479e-02) (13, 1.55990362170564639266e-01) (14, -3.77624966440374271182e-02) (15, 1.87114957357033734331e-01) (16, 4.81038928542317362202e-02) (0, 6.02459986651432743976e-01) (1, -6.66365282487698107339e-01) (2, -5.15354123479930814611e-02) (3, 1.01426347971493274747e-01) (4, 6.11742830464827996861e-02) (5, 8.35705975857089833347e-01) (6, 5.94002846351912652811e-02) (7, 6.28074142210816255272e-01) (8, -2.36826753732977390854e+00) (9, 6.94831617941923607162e-01) (10, -1.39791198575000419346e+00) (11, 5.86199661414656181257e-01) (12, -9.56879381998506084450e-02) (13, 2.28279791475373028398e-01) (14, 3.71038869866174680912e-01) (15, 4.12559472530866555573e-01) (16, 2.04602744084779519795e-01) (0, 5.23382739556479126275e-02) (1, 3.58777577786701939999e-01) (2, 2.04215462632594352277e-01) (3, 1.32238119270877974021e-01) (4, -5.32447311966493183610e-02) (5, 2.97026357986912126208e-01) (6, -2.23489339215557830665e-01) (7, 3.31394894987489752047e-01) (8, 3.86665913045875442311e-01) (9, 2.11210613001130004251e-01) (10, 4.14603684810237238523e-01) (11, 2.38682357035318815086e-01) (12, 1.93165672578799518799e-01) (13, 9.06563195208356931154e-02) (14, -2.97442768368888152408e-02) (15, 4.23256278218943418623e-02) (16, -1.18324639231212558332e-01) (0, -7.31226690334548928840e-02) (1, 1.02239217590214170883e+00) (2, 3.03366528100800447731e-01) (3, 1.95028667887310186435e-01) (4, 2.97653613115616666462e-01) (5, 5.69308908788898393460e-01) (6, 2.87180626053444465473e-01) (7, 2.39919089385119688185e-01) (8, 4.09297848670502062429e-01) (9, 1.48561628131683887144e-01) (10, 2.77752830750584822628e-01) (11, 2.16887117886069208383e-01) (12, 2.59038431544049707611e-01) (13, -2.71054349845805189756e-02) (14, 1.16845918784581892513e-01) (15, 1.52911742421303509243e-01) (16, 3.34617960788159175822e-03) (0, 1.54847335202817376620e-01) (1, -1.00636833911943480990e-02) (2, 2.07087000844173863001e-01) (3, -1.04270761496133651525e-01) (4, 3.73801699144694798971e-01) (5, -7.06802851067200726964e-02) (6, 3.10514389384609290623e-01) (7, -6.78672225023127656529e-02) (8, -2.88258250887812539354e-01) (9, 2.10944416322062427982e-01) (10, -1.05308066931901894714e-01) (11, 1.66163561328815101437e-01) (12, -2.22461969934041547958e-01) (13, 4.26701885290247551197e-01) (14, -1.91087481605531461781e-01) (15, 2.26510253018343071796e-01) (16, 5.62881708381163914368e-01) (0, -2.58051649034526542348e-01) (1, -4.04677867308793293155e-01) (2, -4.79453044966214658729e-01) (3, 1.54254369851803657676e-01) (4, -3.91740043326205988894e-01) (5, -2.41742353741541161904e-02) (6, -4.97105282205823451047e-01) (7, -5.18433684083429782707e-02) (8, -1.24598516348701671141e-01) (9, 1.15634863066592388781e-01) (10, 2.58676819082399693517e-02) (11, 3.96832687955440077676e-01) (12, 6.59039366081876909487e-02) (13, -1.14936510027818475366e-01) (14, 1.16591779282027185882e-01) (15, -3.50105277227758318603e-02) (16, -8.31312576108058781665e-02) (0, -3.07921332345520437634e-01) (1, 1.62651475915028098651e-01) (2, 5.58673094276513682033e-01) (3, 2.73321926300042983282e-01) (4, 8.10349104083820659383e-01) (5, -1.52442913300594340420e-01) (6, 8.03867832137538984583e-01) (7, -9.66454051890102139311e-01) (8, 4.22123550473261388571e-01) (9, 7.64064492031406583550e-02) (10, 2.71905095552170905648e-01) (11, 1.13342322630344410905e-01) (12, 2.21988565594046644014e-01) (13, 3.17293293036760348791e-01) (14, 3.13522311750223603433e-01) (15, -4.95353429257997870949e-02) (16, 5.99114229831349764943e-01) (0, 1.26727716702792814196e-01) (1, -2.18345308503727375538e+00) (2, -9.18207308838012825625e-01) (3, -3.76977622391618749642e-01) (4, -1.69752057380501392148e-01) (5, -1.63406852963239479504e-01) (6, -3.57353693672737893205e-01) (7, -2.95465556743510548987e-01) (8, -9.88648338587815200817e-01) (9, 3.51670307183558905617e-01) (10, -1.35046609742619705408e+00) (11, -6.75713332413544337518e-02) (12, -6.10535711053459273501e-01) (13, -3.50122210988481563643e-01) (14, -4.56353049891939477334e-01) (15, 1.48630942986205188960e-01) (16, 1.85897114348072933776e-01) (17, 7.15624344616537372277e-02) (18, 1.83022499540770516857e-01) (19, 3.15393754581099403089e-02) (20, 5.15131231300860401023e-02) (21, 8.27771933778108232049e-02) (22, 1.97731504887164177831e-01) (23, 9.05807062574987553738e-02) (24, 3.15860636990922954981e-02) (25, -4.10396886056037073220e-03) (26, 1.23830236601412901898e-01) (27, 1.03850501328528438405e-01) (28, 8.52198776857977235988e-02) (29, 1.10447990796530753910e-01) (30, 1.97178686708033623631e-01) (31, 1.63389429556906745633e-01) (32, -4.67687326561025518146e+00) (33, -1.07916013222055837129e-01) (34, 1.49538802840244955394e-01) (35, -3.18976049398300931514e-01) (36, 4.86669526117223041894e-02) (37, 3.57575649803706430152e-01) (38, 3.66649619132126181054e-01) (39, 1.31509989591581083479e-01) (40, -5.01403930281420384674e-01) (41, 6.80011568158114670934e-02) (42, 6.56140805235271296070e-02) (43, 9.97653480177414397900e-01) (44, 9.88805950087027207829e-02) (45, -4.14615800157901892575e-01) (46, 3.83916729354678853969e-01) (47, -5.05271501947979650993e-01) (48, -9.09416628176691194119e-02) (49, 1.63558263970713074764e-01) (17, -7.52443775186258517751e-02) (18, -8.80666409846612430190e-02) (19, 6.14468212595316917030e-03) (20, -8.20732053244082326859e-02) (21, 2.80368365453032841739e-02) (22, 3.47939061066984550719e-02) (23, -7.66974281771156812804e-02) (24, -9.46724118293073152453e-02) (25, -7.04025109547891797535e-02) (26, -3.12645665713777356348e-03) (27, 2.19297292890719211500e-02) (28, -1.17229215368620715010e-01) (29, -8.62240190952938412305e-02) (30, 2.99589057122738935957e-02) (31, 2.60145183428147274904e-04) (32, 1.05391195838979214727e+01) (33, -9.71486521889652759887e-02) (34, 1.29342619799117181101e-01) (35, 2.11998866302817001728e-01) (36, 2.49107252925811935296e-02) (37, 3.41592817363234657613e-01) (38, 2.92761842191326171481e-01) (39, 6.00209170036387740232e-01) (40, 2.42531855295740145229e-01) (41, -2.04851885017410917378e-01) (42, 3.69249398290768041098e-02) (43, 2.74184875728601951117e-01) (44, -9.14579602383381456976e-02) (45, 3.00422810749957414078e-01) (46, 2.91003125202430157348e-01) (47, 2.45279709442929844121e-01) (48, 9.02908557285236196277e-02) (49, 6.55783108371801315428e-02) 
